tree
version=v4
num_class=1
num_tree_per_iteration=1
label_index=0
max_feature_idx=180
objective=regression
feature_names=Column_0 Column_1 Column_2 Column_3 Column_4 Column_5 Column_6 Column_7 Column_8 Column_9 Column_10 Column_11 Column_12 Column_13 Column_14 Column_15 Column_16 Column_17 Column_18 Column_19 Column_20 Column_21 Column_22 Column_23 Column_24 Column_25 Column_26 Column_27 Column_28 Column_29 Column_30 Column_31 Column_32 Column_33 Column_34 Column_35 Column_36 Column_37 Column_38 Column_39 Column_40 Column_41 Column_42 Column_43 Column_44 Column_45 Column_46 Column_47 Column_48 Column_49 Column_50 Column_51 Column_52 Column_53 Column_54 Column_55 Column_56 Column_57 Column_58 Column_59 Column_60 Column_61 Column_62 Column_63 Column_64 Column_65 Column_66 Column_67 Column_68 Column_69 Column_70 Column_71 Column_72 Column_73 Column_74 Column_75 Column_76 Column_77 Column_78 Column_79 Column_80 Column_81 Column_82 Column_83 Column_84 Column_85 Column_86 Column_87 Column_88 Column_89 Column_90 Column_91 Column_92 Column_93 Column_94 Column_95 Column_96 Column_97 Column_98 Column_99 Column_100 Column_101 Column_102 Column_103 Column_104 Column_105 Column_106 Column_107 Column_108 Column_109 Column_110 Column_111 Column_112 Column_113 Column_114 Column_115 Column_116 Column_117 Column_118 Column_119 Column_120 Column_121 Column_122 Column_123 Column_124 Column_125 Column_126 Column_127 Column_128 Column_129 Column_130 Column_131 Column_132 Column_133 Column_134 Column_135 Column_136 Column_137 Column_138 Column_139 Column_140 Column_141 Column_142 Column_143 Column_144 Column_145 Column_146 Column_147 Column_148 Column_149 Column_150 Column_151 Column_152 Column_153 Column_154 Column_155 Column_156 Column_157 Column_158 Column_159 Column_160 Column_161 Column_162 Column_163 Column_164 Column_165 Column_166 Column_167 Column_168 Column_169 Column_170 Column_171 Column_172 Column_173 Column_174 Column_175 Column_176 Column_177 Column_178 Column_179 Column_180
feature_infos=[113800:782800] [5:90] [-2:128] [-128:174] [0:1.5499999523162842] [5:80] [-0.17000000178813934:7] [-246500:514400] [0:23] [-79600:102900] [0:122] [0:114] [0:104] [0:85] [0:83] [0:0] [0:0] [0:0] [0:0] [0:2] [0.20000000298023224:2.75] [2:103] [0:0] [0:0] [0:0] [0:100] [0:300] [0:60] [0:100] [15:122] [2:87] [-2:54] [-3:40] [0:54] [-28:0] [0:34] [0:24] [0:8] none none none none [0:62] [-10:0] [0:28] [0:12] [0:36] [0:10] [0:30] [0:24] none none [0:44] [0:19] [0:6] [0:5] [-3:0] [-8:0] [-8:0] [-16:0] [2:87] [-2:34] [-3:40] [0:54] [-28:0] none [-2:156] [-2:156] [-2:156] [-79600:102900] [-79600:102900] [-2:142] [-2:142] [3.3333333333333335:114] [9.4000000000000004:90] [3.3333333333333335:114] [9.4000000000000004:103.8] [0:56.800821590302142] [0.83666002653407534:47.595167821954362] [-59933.333333333336:80033.333333333328] [-58.666666666666664:64.333333333333343] [-2:128] [-163:222] [-109:138] [-163:222] [0:3] [113800:728200] [-246500:394600] [1698.5074626865671:291400] none [38.520307354555435:44.035181236673772] [8.6666666666666661:72.370370370370367] [1:69] [1:69] [0:34] [0:24] [0:8] [0:16] [-4:0] [0:0] [-1:0] [0:62] [-10:0] [0:28] [0:12] [0:36] [0:10] [0:30] [0:24] [0:0] [0:8] [0:44] [0:19] [0:6] [0:5] [-3:0] [-8:0] [-8:0] [-16:0] [0:90] [0:3] [0:1.4199999570846558] [0:22.666666666666668] [0:8] [0:4] [0:12] [-2:0] [0:0] [-0.33333333333333331:0] [2.6666666666666665:50] [-6:0] [0:16] [0:6] [0:20] [0:4.666666666666667] [0:23.333333333333332] [0:10.666666666666666] [0:0] [0:2.6666666666666665] [0.66666666666666663:37.333333333333336] [0:13.333333333333334] [0:3] [0:1.6666666666666667] [-1:0] [-6:0] [-4.666666666666667:0] [-8:0] [6:85] [0:1.5666666030883789] [0:1.2833333015441895] [0:13.6] [0:4.7999999999999998] [0:3.2000000000000002] [0:12] [-2:0] [0:0] [-0.20000000000000001:0] [5.5999999999999996:48.200000000000003] [-4.7999999999999998:0] [0:12.800000000000001] [0:4.7999999999999998] [0:18.399999999999999] [0:3.2000000000000002] [0:16] [0:6.4000000000000004] [0:0] [0:1.6000000000000001] [2:35.600000000000001] [0.20000000000000001:11.4] [0:1.8] [0:1] [-0.59999999999999998:0] [-4.4000000000000004:0] [-3.6000000000000001:0] [-4.7999999999999998:0] [10.4:83] [0.20000000298023224:1.4779999256134033] [0.025999998673796654:0.84600001573562622] none [7:23] [7:23]
tree_sizes=2679 2784 2803 2783 2799 2797 2772 2803 2813 2796 2822 2815 2812 2786 2791 2834 2806 2804 2815 2807 2823 2809 2805 2831 2809 2810 2816 2826 2823 2819 2814 2827 2844 2821 2823 2815 2819 2835 2824 2828 2840 2831 2843 2834 2825 2807 2803 2798 2814 2823 2839 2491 2618 2296 2303 2806 2835 2142 2837 2827 2055 2618

Tree=0
num_leaves=31
num_cat=0
split_feature=2 2 2 1 1 92 147 92 12 60 92 1 2 2 6 0 0 140 92 167 30 167 14 86 86 175 68 52 21 122
split_gain=747635 177818 106510 30875.9 27321.7 17663.6 16945.5 13099.2 11373.1 10181 9355.49 9168.44 9113.8 7631.63 6749.93 6422.45 5325.65 5309.41 5285.14 4940.87 4856.6 4580.8 4451.65 4348.39 4297.4 4066.07 5168.33 3917.11 3890.64 3717.96
threshold=44.500000000000007 33.500000000000007 55.500000000000007 42.500000000000007 23.500000000000004 46.500000000000007 42.500000000000007 18.750000000000004 57.500000000000007 44.500000000000007 40.250000000000007 33.500000000000007 64.500000000000014 22.500000000000004 1.3811749815940859 338700.00000000006 318650.00000000006 2.5000000000000004 54.500000000000007 13.000000000000002 30.500000000000004 23.800000000000004 36.500000000000007 374800.00000000006 639150.00000000012 57.500000000000007 59.500000000000007 11.000000000000002 43.500000000000007 8.5000000000000018
decision_type=2 2 2 2 2 2 10 2 10 8 2 2 2 2 2 2 2 8 2 10 2 10 10 10 8 10 10 2 2 10
left_child=1 4 6 7 13 8 10 20 14 -8 23 19 17 -1 -4 28 -13 -7 -12 -6 -3 -10 -9 27 -14 -11 -27 -2 -5 -19
right_child=2 3 5 15 11 12 9 22 21 25 18 16 24 -15 -16 -17 -18 29 -20 -21 -22 -23 -24 -25 -26 26 -28 -29 -30 -31
leaf_value=41.928710683925857 42.561033728880076 42.398134885701303 43.424840795711418 42.786931821014733 42.296958045283809 44.20830417283765 43.208530210614775 42.720132038701244 43.712069364453541 43.399841770608624 43.191787040256322 42.486391659856565 43.931940877708364 42.210496091284284 42.886461838126998 43.094071284869045 42.849757192169818 43.706740423460758 43.773863631148231 42.900941560224858 42.652812578588936 44.52808439203929 42.894797937302826 43.130977272664957 44.36553027255065 43.551136364186689 44.407954531501638 42.933031330216807 42.988771335473942 43.098688812866492
leaf_weight=422 93 368 207 440 1040 52 987 1050 95 869 343 730 426 558 81 718 117 760 44 35 381 21 559 200 66 88 22 296 522 26
leaf_count=422 93 368 207 440 1040 52 987 1050 95 869 343 730 426 558 81 718 117 760 44 35 381 21 559 200 66 88 22 296 522 26
internal_value=42.9318 42.6026 43.4205 42.8171 42.304 43.7313 43.2373 42.7004 43.4418 43.3218 43.067 42.4136 43.8193 42.0892 43.2734 42.9809 42.5366 43.719 43.258 42.3166 42.5277 43.8598 42.7808 42.9415 43.9901 43.4361 43.7225 42.8441 42.8965 43.6866
internal_weight=11616 6940 4676 4038 2902 1734 2942 2358 404 1966 976 1922 1330 980 288 1680 847 838 387 1075 749 116 1609 589 492 979 110 389 962 786
internal_count=11616 6940 4676 4038 2902 1734 2942 2358 404 1966 976 1922 1330 980 288 1680 847 838 387 1075 749 116 1609 589 492 979 110 389 962 786
is_linear=0
shrinkage=1


Tree=1
num_leaves=31
num_cat=0
split_feature=2 2 91 91 91 91 81 2 1 1 147 1 91 91 91 52 60 119 5 149 73 0 60 0 147 88 0 78 20 101
split_gain=674741 160481 98712.6 41771.9 29923 26390 18486.3 16224.9 15587 15336.9 11273.1 7149.15 7034.84 6975.22 6750.44 6375.14 5902.15 5872.6 5208.42 5183.78 4919.91 4749.25 4496.16 4384.72 4125.46 3980.7 3833.23 3832.39 4594.75 3798.87
threshold=44.500000000000007 33.500000000000007 53.623171839737395 36.958086134915412 44.14772727272728 29.703110516016071 60.52272727272728 55.500000000000007 36.500000000000007 33.500000000000007 42.166666666666679 30.500000000000004 58.152966101694922 18.785714285714288 45.326808608058613 11.000000000000002 52.500000000000007 60.500000000000007 27.500000000000004 0.35333333909511572 43.833333333333336 277150.00000000006 22.500000000000004 465050.00000000006 44.500000000000007 8586.5151515151538 239150.00000000003 14.522396088319597 0.91500002145767223 14.500000000000002
decision_type=2 2 2 2 2 2 10 2 2 2 10 2 2 2 2 2 8 10 2 10 10 2 8 2 8 2 2 10 2 8
left_child=1 5 4 11 10 13 21 16 25 18 -2 -3 27 -1 20 -14 19 29 26 -6 -10 -4 -15 -12 -16 -5 -7 -8 -29 -9
right_child=2 3 6 8 7 9 12 17 14 -11 23 -13 15 22 24 -17 -18 -19 -20 -21 -22 -23 -24 -25 -26 -27 -28 28 -30 -31
leaf_value=-1.4279871085110833 -0.041562176886195186 -0.59497768439297738 -0.088037565052509315 -0.26120568460428906 0.25507067035297454 -0.76203276252469232 0.73400070134408868 0.030616850186796753 -0.048327884740852943 -0.31678323011866882 0.19574221947188 -0.29925432145683922 0.54032846918472888 -0.98857694706781141 0.056888488913238 1.3735812076500484 0.54363443912944387 0.84927353823133811 -0.49788242908013347 0.58545333087444307 0.2072632057995171 0.69378492518045287 -0.71666719260527267 0.47895112274021945 0.2951143463289026 -0.050467343689144954 -0.53698427626624656 0.64028244187002603 1.219452043781196 0.58119046753902637
leaf_weight=51 521 272 20 573 985 548 158 34 1038 692 637 822 26 246 329 196 303 233 678 135 230 675 398 174 406 368 289 46 134 399
leaf_count=51 521 272 20 573 985 548 158 34 1038 692 637 822 26 246 329 196 303 233 678 135 230 675 398 174 406 368 289 46 134 399
internal_value=-4.02548e-09 -0.312801 0.464251 -0.108971 0.325107 -0.59642 0.843543 0.443188 -0.0109388 -0.511808 0.139918 -0.37278 1.05733 -0.865109 0.0679176 1.27599 0.347858 0.646872 -0.600889 0.294894 -0.00196672 0.671286 -0.820533 0.256505 0.18848 -0.178792 -0.684328 0.913703 1.07144 0.537958
internal_weight=11616 6940 4676 4038 3421 2902 1255 2089 2944 2207 1332 1094 560 695 2003 222 1423 666 1515 1120 1268 695 644 811 735 941 837 338 180 433
internal_count=11616 6940 4676 4038 3421 2902 1255 2089 2944 2207 1332 1094 560 695 2003 222 1423 666 1515 1120 1268 695 644 811 735 941 837 338 180 433
is_linear=0
shrinkage=0.05


Tree=2
num_leaves=31
num_cat=0
split_feature=2 2 91 91 2 91 91 91 60 5 21 52 21 91 147 21 147 77 5 76 168 73 14 139 91 21 119 60 70 14
split_gain=608953 144834 89227.4 38180.4 33619.2 23817 15935.6 14354.1 12696.7 10358.7 9357.93 6762.95 6740 6295.13 6220.61 5954.25 5409.78 5345.24 5118.72 4890.95 4689.9 4614.24 4593.85 4556.13 4390.06 4407.6 4103.57 4057.79 3992.86 3782.39
threshold=44.500000000000007 33.500000000000007 48.983870967741943 39.546339202965719 55.500000000000007 29.703110516016071 39.336930926216645 58.152966101694922 44.500000000000007 27.500000000000004 38.500000000000007 15.000000000000002 43.500000000000007 18.785714285714288 60.166666666666679 27.500000000000004 34.166666666666679 40.126875592411345 42.500000000000007 27.300000000000001 3.5000000000000004 56.166666666666679 37.500000000000007 17.000000000000004 47.685487303163576 49.500000000000007 54.500000000000007 22.500000000000004 29750.000000000004 44.500000000000007
decision_type=2 2 2 2 2 2 2 2 8 2 2 2 2 2 10 2 8 10 2 8 10 10 8 10 2 2 8 8 10 8
left_child=1 5 6 12 18 13 20 17 21 15 16 -9 23 -1 29 -7 -5 -6 22 -11 -2 -8 -4 -3 25 -12 -26 -15 -20 -10
right_child=2 3 4 10 7 9 8 11 14 19 24 -13 -14 27 -16 -17 -18 -19 28 -21 -22 -23 -24 -25 26 -27 -28 -29 -30 -31
leaf_value=-1.3565877423566932 -0.18972011119557117 -0.38289688185928561 -0.35232766296182361 -0.32414652623054457 0.73031330911837267 -0.70510515588961664 0.11280839705668451 0.73963709914348508 0.1901888432099095 -0.62093858372161881 -0.0053762986640669879 1.3091930820929762 -0.11830608774623252 -0.93914810141351657 0.73662313616147179 -0.43483036310211115 -0.036801061312628031 1.5362230894111453 0.50536813444829143 -0.35305860242348841 0.19729464696055013 0.41596279929892549 0.34441876558408346 -0.027005714710269659 0.17353714257147579 0.21082437544661975 0.61677704696707869 -0.68083383269308506 -0.039715662002563483 0.42352603420873103
leaf_weight=51 260 1092 35 205 1016 610 859 71 237 202 790 196 409 246 126 306 815 21 838 1089 112 147 73 98 225 336 68 398 35 650
leaf_count=51 260 1092 35 205 1016 610 859 71 237 202 790 196 409 246 126 306 815 21 838 1089 112 147 73 98 225 336 68 398 35 650
internal_value=-1.21032e-09 -0.297161 0.441038 -0.103522 0.664462 -0.566599 0.22752 0.830809 0.282927 -0.486218 0.0209649 1.15774 -0.293407 -0.821854 0.407879 -0.614817 -0.0945519 0.746634 0.443343 -0.394973 -0.0731995 0.157106 0.118621 -0.353588 0.104 0.0591383 0.276405 -0.779507 0.483515 0.36118
internal_weight=11616 6940 4676 4038 2285 2902 2391 1304 2019 2207 2439 267 1599 695 1013 916 1020 1037 981 1291 372 1006 108 1190 1419 1126 293 644 873 887
internal_count=11616 6940 4676 4038 2285 2902 2391 1304 2019 2207 2439 267 1599 695 1013 916 1020 1037 981 1291 372 1006 108 1190 1419 1126 293 644 873 887
is_linear=0
shrinkage=0.05


Tree=3
num_leaves=31
num_cat=0
split_feature=2 2 91 91 91 91 2 1 1 1 147 1 103 30 133 135 111 81 91 167 77 0 139 1 81 5 6 177 101 82
split_gain=549580 130713 81663 34758.2 24648.2 21494.8 15410.6 13362.9 13196 13066.5 9413.11 6285.88 6237.98 5985.75 5696.42 5593.99 5309.85 4888.52 4699.3 4652.7 4563.15 4557.45 4393.96 3971.98 3910.37 3808.46 4098.95 3688.32 3678.87 3665
threshold=44.500000000000007 33.500000000000007 53.623171839737395 36.958086134915412 44.14772727272728 29.703110516016071 61.500000000000007 42.500000000000007 54.500000000000007 33.500000000000007 42.166666666666679 30.500000000000004 3.0000000000000004 18.500000000000004 3.3333333333333335 1.0000000180025095e-35 13.000000000000002 54.080128205128212 45.409152251257517 18.200000000000003 3.2145502536643105 236150.00000000003 17.000000000000004 27.500000000000004 50.677083333333336 75.500000000000014 1.1507599949836733 0.35999999940395361 29.500000000000004 72.500000000000014
decision_type=2 2 2 2 2 2 2 2 2 2 10 2 10 2 8 10 8 10 2 8 8 2 10 2 10 2 2 10 10 2
left_child=1 5 4 11 10 13 25 16 22 21 -2 -3 -8 -1 19 -16 -5 27 -9 -14 -19 23 -6 -7 -12 26 -4 -10 -24 -13
right_child=2 3 6 7 8 9 12 18 17 -11 24 29 14 -15 15 -17 -18 20 -20 -21 -22 -23 28 -25 -26 -27 -28 -29 -30 -31
leaf_value=-0.98872573738192004 -0.041481955157907507 -0.54734202319865721 0.70567304483439663 -0.19786989974416794 0.22275474084939806 -0.68877712542899205 0.76536494546380407 0.033912514787898591 0.37931964487218761 -0.28189462655778391 0.14316602858253802 -0.28714218340493208 1.990812947658392 -0.67722674603734556 1.1798247018238395 0.66273680868057117 -0.015354345515440746 1.3682866625163868 0.22617595575648011 1.2172261047672917 0.64285288060538537 -0.4493043575619442 0.34759306555914304 -0.43922290206127973 0.36830106586854483 0.048602986656900111 0.42367092084591795 0.88157364378978564 0.67785341320197712 0.38199797811962311
leaf_weight=231 521 272 505 800 743 609 231 838 337 692 495 801 26 464 123 91 794 23 512 77 377 690 465 216 316 29 173 41 103 21
leaf_count=231 521 272 505 800 743 609 231 838 337 692 495 801 26 464 123 91 794 23 512 77 377 690 465 216 316 29 173 41 103 21
internal_value=5.38273e-10 -0.282303 0.418986 -0.0983463 0.292428 -0.538269 0.763971 -0.00892204 0.399597 -0.461907 0.124353 -0.338991 0.962982 -0.780761 1.10699 0.959942 -0.106956 0.562727 0.10683 1.4125 0.684565 -0.54413 0.302789 -0.623439 0.230888 0.609716 0.633717 0.433797 0.407482 -0.270047
internal_weight=11616 6940 4676 4038 3421 2902 1255 2944 2089 2207 1332 1094 548 695 317 214 1594 778 1350 103 400 1515 1311 825 811 707 678 378 568 822
internal_count=11616 6940 4676 4038 3421 2902 1255 2944 2089 2207 1332 1094 548 695 317 214 1594 778 1350 103 400 1515 1311 825 811 707 678 378 568 822
is_linear=0
shrinkage=0.05


Tree=4
num_leaves=31
num_cat=0
split_feature=2 2 91 91 2 92 60 1 92 0 91 1 91 1 91 60 52 91 53 152 111 140 157 91 91 81 69 161 5 91
split_gain=495996 117968 73706.4 31589.6 23130.6 19665.1 18398.3 10938.4 9659.59 8966.46 8771.29 7688.96 7566.58 7134.78 6528.31 5973.51 5881.76 5098.71 4872.26 4575.9 4557.01 4481.95 4131.66 4042.03 3977.05 3886.64 3835.73 3772 3556.42 3458.97
threshold=44.500000000000007 33.500000000000007 50.56530612244898 39.546339202965719 61.500000000000007 7.2500000000000009 46.500000000000007 35.500000000000007 47.250000000000007 277150.00000000006 40.114978902953588 27.500000000000004 29.703110516016071 30.500000000000004 58.152966101694922 28.500000000000004 15.000000000000002 42.991578014184405 4.5000000000000009 1.0000000180025095e-35 13.000000000000002 3.5000000000000004 33.100000000000009 18.785714285714288 33.845390070921994 39.973684210526322 2050.0000000000005 5.2000000000000002 41.500000000000007 33.697991967871495
decision_type=2 2 2 2 2 2 8 2 2 2 2 2 2 2 2 8 2 2 2 8 8 8 8 2 2 10 8 10 2 2
left_child=1 5 6 13 9 11 10 20 17 -4 19 23 -7 -3 18 -14 -16 -8 -6 -2 -5 -9 -20 -1 -13 -12 -23 -19 -11 -15
right_child=2 3 4 7 14 12 8 21 -10 28 25 24 15 29 16 -17 -18 27 22 -21 -22 26 -24 -25 -26 -27 -28 -29 -30 -31
leaf_value=-1.2716175140561286 0.082495880985961251 -0.46530253308960517 -0.14896873715428674 -0.27307363863379419 0.59542378212620573 -0.64124784015359415 0.11589624719514001 0.0037330931681524371 0.55278469457674129 0.10243864618241788 -0.18705813618806694 -0.64736286621451156 -0.45375786916906907 -0.33406386546329742 0.62880769658088687 -0.24948015449212899 1.2449073080839808 0.34733163278766921 1.150554737180203 -0.2894543867951595 -0.0068865081761032348 0.077231398577798427 0.73060842984986885 -0.73595550125910714 -0.33961151364632852 0.20959614097352874 0.2872221374202979 1.0192874228412456 0.56146109685193279 -0.15422428018824999
leaf_weight=37 170 351 49 364 205 279 310 884 513 44 65 213 753 388 50 682 172 412 111 161 288 538 124 731 207 1238 365 22 1030 860
leaf_count=37 170 351 49 364 205 279 310 884 513 44 65 213 753 388 50 682 172 412 111 161 288 538 124 731 207 1238 365 22 1030 860
internal_value=4.49321e-10 -0.268187 0.398037 -0.093429 0.65067 -0.511356 0.242053 0.019805 0.385864 0.512478 0.131422 -0.667695 -0.402995 -0.266148 0.885096 -0.356673 1.10615 0.27077 0.773566 -0.0984225 -0.155494 0.0837642 0.928966 -0.761762 -0.495685 0.189809 0.162111 0.381394 0.542656 -0.210136
internal_weight=11616 6940 4676 4038 1785 2902 2891 2439 1257 1123 1634 1188 1714 1599 662 1435 222 744 440 331 652 1787 235 768 420 1303 903 434 1074 1248
internal_count=11616 6940 4676 4038 1785 2902 2891 2439 1257 1123 1634 1188 1714 1599 662 1435 222 744 440 331 652 1787 235 768 420 1303 903 434 1074 1248
is_linear=0
shrinkage=0.05


Tree=5
num_leaves=31
num_cat=0
split_feature=2 2 2 91 91 1 91 1 91 91 7 91 88 14 52 157 140 140 147 1 14 83 139 92 0 91 60 27 84 81
split_gain=447637 106505 67194.4 32426.5 19871.1 16417.5 15658 12831.1 11715.5 7941.61 6888.37 6460.43 6272.64 5889.88 5533.79 5262.75 5183.56 4992.13 4651.69 4591.58 4463.87 4379.13 3792.86 3745.02 3672.29 3610.75 3532.29 3514.27 3399.58 3390.85
threshold=44.500000000000007 32.500000000000007 55.500000000000007 36.958086134915412 47.597774815422483 24.500000000000004 43.694426371719807 35.500000000000007 58.152966101694922 35.267415534656919 -13149.999999999998 29.703110516016071 5427.1498771498782 36.500000000000007 11.000000000000002 24.300000000000001 3.5000000000000004 2.8333333333333335 58.500000000000007 54.500000000000007 45.500000000000007 3.8333333333333335 15.000000000000002 27.750000000000004 239150.00000000003 24.297979797979803 30.500000000000004 4.9500000476837167 30.500000000000004 45.977272727272734
decision_type=2 2 2 2 2 2 2 2 2 2 2 2 2 8 2 10 8 8 10 2 8 8 10 2 2 2 10 10 10 10
left_child=1 5 6 13 12 11 15 22 23 25 17 -1 -4 26 -10 -2 -9 -8 -19 -14 -12 -22 -5 -6 -13 -7 -3 -21 -25 -18
right_child=2 3 4 7 8 9 10 16 14 -11 20 24 19 -15 -16 -17 29 18 -20 27 21 -23 -24 28 -26 -27 -28 -29 -30 -31
leaf_value=-0.8438340188622111 -0.017116439751684667 -0.60260246181509125 -0.24820963183836062 -0.22734391410477503 0.054841202055966411 -0.84253629844684108 0.17569090548101107 -0.026181520652412887 0.38776039155200126 -0.29503444454055622 0.092994718476320098 -0.66260413115860917 0.16844587101490349 -0.22508739219392537 1.0886148901442263 0.22041032902335608 0.14423448050023177 0.44625616598816925 0.90856918771440798 0.29568685273655126 0.17553476585268848 0.41403180556560742 0.018206060872289348 0.60649025560741399 -0.42655691795107975 -0.48225240490780652 -0.33634109351019198 0.80986465934204732 0.82298171555361999 -0.37814918430522088
leaf_weight=327 625 212 49 698 27 77 158 1059 32 815 368 444 143 728 235 372 1063 584 60 61 356 419 203 886 262 718 302 73 228 32
leaf_count=327 625 212 49 698 27 77 158 1059 32 815 368 444 143 728 235 372 1063 584 60 61 356 419 203 886 262 718 302 73 228 32
internal_value=-1.58167e-10 -0.254778 0.378135 -0.10116 0.625021 -0.50453 0.232622 -0.013583 0.706466 -0.404712 0.315208 -0.660104 0.273259 -0.316578 1.00462 0.0715094 0.05269 0.42754 0.489329 0.365505 0.236388 0.304477 -0.17202 0.636697 -0.575006 -0.517148 -0.446161 0.575799 0.650799 0.128968
internal_weight=11616 6940 4676 4297 1734 2643 2942 3055 1408 1610 1945 1033 326 1242 267 997 2154 802 644 277 1143 775 901 1141 706 795 514 134 1114 1095
internal_count=11616 6940 4676 4297 1734 2643 2942 3055 1408 1610 1945 1033 326 1242 267 997 2154 802 644 277 1143 775 901 1141 706 795 514 134 1114 1095
is_linear=0
shrinkage=0.05


Tree=6
num_leaves=31
num_cat=0
split_feature=2 2 2 91 91 91 1 1 88 91 119 168 91 91 75 13 119 52 157 91 71 9 21 92 77 42 0 67 91 101
split_gain=404580 78153 77117 23243.9 22684.7 18258 14816.8 9938.3 8832.4 7167.3 6464.74 6208.07 6022.81 5830.54 5228.96 5104.39 5101.3 4994.24 4483.06 4153.77 3865.8 4314.16 3846.2 3798.83 3749.05 3627.72 3314.24 3259.57 3258.7 3224.31
threshold=42.500000000000007 55.500000000000007 32.500000000000007 36.958086134915412 43.694426371719807 53.623171839737395 24.500000000000004 36.500000000000007 5364.9853372434027 35.267415534656919 47.500000000000007 2.9000000000000004 58.152966101694922 29.703110516016071 44.833333333333336 32.500000000000007 60.500000000000007 11.000000000000002 29.900000000000002 54.425000000000004 32.500000000000007 -25349.999999999996 53.500000000000007 19.250000000000004 40.126875592411345 32.500000000000007 239150.00000000003 21.500000000000004 24.297979797979803 19.500000000000004
decision_type=2 2 2 2 2 2 2 2 2 2 8 10 2 2 8 8 8 2 10 2 8 2 2 2 10 2 2 8 2 10
left_child=2 4 6 15 11 8 13 23 29 28 20 25 24 -1 -9 -4 22 -14 -13 -12 -6 -22 -10 -5 -7 -2 -15 -17 -8 -3
right_child=1 5 3 7 10 12 9 14 16 -11 19 18 17 26 -16 27 -18 -19 -20 -21 21 -23 -24 -25 -26 -27 -28 -29 -30 -31
leaf_value=-0.80164231881271442 -0.13196938179078238 -0.35154306309090722 -0.48114695777155214 -0.3013427115854852 -0.14419791824184358 0.64503372625451061 -0.80040946411235003 -0.023635961155868274 0.22769678212497213 -0.28028271914819725 0.31354969316738995 0.08372248983534436 0.36837236913852395 -0.62947391102406169 0.17187290912333994 0.18004372258519019 0.64885294821330985 1.0341841490661845 0.4834317516822082 0.53760944550635714 0.61750899482341048 0.18853170245057516 0.50628482608793091 -0.087885523543358934 1.3414242622256278 0.23012591605840982 -0.4052290788908553 -0.26673083206433273 -0.45813978404470812 0.3049838933598949
leaf_weight=327 556 45 310 336 80 574 77 1030 218 815 997 697 32 444 512 43 291 235 78 261 63 841 287 549 20 79 262 807 718 32
leaf_count=327 556 45 310 336 80 574 77 1030 218 815 997 697 32 444 512 43 291 235 78 261 63 841 287 549 20 79 262 807 718 32
internal_value=4.43589e-10 0.317362 -0.274368 -0.123365 0.186121 0.59377 -0.479304 -0.0353714 0.432644 -0.384476 0.284945 0.0289838 0.757142 -0.627099 0.0412801 -0.30747 0.482108 0.954386 0.123951 0.360036 0.188946 0.218427 0.386023 -0.168927 0.668481 -0.0869213 -0.546256 -0.244129 -0.49129 -0.0787007
internal_weight=11616 5386 6230 3587 3652 1734 2643 2427 873 1610 2242 1410 861 1033 1542 1160 796 267 775 1258 984 904 505 885 594 635 706 850 795 77
internal_count=11616 5386 6230 3587 3652 1734 2643 2427 873 1610 2242 1410 861 1033 1542 1160 796 267 775 1258 984 904 505 885 594 635 706 850 795 77
is_linear=0
shrinkage=0.05


Tree=7
num_leaves=31
num_cat=0
split_feature=2 2 2 2 21 60 60 119 81 175 2 87 4 0 3 148 4 119 87 119 161 19 14 3 140 86 86 29 0 86
split_gain=366304 94727.6 47370.3 16896.1 15287.7 10453.5 9737.8 6295.34 6054.89 5987.68 5836.31 5829.12 5546.59 5310.63 5280.2 5093.85 5035.8 5439.36 4552.81 4493.45 3955.54 4474.55 3799.31 3593.63 3424.06 3341.94 3308.43 3874.57 3273.33 3084.79
threshold=45.500000000000007 34.500000000000007 56.500000000000007 28.500000000000004 38.500000000000007 44.500000000000007 42.500000000000007 30.500000000000004 63.094444444444456 57.500000000000007 21.500000000000004 212050.00000000003 0.12499999627470972 372750.00000000006 22.500000000000004 1.0716666579246523 0.43500000238418585 59.500000000000007 -21649.999999999996 47.500000000000007 2.8000000000000003 0.81499999761581432 34.500000000000007 -1.0000000180025095e-35 2.5000000000000004 480750.00000000006 639150.00000000012 52.500000000000007 262750.00000000006 431950.00000000006
decision_type=2 2 2 2 2 8 8 8 10 10 2 10 10 2 2 8 10 10 8 10 10 2 8 2 10 10 8 2 2 10
left_child=1 3 6 10 7 12 11 -3 20 18 -1 14 -4 19 24 22 17 -11 -8 29 -7 -22 -5 -17 -2 -16 27 -10 -20 -6
right_child=2 4 5 15 13 8 9 -9 26 16 -12 -13 -14 -15 25 23 -18 -19 28 -21 21 -23 -24 -25 -26 -27 -28 -29 -30 -31
leaf_value=-0.67378423880736316 -0.42820811654840202 -0.35467536439177361 -0.1763399835675955 -0.45867641109824647 -0.088273387921831606 0.47221717327240847 0.42677484446416242 -0.1197952517238251 1.3348472625017167 0.35692623736602919 -0.46966759624998444 0.97156002566218369 0.40796243908716312 0.14699033024414107 0.10746257100631712 -0.67249641111402803 -0.10424271169162931 1.0081867977877459 -0.15724480173622188 0.12414328577298848 1.1959899253961517 0.61721082695708096 -0.27756916016952887 -0.13133959699157249 0.10170616181912247 0.35117379297562956 1.0654265298873564 0.68279359166101783 0.24972092713005917 0.27121405318261144
leaf_weight=528 70 356 48 558 1131 522 406 1436 24 56 1040 20 264 671 839 33 21 75 52 401 41 180 602 436 54 169 79 449 992 63
leaf_count=528 70 356 48 558 1131 522 406 1436 24 56 1040 20 264 671 839 33 21 75 52 401 41 180 602 436 54 169 79 449 992 63
internal_value=-3.66434e-10 -0.217689 0.36215 -0.421241 -0.0573261 0.577877 0.23627 -0.166457 0.640471 0.315999 -0.538401 0.125398 0.31807 0.0289767 0.110448 -0.308468 0.614558 0.729785 0.284701 -0.0206704 0.547283 0.724586 -0.364688 -0.169417 -0.197439 0.148323 0.765905 0.715879 0.229451 -0.0693055
internal_weight=11616 7255 4361 3197 4058 1607 2754 1792 1295 1602 1568 1152 312 2266 1132 1629 152 131 1450 1595 743 221 1160 469 124 1008 552 473 1044 1194
internal_count=11616 7255 4361 3197 4058 1607 2754 1792 1295 1602 1568 1152 312 2266 1132 1629 152 131 1450 1595 743 221 1160 469 124 1008 552 473 1044 1194
is_linear=0
shrinkage=0.05


Tree=8
num_leaves=31
num_cat=0
split_feature=2 5 91 91 91 92 92 81 147 75 75 0 75 91 30 66 91 172 43 13 177 92 12 148 77 67 14 91 135 177
split_gain=330590 86338.3 46916.5 23854.3 17639.1 14687.6 10474.4 9392.96 8662.13 7314.18 5921.94 5484.97 5465.08 4774.88 4721.83 4612.46 4085.34 4018.88 4012.26 4002.33 3870.93 3746.42 3593.94 3560.78 3482.21 3253.99 3201.52 3173.67 3134.33 3026.75
threshold=45.500000000000007 33.500000000000007 53.623171839737395 39.546339202965719 29.703110516016071 45.750000000000007 11.750000000000002 60.52272727272728 42.166666666666679 37.166666666666679 33.833333333333336 312650.00000000006 28.833333333333339 45.795896584440236 32.500000000000007 51.500000000000007 18.785714285714288 -1.3999999999999997 -4.4999999999999991 56.500000000000007 0.45700000226497656 62.500000000000007 58.500000000000007 1.0683333873748782 12.89702808143541 36.500000000000007 44.500000000000007 35.267415534656919 1.0000000180025095e-35 0.2910000085830689
decision_type=2 2 2 2 2 2 2 10 10 8 8 2 10 2 2 10 2 8 2 8 10 2 10 8 10 8 10 2 10 10
left_child=1 4 5 10 16 8 12 -4 13 26 -3 -7 -6 -2 25 18 -1 29 -10 -9 -19 28 -17 -16 -23 -8 -5 -12 -13 -11
right_child=2 3 7 9 6 11 14 19 15 17 27 21 -14 -15 23 22 -18 20 -20 -21 -22 24 -24 -25 -26 -27 -28 -29 -30 -31
leaf_value=-1.0805537813324102 -0.09645439138883169 -0.3626127672459144 0.47936462534720059 -0.14760388417066309 -0.51929291514603182 0.079990763683505606 -0.18575300533518149 0.58902043186538267 0.79843261682468913 0.078376827451811973 -0.24420951061930529 0.4444580195418153 -0.28667188317081721 0.17963929328858017 -0.20751937104502757 0.29945542354668891 -0.60602380304734726 0.069251712445353872 0.1265133279102254 0.86316486433671236 -0.38605764343713722 1.3014352207834072 0.70864399407179135 0.12697599063825421 0.4118228021670472 -0.39281653327850907 0.18502643957007223 -0.078111825309433919 0.26680887327590225 0.47844221951706073
leaf_weight=49 422 469 674 614 851 147 327 218 23 86 519 759 359 249 213 399 610 1699 653 342 48 22 62 127 22 452 82 645 369 105
leaf_count=49 422 469 674 614 851 147 327 218 23 86 519 759 359 249 213 399 610 1699 653 342 48 22 62 127 22 452 82 645 369 105
internal_value=2.26722e-10 -0.206805 0.344042 -0.0624664 -0.412927 0.24102 -0.348305 0.605106 0.148464 0.0306181 -0.21261 0.36789 -0.450276 0.00600064 -0.238043 0.232538 -0.641308 0.0805494 0.149374 0.756444 0.0567418 0.404 0.354487 -0.0825755 0.856629 -0.305898 -0.108415 -0.152171 0.386344 0.298308
internal_weight=11616 7255 4361 4267 2988 3127 2329 1234 1808 2634 1633 1319 1210 671 1119 1137 659 1938 676 560 1747 1172 461 340 44 779 696 1164 1128 191
internal_count=11616 7255 4361 4267 2988 3127 2329 1234 1808 2634 1633 1319 1210 671 1119 1137 659 1938 676 560 1747 1172 461 340 44 779 696 1164 1128 191
is_linear=0
shrinkage=0.05


Tree=9
num_leaves=31
num_cat=0
split_feature=2 5 91 91 91 60 76 81 10 119 88 91 91 0 20 161 91 60 162 52 172 91 0 73 33 58 150 78 73 10
split_gain=298357 77920.3 42342.1 21532.9 15919.3 13941.4 9338.16 8617.28 8084.18 7630.47 6831.17 5293.65 4915 4700.6 4661.88 4222.09 4131.31 3869.3 4024.09 3804.79 3727.81 3687.02 3570.95 3399.66 3278.8 3194.64 3120.73 3118.72 3206.8 3030.19
threshold=45.500000000000007 33.500000000000007 53.623171839737395 36.958086134915412 29.703110516016071 44.500000000000007 37.500000000000007 57.514705882352949 28.500000000000004 55.500000000000007 5364.9853372434027 58.152966101694922 42.150054644808755 249550.00000000003 0.72500002384185802 5.2000000000000002 41.521134453781521 32.500000000000007 0.6000000000000002 15.000000000000002 -1.3999999999999997 18.785714285714288 241850.00000000003 37.166666666666679 18.500000000000004 -1.0000000180025095e-35 5.1000000000000005 16.375285616529975 61.500000000000007 36.500000000000007
decision_type=2 2 2 2 2 8 8 10 10 10 2 2 2 2 2 10 2 8 10 2 8 2 2 10 2 2 10 10 8 8
left_child=1 4 5 29 21 10 -5 26 13 22 -2 27 -12 -6 -15 24 23 -10 -19 -13 -18 -1 -7 -8 -11 -17 -4 -9 -29 -3
right_child=2 3 7 6 8 9 16 11 17 15 12 19 -14 14 -16 25 20 18 -20 -21 -22 -23 -24 -25 -26 -27 -28 28 -30 -31
leaf_value=-1.0265261021195626 -0.31196845350787045 -0.32821867789209447 0.45028389491728266 -0.15344572927705186 -0.49578045295718987 -0.35377318014701209 -0.1071255748318426 0.48501811548003132 -0.31043492254886074 0.38777833568157682 -0.027228667975667822 0.54005695874051696 0.19602542376257734 0.32345029813205373 -0.33329699692796128 0.32800590842962268 0.32188795422542993 -0.16518219980261595 0.39299349052565441 0.99389730388946962 0.075457974016385265 -0.57572261221035104 0.2628689660717482 0.088813354487397855 0.93552101871062965 1.0174935750663281 -0.1015573275310022 0.3839111626810498 0.8699664056085159 -0.16196348810546879
leaf_weight=49 88 582 501 706 767 24 565 280 685 472 324 62 1031 29 396 24 173 417 35 181 1359 610 1079 364 29 56 27 45 138 518
leaf_count=49 88 582 501 706 767 24 565 280 685 472 324 62 1031 29 396 24 173 417 35 181 1359 610 1079 364 29 56 27 45 138 518
internal_value=1.62518e-10 -0.196465 0.32684 -0.0593431 -0.39228 0.228969 0.00685299 0.574851 -0.33089 0.326697 0.114918 0.689115 0.142642 -0.42187 -0.288484 0.473345 0.0528387 -0.235509 -0.121961 0.878103 0.103286 -0.609242 0.249452 -0.0303529 0.419484 0.810647 0.422065 0.589928 0.750445 -0.249928
internal_weight=11616 7255 4361 4267 2988 3127 3167 1234 2329 1684 1443 706 1355 1192 425 581 2461 1137 452 243 1532 659 1103 929 501 80 528 463 183 1100
internal_count=11616 7255 4361 4267 2988 3127 3167 1234 2329 1684 1443 706 1355 1192 425 581 2461 1137 452 243 1532 659 1103 929 501 80 528 463 183 1100
is_linear=0
shrinkage=0.05


Tree=10
num_leaves=31
num_cat=0
split_feature=2 91 1 2 91 91 91 75 111 91 1 74 111 0 86 52 168 1 139 79 111 91 21 172 10 30 91 149 34 148
split_gain=269541 54403.3 53675 18465.4 15372.6 14782.3 11079.8 8129.05 7565.29 6906.49 5487.21 5156.97 4597.48 4560.54 4529.49 4125.86 4106.42 3767.35 3517.76 3472.49 3373.97 3297.34 3282.93 3241.62 3213.33 3163.37 3154.58 2882.73 2979 2878.61
threshold=42.500000000000007 48.983870967741943 33.500000000000007 55.500000000000007 35.705769230769242 29.703110516016071 40.114978902953588 28.833333333333339 17.000000000000004 58.152966101694922 47.500000000000007 31.700000000000006 25.000000000000004 233250.00000000003 397350.00000000006 11.000000000000002 2.9000000000000004 53.500000000000007 18.333333333333339 36833.333333333336 9.0000000000000018 18.785714285714288 49.500000000000007 -1.3999999999999997 36.500000000000007 43.500000000000007 40.586670106639154 0.091666668653488173 -1.0000000180025095e-35 1.075000047683716
decision_type=2 2 2 2 2 2 2 10 10 2 2 8 10 2 10 2 10 2 10 8 10 2 2 8 8 2 2 8 2 10
left_child=2 6 5 10 24 21 16 14 18 27 -3 -6 -12 -13 -7 -11 25 19 23 -10 -9 -1 -15 -8 -4 -2 -22 -5 -29 -19
right_child=1 3 4 9 11 7 8 20 17 15 12 13 -14 22 -16 -17 -18 29 -20 -21 26 -23 -24 -25 -26 -27 -28 28 -30 -31
leaf_value=-0.99651588027675952 -0.27128207294257256 0.1505019627008421 -0.34044955276517935 0.052438267758663962 -0.35730944248632746 -0.42545594936202918 0.28946395935355751 -0.35660290187930294 0.17996125000502214 0.25775174209848045 0.33096257172934318 -0.1336332406400543 0.75494827687378141 0.0081399179336174108 0.055348998399487898 0.86291711845237051 0.071844914875775143 0.37932369831343632 0.32541032038576956 0.6496034142339514 -0.2421267982198208 -0.56430460844304708 0.18627518249281949 0.030950750229833648 -0.15293544588965322 0.029499581137465109 -0.034689544656903687 0.59752563372200962 0.42408190003983431 0.98561780977816815
leaf_weight=48 248 448 501 34 104 1239 138 330 626 32 571 478 72 1405 51 235 349 289 143 42 501 547 317 1000 420 135 289 558 445 21
leaf_count=48 248 448 501 34 104 1239 138 330 626 32 571 478 72 1405 51 235 349 289 143 42 501 547 317 1000 420 135 289 558 445 21
internal_value=3.66804e-10 0.259039 -0.223946 0.436623 -0.0822788 -0.375985 0.116841 -0.320883 0.171621 0.563614 0.28484 -0.01326 0.378438 0.00300415 -0.406447 0.790388 -0.0522153 0.276341 0.0916709 0.20949 -0.22233 -0.599172 0.0409325 0.0622995 -0.254938 -0.165262 -0.166242 0.505225 0.520574 0.420395
internal_weight=11616 5386 6230 2395 3225 3005 2991 2410 2259 1304 1091 2304 643 2200 1290 267 732 978 1281 668 1120 595 1722 1138 921 383 790 1037 1003 310
internal_count=11616 5386 6230 2395 3225 3005 2991 2410 2259 1304 1091 2304 643 2200 1290 267 732 978 1281 668 1120 595 1722 1138 921 383 790 1037 1003 310
is_linear=0
shrinkage=0.05


Tree=11
num_leaves=31
num_cat=0
split_feature=21 91 91 147 76 140 91 1 0 79 91 119 1 66 91 6 159 14 79 167 148 76 119 173 42 91 147 91 129 161
split_gain=215848 61264 52385 25727.2 16507.3 11115.3 9944.96 9518.13 9418.57 7318.32 6773.09 6457.39 6320.61 5635.16 5137.78 5119.63 5035.49 4896.85 4418.86 4364.98 4256.61 4041.6 3938.36 3362.18 3349.45 3237.18 3171.69 3029.47 3008.55 2965.61
threshold=42.500000000000007 46.420685532084498 35.705769230769242 37.166666666666679 57.70000000000001 3.5000000000000004 49.649951550387605 27.500000000000004 315450.00000000006 -11749.999999999998 37.614743589743597 47.500000000000007 16.500000000000004 59.500000000000007 60.895833333333336 0.60327851772308361 5.0000000000000009 63.500000000000007 -25549.999999999996 10.600000000000003 0.91833335161209118 37.900000000000006 40.500000000000007 -1.3999999999999997 27.500000000000004 50.025898520084574 72.833333333333357 27.046296296296301 37.833333333333336 4.4000000000000012
decision_type=2 2 2 10 10 10 2 2 2 10 2 8 2 10 2 2 10 10 10 10 8 8 10 10 2 2 10 2 10 10
left_child=2 5 7 8 11 10 16 19 12 18 -2 29 -4 -11 25 -8 21 -12 -6 -1 -14 -5 -7 -20 -10 -13 -24 -9 -15 -3
right_child=1 4 3 6 9 22 15 27 24 13 17 14 20 28 -16 -17 -18 -19 23 -21 -22 -23 26 -25 -26 -27 -28 -29 -30 -31
leaf_value=-0.55493976800331768 -0.20338121657150454 0.14878014624732699 -0.60938371235866162 -0.16887278341884285 0.29965712570008779 0.012996892805547076 1.0501876656336078 -0.58699563019415912 -0.079259579585586493 0.3461266981662704 0.016836418373167367 0.26324188488914363 -0.41643284043290896 0.64519893032647679 1.0248460305730502 0.24227718025622136 0.45975468288768423 0.73951905096570658 0.59126164291215977 -0.27844196372600488 -0.20203862698898384 0.018558403819932078 0.25133519364168588 1.2975715087519752 0.47022403544136165 0.43543718151768618 -0.38656901986338199 -0.27724787766150055 0.22264582265330402 0.45889297391033984
leaf_weight=839 426 622 134 380 21 269 21 85 635 323 1005 477 297 500 30 296 55 24 23 172 1050 1183 758 63 29 638 20 1107 46 88
leaf_count=839 426 622 134 380 21 269 21 85 635 323 1005 477 297 500 30 296 55 24 23 172 1050 1183 758 63 29 638 20 1107 46 88
internal_value=3.18733e-10 0.233945 -0.198572 -0.0924839 0.393262 0.0536793 0.0397093 -0.39505 -0.211735 0.559712 -0.0357191 0.305684 -0.28189 0.511669 0.379145 0.295798 -0.0104639 0.033692 0.949896 -0.5079 -0.24931 -0.0270103 0.177915 1.10867 -0.055261 0.361772 0.234937 -0.299336 0.609599 0.187217
internal_weight=11616 5333 6283 4080 2831 2502 1935 2203 2145 976 1455 1855 1481 869 1145 317 1618 1029 107 1011 1347 1563 1047 86 664 1115 778 1192 546 710
internal_count=11616 5333 6283 4080 2831 2502 1935 2203 2145 976 1455 1855 1481 869 1145 317 1618 1029 107 1011 1347 1563 1047 86 664 1115 778 1192 546 710
is_linear=0
shrinkage=0.05


Tree=12
num_leaves=31
num_cat=0
split_feature=92 91 1 92 60 91 60 91 5 76 91 91 105 76 13 140 1 93 92 68 1 103 152 71 148 164 87 71 87 129
split_gain=227033 53675.7 40220 11985 11218.4 10954.6 10707.8 8664.06 6828.57 5719.62 5523.83 5099.42 4506.61 4167.34 3913.79 3830.11 3750.25 3421.81 4591.18 3680.6 3388.33 3246.19 3213.48 3875.96 3464.52 3203 3103.88 3057.29 2996.48 3315.73
threshold=28.250000000000004 48.983870967741943 33.500000000000007 7.2500000000000009 47.500000000000007 35.705769230769242 42.500000000000007 57.902659353228664 42.500000000000007 31.700000000000006 40.586670106639154 36.750705076551178 10.000000000000002 47.100000000000009 52.500000000000007 3.5000000000000004 49.500000000000007 55.750000000000007 54.500000000000007 48.500000000000007 13.500000000000002 7.0000000000000009 1.0000000180025095e-35 48.500000000000007 0.80166664719581615 2.4000000000000008 27650.000000000004 48.500000000000007 -3449.9999999999995 14.500000000000002
decision_type=2 2 2 2 8 2 10 2 2 8 2 2 8 10 10 10 2 2 2 8 2 10 8 8 8 10 8 10 8 8
left_child=2 6 3 20 8 27 10 22 -3 -7 15 -5 25 -8 -11 -2 -9 18 -12 -19 -1 -14 23 -6 -24 -10 -17 -4 29 -13
right_child=1 4 5 11 7 9 13 16 12 14 17 28 21 -15 -16 26 -18 19 -20 -21 -22 -23 24 -25 -26 -27 -28 -29 -30 -31
leaf_value=-0.71532273606193097 -0.16402830905573262 -0.0059721601035060551 -0.26852105935064585 -0.362749843651058 1.1827091301977635 -0.28665203333856204 0.097357943478131259 0.27557818579177062 0.25583930732722265 -0.020751476798836262 0.089475411525010096 0.36135577335953717 0.48578883582948279 0.29951650502188865 0.28059162842838664 0.24120681524276733 0.82375796619547992 0.11227748939734804 0.58638723642410084 -0.44878225381175679 -0.45594436423048945 1.1175114555358887 -0.14556497602748711 0.47624769526286931 0.36490190269180578 0.59362577746311829 -0.095400627380866798 0.032473902309194523 -0.25875060391799937 -0.12867179187236441
leaf_weight=146 478 174 823 884 20 195 410 36 700 1709 1472 40 109 674 115 135 234 57 48 60 915 25 37 664 327 78 139 94 566 252
leaf_count=146 478 174 823 884 20 195 410 36 700 1709 1472 40 109 674 115 135 234 57 48 60 915 25 37 664 327 78 139 94 566 252
internal_value=4.79532e-11 0.218437 -0.22369 -0.359158 0.400058 -0.0943575 0.0927195 0.498103 0.281068 -0.0292686 0.0335806 -0.27847 0.335832 0.223054 -0.00175232 -0.0785948 0.750667 0.0851113 0.105167 -0.175445 -0.491636 0.603648 0.433034 0.496904 0.313014 0.289705 0.0704461 -0.237667 -0.191636 -0.0615447
internal_weight=11616 5877 5739 2803 2404 2936 3473 1318 1086 2019 2389 1742 912 1084 1824 752 270 1637 1520 117 1061 134 1048 684 364 778 274 917 858 292
internal_count=11616 5877 5739 2803 2404 2936 3473 1318 1086 2019 2389 1742 912 1084 1824 752 270 1637 1520 117 1061 134 1048 684 364 778 274 917 858 292
is_linear=0
shrinkage=0.05


Tree=13
num_leaves=31
num_cat=0
split_feature=92 2 1 92 2 30 0 30 133 33 1 1 81 77 9 111 78 119 111 139 76 14 1 61 2 92 88 76 177 102
split_gain=204897 52628.4 36298.5 10816.5 9684.5 8961.89 8112.58 5946.59 4429.81 4519.76 4340.1 4104.65 4797.48 3895.46 3721.03 3694.28 3359.58 3951.6 3277.67 3557.75 3256.46 3207.12 3057.97 3023.18 2997.24 2761.96 3195.07 2691.31 2655.53 2556.24
threshold=28.250000000000004 50.500000000000007 33.500000000000007 7.2500000000000009 61.500000000000007 32.500000000000007 318650.00000000006 43.500000000000007 3.3333333333333335 21.000000000000004 52.500000000000007 56.500000000000007 45.511904761904766 2.6457513110645938 -31749.999999999996 13.000000000000002 19.332614885931992 51.500000000000007 9.0000000000000018 14.333333333333334 64.700000000000003 54.500000000000007 13.500000000000002 6.5000000000000009 73.500000000000014 38.750000000000007 11723.91817466562 28.300000000000001 0.1279999986290932 -1.0000000180025095e-35
decision_type=2 2 2 2 2 2 2 2 10 2 2 2 10 8 2 10 10 10 10 8 10 10 2 10 2 2 2 8 8 10
left_child=2 5 3 22 10 14 7 27 9 -7 28 -10 -13 -12 -2 -5 29 -18 24 21 -21 -20 -1 -15 -6 26 -16 -4 -3 -8
right_child=1 4 6 15 18 8 16 -9 11 -11 13 12 -14 23 25 -17 17 -19 19 20 -22 -23 -24 -25 -26 -27 -28 -29 -30 -31
leaf_value=-0.67955660094341186 0.31508941661034312 0.61556090743735781 -0.40469104916482546 -0.30713231611718139 0.051303784893109251 0.099245999100084192 0.03528869201718738 0.03596500066630233 0.20084008595261438 -0.44415379350001993 0.92117910312883788 0.18959534271590173 1.0558160312247999 0.38831880157956894 -0.13772257208733787 -0.14005017819654969 0.11146454110741616 0.81586865788468954 1.2935700928342753 0.40324128887218519 0.61671797217692892 0.52881378210507912 -0.43314714557638834 -0.068403578941759316 0.73839353578431277 0.012843518083294234 -0.55621914044022558 -0.17640712387424295 0.21312767770974039 -0.14221176655836218
leaf_weight=146 56 43 143 1298 65 2034 743 331 351 39 33 31 33 779 371 444 85 26 29 342 374 26 915 38 21 282 52 1329 878 279
leaf_count=146 56 43 143 1298 65 2034 743 331 351 39 33 31 33 779 371 444 85 26 29 342 374 26 915 38 21 282 52 1329 878 279
internal_value=6.62553e-12 0.207515 -0.212505 -0.3412 0.373881 0.0729477 -0.0896396 -0.155525 0.118874 0.0890228 0.307112 0.267986 0.63624 0.388588 -0.0772031 -0.264547 0.015207 0.27646 0.511861 0.544518 0.51475 0.932049 -0.467055 0.367076 0.219082 -0.108364 -0.189169 -0.198584 0.231917 -0.0131679
internal_weight=11616 5877 5739 2803 2628 3249 2936 1803 2488 2073 1771 415 64 850 761 1742 1133 111 857 771 716 55 1061 817 86 705 423 1472 921 1022
internal_count=11616 5877 5739 2803 2628 3249 2936 1803 2488 2073 1771 415 64 850 761 1742 1133 111 857 771 716 55 1061 817 86 705 423 1472 921 1022
is_linear=0
shrinkage=0.05


Tree=14
num_leaves=31
num_cat=0
split_feature=92 2 1 92 81 0 140 1 73 80 1 29 111 42 167 52 69 140 79 60 66 172 131 69 1 66 83 10 111 71
split_gain=184920 47497.2 32759.4 9761.85 8840.88 7321.6 6068.58 4742.34 4652.41 4914.44 4120.48 3911.15 3334.09 3332.82 3074.98 3782.4 3175.1 3051.33 3048.56 3009.76 2897.73 2795.26 5324.52 2790.54 2759.82 2728.78 2702.75 2656.66 2624.96 2685.02
threshold=28.250000000000004 50.500000000000007 33.500000000000007 7.2500000000000009 57.514705882352949 318650.00000000006 3.5000000000000004 52.500000000000007 61.500000000000007 -19.999999999999993 33.500000000000007 91.500000000000014 13.000000000000002 32.500000000000007 22.600000000000005 23.000000000000004 9050.0000000000018 2.5000000000000004 -5849.9999999999991 28.500000000000004 78.500000000000014 -1.3999999999999997 1.6666666666666667 29450.000000000004 13.500000000000002 46.500000000000007 3.8333333333333335 52.500000000000007 19.000000000000004 48.500000000000007
decision_type=2 2 2 2 10 2 10 2 8 8 2 2 10 2 10 2 10 10 10 8 10 8 10 10 2 10 10 10 10 10
left_child=2 6 3 24 7 13 10 -3 17 11 25 -10 -5 19 16 -16 -9 -6 -12 -4 -8 22 -7 -22 -1 -2 -24 -19 -23 -30
right_child=1 4 5 12 8 21 20 14 9 -11 18 -13 -14 -15 15 -17 -18 27 -20 -21 23 28 26 -25 -26 -27 -28 -29 29 -31
leaf_value=-0.64557876762461985 -0.24419926262611127 0.17518777747757444 -0.31544896338918554 -0.2917757010187822 0.68445745441320804 -0.063008077746188204 0.13471680561042274 0.39193836046737474 1.452868893245856 0.48129415021716604 0.11923904411361504 0.50613489151000979 -0.1330476710911597 0.16568955465645335 0.24749209553486221 1.030363889142043 0.11847020837364437 0.39004141809222043 -0.020643945327039736 -0.13392493671247882 0.10658540204167366 -0.043011163344245228 0.32023001316313948 0.8299294884006182 -0.41148978900892125 0.084743618519826869 1.1072377242520453 0.090672749803071065 0.027314397901296618 0.46484384819589275
leaf_weight=146 229 697 271 1298 43 54 1313 449 24 896 727 20 444 81 27 36 139 142 839 1451 24 881 24 30 915 87 20 155 100 54
leaf_count=146 229 697 271 1298 43 54 1313 449 24 896 727 20 444 81 27 36 139 142 839 1451 24 881 24 30 915 87 20 155 100 54
internal_value=-2.54944e-10 0.197139 -0.20188 -0.32414 0.355187 -0.0851577 0.0693003 0.265823 0.449299 0.506629 0.0110614 1.02254 -0.251319 -0.147749 0.362862 0.694847 0.327292 0.290799 0.0442953 -0.162492 0.14948 0.0144466 0.269672 0.508443 -0.443702 -0.153636 0.677961 0.233805 -0.00971964 0.180734
internal_weight=11616 5877 5739 2803 2628 2936 3249 1348 1280 940 1882 44 1742 1803 651 63 588 340 1566 1722 1367 1133 98 54 1061 316 44 297 1035 154
internal_count=11616 5877 5739 2803 2628 2936 3249 1348 1280 940 1882 44 1742 1803 651 63 588 340 1566 1722 1367 1133 98 54 1061 316 44 297 1035 154
is_linear=0
shrinkage=0.05


Tree=15
num_leaves=31
num_cat=0
split_feature=2 2 91 91 91 91 1 140 0 119 13 2 111 167 71 167 172 3 164 28 159 71 91 77 172 177 140 168 148 105
split_gain=165897 48436.4 22064.6 12396.1 11092.2 7897.07 5806.64 5285.88 5258.49 4924.03 4208.91 4191.33 3751.96 3693.53 3506.52 3597.46 3490.35 3401.32 3374.56 3346.22 3164.17 2997.11 2941.78 2833.39 2955.91 2827.21 2782.61 2764.32 3284.48 2745.76
threshold=46.500000000000007 34.500000000000007 53.623171839737395 39.546339202965719 29.703110516016071 44.14772727272728 34.500000000000007 3.5000000000000004 272250.00000000006 58.500000000000007 44.500000000000007 62.500000000000007 9.0000000000000018 18.600000000000005 45.500000000000007 10.200000000000001 -1.3999999999999997 23.500000000000004 2.4000000000000008 28.19999980926514 4.2000000000000011 59.500000000000007 18.785714285714288 4.6188021535170094 -1.3999999999999997 0.32999999821186071 3.5000000000000004 2.3000000000000003 0.99166667461395275 6.0000000000000009
decision_type=2 2 2 2 2 2 2 8 2 10 10 2 8 10 10 8 8 2 10 10 10 8 2 10 8 10 8 10 10 10
left_child=1 4 5 14 22 10 27 13 -4 12 17 29 -7 19 -3 -16 25 -2 -14 -5 -18 26 -1 -8 -25 -9 -11 -6 -29 -10
right_child=2 3 8 7 6 9 23 16 11 21 -12 -13 18 -15 15 -17 20 -19 -20 -21 -22 -23 -24 24 -26 -27 -28 28 -30 -31
leaf_value=-0.82490121254733961 -0.23140728403325683 -0.174675466051749 -0.34705686093795873 -0.048171991319228766 -0.32635598003053906 -0.076201797555322248 0.0086429026971260713 0.1828712215007457 0.33490889127420675 -0.30724530463868921 0.18565177208913322 0.56484410259503903 0.20133434561249902 0.24129065422836793 0.53532632160931826 -0.042562637596445928 0.056890281758401197 0.051093101698869582 0.54744984956085685 -0.53708597507017364 0.43761309834948758 0.48311199404120653 -0.43086558048410306 0.29817644856099429 -0.22173885282380917 0.674849752977837 0.29706851305099019 -0.28447894333087237 -0.0099124919319915211 0.6186002732075826
leaf_weight=51 143 1323 21 1256 1236 115 270 91 616 22 440 483 1154 109 32 170 1282 418 75 36 57 292 665 29 477 43 142 297 172 99
leaf_count=51 143 1323 21 1256 1236 115 270 91 616 22 440 483 1154 109 32 170 1282 418 75 36 57 292 665 29 477 43 142 297 172 99
internal_value=1.86229e-10 -0.137462 0.259741 -0.0298255 -0.285566 0.182464 -0.235534 0.0313148 0.437307 0.245071 0.0698826 0.451056 0.196901 -0.0382144 -0.14505 0.0489841 0.0974454 -0.0209168 0.222456 -0.061795 0.0730973 0.387046 -0.458932 -0.12215 -0.191941 0.340745 0.216002 -0.287139 -0.183785 0.374189
internal_weight=11616 7596 4020 4399 3197 2801 2481 2874 1219 1800 1001 1198 1344 1401 1525 202 1473 561 1229 1292 1339 456 716 776 506 134 164 1705 469 715
internal_count=11616 7596 4020 4399 3197 2801 2481 2874 1219 1800 1001 1198 1344 1401 1525 202 1473 561 1229 1292 1339 456 716 776 506 134 164 1705 469 715
is_linear=0
shrinkage=0.05


Tree=16
num_leaves=31
num_cat=0
split_feature=92 2 1 91 91 92 30 91 29 86 73 60 168 180 149 60 167 77 9 88 87 29 91 103 73 172 91 88 101 12
split_gain=152149 38683.1 27145.6 11818.8 8714.29 8196.82 7337.28 5727.97 4649.89 4539.72 3949.77 3936.77 3820.79 4453.17 3834.17 3456.1 3369.69 5946.75 3335.62 3258.07 3106.06 3061.5 3050.31 3013.55 2969.43 3078.27 2869.53 2634.48 2608.97 2593.71
threshold=28.250000000000004 50.500000000000007 33.500000000000007 53.623171839737395 42.506410256410263 7.2500000000000009 32.500000000000007 45.326808608058613 63.500000000000007 396850.00000000006 57.500000000000007 46.500000000000007 8.5000000000000018 15.500000000000002 0.44833332300186163 44.500000000000007 21.000000000000004 9.6090235369330568 -31749.999999999996 5534.9471830985922 -121749.99999999999 81.500000000000014 27.046296296296301 3.0000000000000004 30.833333333333339 -1.3999999999999997 29.597326649958234 9409.5531235750132 14.500000000000002 21.500000000000004
decision_type=2 2 2 2 2 2 2 2 2 10 10 10 10 2 10 8 10 10 2 2 10 2 2 10 8 8 2 2 8 8
left_child=2 6 5 15 11 20 18 -8 -9 26 24 22 14 -14 23 19 -17 -18 -2 -3 29 -10 -4 -5 -6 -26 -7 -11 -20 -1
right_child=1 3 4 12 10 9 7 8 21 27 -12 -13 13 -15 -16 16 17 -19 28 -21 -22 -23 -24 -25 25 -27 -28 -29 -30 -31
leaf_value=-0.55020604941076356 0.29901082068681717 -0.42859164351224904 -0.54613061932226026 0.36114967122372471 -0.35002563979397427 -0.44065357778521108 0.032131055846826177 -0.18670693219085285 0.3853323991392173 0.30629685814181967 0.6397995579455581 0.10942943524929785 0.44007325669351433 1.3682310529053212 -0.22389186498793689 0.23937253966677524 0.79075941282014062 0.2607117333182401 -0.32323729081378721 0.15658381205204192 -0.30331880930811167 0.17104303347239216 -0.14243483503206422 0.5363769737033065 0.34912071405432937 0.025704765427264506 -0.22582222538221661 -0.18248820535692514 -0.060111985322006338 -0.33351013177390876
leaf_weight=407 56 25 48 522 47 174 1294 79 204 60 28 155 28 24 22 827 84 143 112 490 445 911 1860 463 82 716 1457 51 593 209
leaf_count=407 56 25 48 522 47 174 1294 79 204 60 28 155 28 24 22 827 84 143 112 490 445 911 1860 463 82 716 1457 51 593 209
internal_value=2.54735e-10 0.17882 -0.18312 0.321452 -0.0768685 -0.294413 0.0634507 0.105006 0.183985 -0.227684 0.0555506 -0.132904 0.450516 0.868454 0.428935 0.234339 0.286211 0.456853 -0.0724105 0.128177 -0.403972 0.210249 -0.152591 0.443515 0.0361909 0.058938 -0.248741 0.0817199 -0.101913 -0.476684
internal_weight=11616 5877 5739 2628 2936 2803 3249 2488 1194 1742 873 2063 1059 52 1007 1569 1054 227 761 515 1061 1115 1908 985 845 798 1631 111 705 616
internal_count=11616 5877 5739 2628 2936 2803 3249 2488 1194 1742 873 2063 1059 52 1007 1569 1054 227 761 515 1061 1115 1908 985 845 798 1631 111 705 616
is_linear=0
shrinkage=0.05


Tree=17
num_leaves=31
num_cat=0
split_feature=92 91 5 86 81 21 75 91 161 74 71 149 30 91 91 30 73 26 77 69 168 60 11 88 140 161 62 93 21 21
split_gain=137314 35258.8 23652.6 8097.15 7903.71 7326.6 7323.72 6016.47 5716.7 4612.02 4397.05 3808.15 3770.14 3644.48 3608.96 3492.72 3456.04 3363.82 3267.21 3151.44 2897.49 2837.17 2801.5 2775.91 3099.1 2762.7 2720.05 2655.36 2933.59 2642.93
threshold=28.250000000000004 48.983870967741943 33.500000000000007 365050.00000000006 53.24038461538462 45.500000000000007 28.833333333333339 56.587037037037042 2.0000000000000004 59.100000000000009 12.500000000000002 0.30999998748302465 33.500000000000007 18.785714285714288 40.730735575608428 54.500000000000007 57.833333333333336 4.2500000000000009 12.34233905438243 -9149.9999999999982 8.7000000000000011 31.500000000000004 33.500000000000007 9488.4523809523835 2.1666666666666674 2.8000000000000003 2.5000000000000004 56.250000000000007 57.500000000000007 44.500000000000007
decision_type=2 2 2 10 8 2 10 2 8 10 10 10 2 2 2 2 10 10 10 10 10 8 8 2 8 10 10 2 2 2
left_child=2 3 6 12 15 14 13 20 9 -9 -5 -10 23 -1 22 -3 26 -17 -18 -19 25 -15 -4 24 -2 -6 -12 -14 -29 -8
right_child=1 4 5 10 7 -7 29 8 11 -11 16 -13 27 21 -16 17 18 19 -20 -21 -22 -23 -24 -25 -26 -27 -28 28 -30 -31
leaf_value=-0.77710405635706925 -0.37696424511171162 0.15820877675454018 -0.24583079554082632 0.4580591850606619 0.25176038699650982 0.063221893356038894 -0.21177870123702891 1.5133920530860241 0.55492152085214141 0.57162384746166373 0.11784939369235954 0.11437849182067282 0.065849069827854892 -0.36217710636903139 -0.037651259002693796 0.70044495557981834 0.6129648842272305 -0.25330637985467913 0.19273386210278107 0.4148653714110454 0.84849091779727215 -0.19478815881824957 -0.10315346839875486 -0.32110032013397882 0.0061655180549091649 0.41822926888573814 -0.1583708843465933 -0.38866368003294505 0.080065901459209499 -0.0027471621844979283
leaf_weight=47 62 765 643 110 664 724 919 26 291 26 1098 59 1257 1342 831 63 63 25 174 60 26 312 740 123 355 399 97 71 63 181
leaf_count=47 62 765 643 110 664 724 919 26 291 26 1098 59 1257 1342 831 63 63 25 174 60 26 312 740 123 355 399 97 71 63 181
internal_value=1.8702e-10 0.169879 -0.173964 0.0679869 0.31708 -0.0748531 -0.277923 0.388024 0.553336 1.04251 0.153421 0.480659 -0.000236692 -0.342939 -0.120005 0.201223 0.13002 0.423563 0.304441 0.218344 0.327 -0.330602 -0.169489 -0.112367 -0.0507986 0.314245 0.0954282 0.0432935 -0.168291 -0.177384
internal_weight=11616 5877 5739 3473 2404 2938 2801 1491 402 52 1542 350 1931 1701 2214 913 1432 148 237 85 1089 1654 1383 540 417 1063 1195 1391 134 1100
internal_count=11616 5877 5739 3473 2404 2938 2801 1491 402 52 1542 350 1931 1701 2214 913 1432 148 237 85 1089 1654 1383 540 417 1063 1195 1391 134 1100
is_linear=0
shrinkage=0.05


Tree=18
num_leaves=31
num_cat=0
split_feature=92 91 21 86 81 21 168 91 111 161 91 74 175 21 149 78 147 148 73 25 175 26 177 66 84 157 119 139 168 161
split_gain=124106 35441.5 18805 8520.45 8152.27 7435.37 6552.66 5965.88 5590.64 5213.47 4765.58 4527.16 4323.79 4318.87 3581.66 3489.97 3425 3309.87 3125.89 3085.78 3083.51 3070.41 2999.35 2868.58 3486.81 2778.64 2720.89 2705.92 2651.88 3024.3
threshold=26.250000000000004 48.860483870967748 27.500000000000004 365050.00000000006 53.91608391608392 43.500000000000007 2.7000000000000006 56.587037037037042 17.000000000000004 2.0000000000000004 33.529677419354847 59.100000000000009 34.900000000000006 33.500000000000007 0.30999998748302465 24.605893078544181 42.166666666666679 1.031666696071625 71.500000000000014 61.299999237060554 61.300000000000004 25.649999618530277 0.22899999469518664 19.500000000000004 -33.499999999999993 17.900000000000002 79.500000000000014 11.000000000000002 8.7000000000000011 2.8000000000000003
decision_type=2 2 2 10 8 2 10 2 10 8 2 10 10 2 10 10 10 10 8 10 10 10 8 8 8 10 10 8 10 10
left_child=2 3 6 10 13 12 23 28 -5 11 -2 -9 27 -3 -11 -7 -12 -8 -10 -20 21 -15 -18 -1 -25 -19 -14 -4 29 -6
right_child=1 4 5 8 7 15 17 9 18 14 16 -13 26 20 -16 -17 22 25 19 -21 -22 -23 -24 24 -26 -27 -28 -29 -30 -31
leaf_value=-0.48376253758651622 -0.33007774968843973 -0.13027966202227112 -0.27212604874824065 0.06008745921345781 0.23055708587721413 -0.010990552812667892 -0.18625554709607306 1.4853903322219848 0.19519742875213864 0.53627613921513939 -0.0673473035943183 0.54304264789590473 -0.04483077800507259 0.23106489414381387 0.10865956700043911 0.54573049709714694 0.22419691163249414 0.5838170232517379 0.093472043589617193 0.62250443221406737 0.62352687004125784 -0.055201192278237568 0.019692876418605988 0.066013897396624097 -0.33915959084338354 -0.10874731500943502 -0.57467243046872318 -0.14582053137245377 0.80606639087200171 0.4040115024740808
leaf_weight=345 114 97 754 938 676 961 307 25 510 288 935 26 787 868 59 29 229 28 39 94 45 105 826 56 1025 30 25 969 26 400
leaf_count=345 114 97 754 938 676 961 307 25 510 288 935 26 787 868 59 29 229 28 39 94 45 105 826 56 1025 30 25 969 26 400
internal_value=6.28901e-11 0.150128 -0.177916 0.0502259 0.290907 -0.110884 -0.309847 0.367021 0.137934 0.532946 -0.0156802 1.00498 -0.156265 0.188511 0.463569 0.00531744 0.00233049 -0.120811 0.251495 0.467375 0.218887 0.200173 0.0640829 -0.358233 -0.31817 0.225594 -0.0611436 -0.201093 0.307095 0.295038
internal_weight=11616 6300 5316 3685 2615 3525 1791 1500 1581 398 2104 51 2535 1115 347 990 1990 365 643 133 1018 973 1055 1426 1081 58 812 1723 1102 1076
internal_count=11616 6300 5316 3685 2615 3525 1791 1500 1581 398 2104 51 2535 1115 347 990 1990 365 643 133 1018 973 1055 1426 1081 58 812 1723 1102 1076
is_linear=0
shrinkage=0.05


Tree=19
num_leaves=31
num_cat=0
split_feature=92 91 1 91 10 86 91 92 14 79 71 86 147 1 42 168 79 60 42 6 21 47 91 9 63 91 21 145 73 149
split_gain=112029 28750 20578.6 7133.56 6752.57 6592.36 6571.49 4392.99 4024.17 5415.94 3711.6 3580.11 3524.41 3379.48 3343.18 3277.22 3138.39 3128.22 3375.58 3067.67 2959.49 2843.28 2825.53 3152.25 2655.34 2654.37 2626.39 2527.38 2518.71 2555.61
threshold=28.250000000000004 48.983870967741943 33.500000000000007 42.506410256410263 68.500000000000014 365050.00000000006 29.703110516016071 4.7500000000000009 43.500000000000007 -5249.9999999999991 12.500000000000002 396850.00000000006 59.500000000000007 52.500000000000007 13.500000000000002 8.3000000000000025 13850.000000000002 46.500000000000007 22.500000000000004 0.95119050145149242 67.500000000000014 1.0000000180025095e-35 56.587037037037042 8150.0000000000009 6.5000000000000009 27.046296296296301 37.500000000000007 -0.99999999999999989 30.833333333333339 0.16500000655651095
decision_type=2 2 2 2 10 10 2 2 8 10 10 10 10 2 2 10 10 10 2 2 2 2 2 2 10 2 2 10 8 8
left_child=2 5 6 17 8 14 -1 -8 9 20 19 -9 28 -11 21 -6 26 25 -19 -7 -3 -2 -10 -24 -18 -4 -12 -21 -5 -30
right_child=1 4 3 12 15 10 7 11 22 13 16 -13 -14 -15 -16 -17 24 18 -20 27 -22 -23 23 -25 -26 -27 -28 -29 29 -31
leaf_value=-0.4023040361112078 -0.26850865777738081 0.19124088009261783 -0.49998098549743492 -0.32066178382077121 0.42494452051117143 0.8049329333433084 -0.36947070194806386 -0.20037988655443395 0.25628437883462424 -0.29385627256337515 -0.057050561520551879 0.090148344619479862 0.55424035287955231 0.21571744456887246 0.02141960110403747 0.97430476690160828 0.46051329539066793 0.70691778257489213 0.01088724205132436 0.54013733615477877 0.76729945987463 0.36234349250793457 0.53162015878348334 0.079528233556387329 0.097614828592606395 -0.12339636944237971 0.12400975069861296 -0.040830784799674384 -0.19016960411988482 0.088827574563639711
leaf_weight=590 167 314 48 47 425 35 379 1721 1219 101 252 113 34 48 1744 29 113 20 135 36 24 20 196 48 91 1860 976 39 93 699
leaf_count=590 167 314 48 47 425 35 379 1721 1219 101 252 113 34 48 1744 29 113 20 135 36 24 20 196 48 91 1860 976 39 93 699
internal_value=1.31564e-10 0.153443 -0.157133 -0.0646221 0.286365 0.0614353 -0.254033 -0.214504 0.245931 0.121437 0.138523 -0.182479 0.0551864 -0.129698 -0.000123403 0.460036 0.117024 -0.115321 0.100698 0.418411 0.232144 -0.201038 0.287372 0.442684 0.298632 -0.13287 0.0868541 0.238034 0.0349626 0.0560665
internal_weight=11616 5877 5739 2936 2404 3473 2803 2213 1950 487 1542 1834 873 149 1931 454 1432 2063 155 110 338 187 1463 244 204 1908 1228 75 839 792
internal_count=11616 5877 5739 2936 2404 3473 2803 2213 1950 487 1542 1834 873 149 1931 454 1432 2063 155 110 338 187 1463 244 204 1908 1228 75 839 792
is_linear=0
shrinkage=0.05


Tree=20
num_leaves=31
num_cat=0
split_feature=2 5 91 91 91 60 14 30 86 0 173 60 1 111 92 81 119 7 20 46 76 177 74 140 76 53 111 6 91 162
split_gain=102342 29932.8 13242.5 9057.46 7477.98 5646.35 4708.92 4296.06 4025.09 3936.27 3935.4 4236.06 3768.28 3614.21 3242.69 3230.03 3009.2 2982.91 2883.53 3274.03 2753.38 2751.93 2688.73 2683.94 2824.62 2679.63 4094.25 3180.18 2259.61 2227.2
threshold=46.500000000000007 33.500000000000007 53.623171839737395 36.958086134915412 34.086894586894594 44.500000000000007 31.500000000000004 36.500000000000007 283650.00000000006 272250.00000000006 -0.59999999999999998 28.500000000000004 20.500000000000004 9.0000000000000018 22.500000000000004 66.594117647058837 58.500000000000007 35250.000000000007 0.73500001430511486 1.0000000180025095e-35 31.500000000000004 0.34899999201297766 43.500000000000007 1.8333333333333337 30.300000000000001 4.5000000000000009 13.000000000000002 1.435000002384186 27.370748299319732 1.0000000000000002
decision_type=2 2 2 2 2 8 8 2 10 2 8 8 2 10 2 10 10 2 2 2 8 8 8 8 8 2 10 2 2 10
left_child=1 4 5 28 10 13 8 23 -6 -4 11 -1 -8 -2 -15 25 -7 -14 -18 -20 -9 -13 -16 -5 -25 26 -11 -27 -3 -22
right_child=2 3 9 7 6 16 12 20 -10 15 -12 21 17 14 22 -17 18 -19 19 -21 29 -23 -24 24 -26 27 -28 -29 -30 -31
leaf_value=-0.31866347896909225 -0.12885757150384142 -0.66556394767193572 -0.33705458343029027 -0.23297416100937751 -0.28192889210837896 0.16644358399212611 -0.35784559101901126 -0.40603172115741243 -0.047709438794863827 0.50662267968739172 -0.35773207367423132 -0.11261571571644811 0.074849778321146476 -0.25790318335106566 0.44807871815127637 0.50940602190497042 0.77292075834491047 -0.1650476934928447 0.13552414119406475 0.43502408870506093 0.061400536515038434 0.46122311781614256 0.10231948026020488 -0.33140925982863539 -0.0096617597230669178 0.34946119690663185 0.15266698867405259 0.76163189218572858 -0.14196567179082939 0.45314514702941122
leaf_weight=109 204 21 21 178 800 1186 90 31 238 104 1105 45 368 59 60 260 33 200 183 182 1870 39 894 72 1297 400 381 53 1096 37
leaf_count=109 204 21 21 178 800 1186 90 31 238 104 1105 45 368 59 60 260 33 200 183 182 1870 39 894 72 1297 400 381 53 1096 37
internal_value=4.44337e-10 -0.107966 0.204008 -0.0279085 -0.231021 0.144141 -0.161892 0.0118038 -0.228225 0.34157 -0.321347 -0.113028 -0.0572506 0.0631513 0.101818 0.353465 0.206366 -0.00962116 0.325331 0.284864 0.0614027 0.153809 0.124065 -0.0503311 -0.0265835 0.310241 0.228567 0.397684 -0.15181 0.0690012
internal_weight=11616 7596 4020 4602 2994 2801 1696 3485 1038 1219 1298 193 658 1217 1013 1198 1584 568 398 365 1938 84 954 1547 1369 938 485 453 1117 1907
internal_count=11616 7596 4020 4602 2994 2801 1696 3485 1038 1219 1298 193 658 1217 1013 1198 1584 568 398 365 1938 84 954 1547 1369 938 485 453 1117 1907
is_linear=0
shrinkage=0.05


Tree=21
num_leaves=31
num_cat=0
split_feature=5 81 10 60 14 5 76 147 163 63 21 60 131 149 80 162 79 139 175 88 1 177 80 159 140 81 134 21 76 75
split_gain=87178.1 24706 17515.9 8330.91 6940.1 5099.33 4248.95 3933.84 4158.9 3497.97 3391.64 3353.42 3350.3 3256.05 3259.1 3254.96 3493.81 3238.59 3153.87 4369.27 2955.07 2935.68 2900.22 2822.45 2755.57 2632.64 2545.76 2397.19 2380.41 2334.2
threshold=40.500000000000007 53.91608391608392 31.500000000000004 44.500000000000007 36.500000000000007 29.500000000000004 39.500000000000007 54.833333333333336 7.0000000000000009 3.5000000000000004 54.500000000000007 34.500000000000007 3.0000000000000004 0.27500000596046453 6.3333333333333401 0.6000000000000002 -16249.999999999998 19.666666666666668 58.900000000000006 8689.6086369770601 14.500000000000002 0.14699999988079074 13.833333333333336 1.0000000180025095e-35 2.5000000000000004 68.966666666666683 1.0000000000000002 51.500000000000007 66.90000000000002 56.166666666666679
decision_type=2 10 10 10 10 2 8 10 10 10 2 8 10 10 10 10 10 10 10 2 2 8 10 8 10 10 10 2 10 10
left_child=2 3 5 6 11 20 -2 15 9 -9 17 -4 23 -12 -15 27 -17 22 -5 -20 -1 -14 -6 -8 -22 -11 -13 29 -29 -3
right_child=1 7 4 18 10 -7 12 8 -10 25 13 26 21 14 -16 16 -18 -19 19 -21 24 -23 -24 -25 -26 -27 -28 28 -30 -31
leaf_value=-0.46246633675245558 -0.09536573804106914 0.14280622846692426 -0.17404356638390134 0.15678186191371174 0.051993907260010908 -0.16025289624691855 0.33057845739621516 0.23806319965682682 -0.25524876355021092 0.38930782543280218 -0.097062604308128353 -0.062588229104455162 -0.29322933636598686 1.1009590329229832 0.3048978028818965 0.89982452125384893 0.30306269842311273 0.4952518391112487 0.97198590461550083 0.15230160083722424 -0.30587398945102973 0.19407976592692033 -0.25663389406177439 0.0096613723615029297 -0.11259391424369761 0.6442552886618913 0.32546130909838461 0.27857253485842348 -0.1707391792908311 -0.15716693309669416
leaf_weight=239 627 239 980 1119 526 1129 71 306 27 446 25 1072 33 20 36 29 159 36 29 37 1002 487 89 1957 226 131 44 374 32 89
leaf_count=239 627 239 980 1119 526 1129 71 306 27 446 25 1072 33 20 36 29 159 36 29 37 1002 487 89 1957 226 131 44 374 32 89
internal_value=-2.06097e-10 0.128201 -0.146353 0.0634601 -0.0602654 -0.240134 0.021236 0.282277 0.356027 0.374718 0.0722765 -0.106554 0.0499288 0.377394 0.589205 0.209487 0.395116 0.0343125 0.176592 0.512466 -0.30161 0.163154 0.0073307 0.0208966 -0.270303 0.44719 -0.0472888 0.161942 0.243159 0.0614111
internal_weight=11616 6192 5424 4360 2828 2596 3175 1832 910 883 732 2096 2548 81 56 922 188 651 1185 66 1467 520 615 2028 1228 577 1116 734 406 328
internal_count=11616 6192 5424 4360 2828 2596 3175 1832 910 883 732 2096 2548 81 56 922 188 651 1185 66 1467 520 615 2028 1228 577 1116 734 406 328
is_linear=0
shrinkage=0.05


Tree=22
num_leaves=31
num_cat=0
split_feature=92 91 1 2 91 86 91 5 92 71 147 86 159 63 70 148 6 42 72 129 159 91 93 27 79 20 14 145 88 21
split_gain=83875.7 22233 15284.2 6599.56 5827.63 5336.14 5292.71 3635.3 3559.22 3087.25 3050.44 3007.33 2877.81 2862.35 2889.55 2814.11 2796.77 2749.47 2745.24 2621.03 3550.75 2543.58 2432.12 2603.64 2402.53 2385.28 2378.82 2298.46 2292.55 2261
threshold=28.250000000000004 48.983870967741943 33.500000000000007 61.500000000000007 42.760246845353237 365050.00000000006 29.703110516016071 42.500000000000007 4.7500000000000009 12.500000000000002 59.500000000000007 396850.00000000006 1.0000000180025095e-35 2.5000000000000004 4650.0000000000009 1.075000047683716 0.95119050145149242 13.500000000000002 31.500000000000004 30.166666666666668 1.8000000000000003 27.046296296296301 11.250000000000002 11.84999990463257 13850.000000000002 1.4550000429153445 42.500000000000007 -0.99999999999999989 9409.5531235750132 51.500000000000007
decision_type=2 2 2 2 2 10 2 2 2 10 10 10 8 8 8 10 2 2 10 10 8 2 2 8 10 2 8 10 2 2
left_child=2 5 6 7 18 12 -1 26 -8 16 22 -10 29 14 -5 24 -7 -14 21 20 -15 -4 -6 -24 -11 -19 -3 -18 -13 -2
right_child=1 3 4 13 10 9 8 -9 11 15 -12 28 17 19 -16 -17 27 25 -20 -21 -22 -23 23 -25 -26 -27 -28 -29 -30 -31
leaf_value=-0.35253728205780105 0.11864507404657512 -0.11887395172413412 -0.52727141770578567 0.37060390858409498 -0.32514857040210204 0.7455397467528071 -0.32348482581076649 0.22383803973332289 -0.17157769391252586 0.054956885713221729 0.53407030175440018 0.30263213135424211 -0.19845091545231683 -0.25394827593927799 -0.26511086575461157 0.34702169121312049 0.49234618254833756 0.014599572768487626 -0.025826483269982322 0.58403552610699727 0.38304922562591465 -0.1318527391987778 0.01288787601019146 0.25027830453300981 0.25193570489506106 -0.38607228225783302 0.23361840555316782 -0.061686156040582911 -0.1492258820611124 0.77252685189247128
leaf_weight=590 39 139 42 39 44 35 379 1485 1721 1145 32 61 183 23 33 108 36 1651 773 164 448 1284 619 142 179 38 73 39 52 20
leaf_count=590 39 139 42 39 44 35 379 1485 1721 1145 32 61 183 23 33 108 36 1651 773 164 448 1284 619 142 179 38 73 39 52 20
internal_value=-4.82393e-11 0.13277 -0.135963 0.24966 -0.0562355 0.0518593 -0.219473 0.196187 -0.183997 0.121215 0.0553176 -0.155171 -0.00352443 0.378008 0.0792346 0.101606 0.376478 -0.0143608 -0.100719 0.411885 0.351943 -0.144377 0.0362864 0.0571841 0.0815877 0.00558505 0.00250313 0.204249 0.0946975 0.3403
internal_weight=11616 5877 5739 2404 2936 3473 2803 1697 2213 1542 837 1834 1931 707 72 1432 110 1872 2099 635 471 1326 805 761 1324 1689 212 75 113 59
internal_count=11616 5877 5739 2404 2936 3473 2803 1697 2213 1542 837 1834 1931 707 72 1432 110 1872 2099 635 471 1326 805 761 1324 1689 212 75 113 59
is_linear=0
shrinkage=0.05


Tree=23
num_leaves=31
num_cat=0
split_feature=2 2 91 91 91 88 111 91 135 140 149 13 26 162 159 53 92 28 28 116 101 67 19 164 0 148 63 148 2 129
split_gain=76343.8 22547.5 10213.4 6610.29 6349.08 6160.06 4057.29 3968.22 3585.71 3478.83 3420.52 3235.45 3344.86 2864.81 2839.2 4010.05 2833.7 2829.14 3051.53 2793.65 2769.65 2828.6 2568.67 2425.87 2425.33 2304.27 2253.54 2413.93 2216.65 2178.12
threshold=46.500000000000007 34.500000000000007 53.623171839737395 36.958086134915412 29.703110516016071 5331.58866995074 9.0000000000000018 46.420685532084498 1.0000000180025095e-35 3.5000000000000004 0.45166665315628057 55.500000000000007 34.149999618530281 0.6000000000000002 4.2000000000000011 3.5000000000000004 7.7500000000000009 28.19999980926514 18.899999618530277 -1.0000000180025095e-35 18.500000000000004 38.500000000000007 1.2250000238418581 1.0000000180025095e-35 536150.00000000012 0.69499999284744274 20.500000000000004 1.0333333611488345 30.500000000000004 21.166666666666668
decision_type=2 2 2 2 2 2 8 2 10 8 10 8 10 10 10 2 2 10 10 10 10 8 2 10 2 8 8 8 2 10
left_child=1 4 5 23 -1 -2 29 24 -9 17 11 12 13 -4 19 -16 22 18 -5 -11 -13 -22 25 -3 -8 -6 27 -18 -28 -7
right_child=2 3 10 9 16 6 7 8 -10 14 -12 20 -14 -15 15 -17 26 -19 -20 -21 21 -23 -24 -25 -26 -27 28 -29 -30 -31
leaf_value=-0.3254620916350594 -0.17370554391612733 -0.16942601970130519 0.19556570476509239 -0.044006163410190736 0.30718623456500826 -0.2707421820272099 0.074972265272336261 0.26559142125885371 0.073136800966875734 0.13004809174608467 -0.22148238002292572 0.075112794545676681 -0.1955982001953655 0.50929388596779768 0.74312456933678028 -0.0084785349028451105 -0.19616000826220448 -0.44826661362880621 0.25865991908040914 -0.0027148970412294703 0.92639309832682981 0.39333418247814128 -0.55464077848812632 0.037648570792455427 0.47675804673479161 -0.22419251260482942 -0.15779562208446718 -0.067388962766556204 0.179464079144186 0.048935800084488931
leaf_weight=716 164 818 380 1552 21 77 1017 1013 318 655 31 66 45 90 36 35 849 41 88 1003 26 581 58 171 39 716 84 637 116 173
leaf_count=716 164 818 380 1552 21 77 1017 1013 318 655 31 66 45 90 36 35 849 41 88 1003 26 581 58 171 39 716 84 637 116 173
internal_value=1.30693e-10 -0.09325 0.176201 -0.019812 -0.194299 0.123625 0.142116 0.162188 0.219611 0.0131964 0.297009 0.310539 0.216213 0.255641 0.0629926 0.372616 -0.156446 -0.0380217 -0.0277655 0.0497337 0.38272 0.416167 -0.234264 -0.133622 0.0898109 -0.209051 -0.119753 -0.14096 0.037815 -0.049525
internal_weight=11616 7596 4020 4399 3197 2801 2637 2387 1331 3410 1219 1188 515 470 1729 71 2481 1681 1640 1658 673 607 795 989 1056 737 1686 1486 200 250
internal_count=11616 7596 4020 4399 3197 2801 2637 2387 1331 3410 1219 1188 515 470 1729 71 2481 1681 1640 1658 673 607 795 989 1056 737 1686 1486 200 250
is_linear=0
shrinkage=0.05


Tree=24
num_leaves=31
num_cat=0
split_feature=2 21 60 168 13 81 92 87 88 43 157 5 26 75 159 120 6 177 175 20 75 177 76 82 140 149 92 20 28 81
split_gain=68900.3 20737.7 9017.96 6069.78 5464.42 5395.75 4557.08 3998.89 3633.22 3267.38 3868.4 3231.33 3042.32 2998.81 2872.23 2860.28 3348.61 2757.52 3348.98 2722.05 2806.61 2613.83 2489.18 2395.13 2378.87 2400.12 2352.6 3688.42 2147.92 3311.63
threshold=46.500000000000007 31.500000000000004 43.500000000000007 2.5000000000000004 61.500000000000007 37.023809523809533 45.750000000000007 41650.000000000007 5364.9853372434027 -4.4999999999999991 22.900000000000002 67.500000000000014 27.899999618530277 22.166666666666668 5.8000000000000007 1.1950000524520876 0.82963398098945629 0.31099998950958258 73.700000000000003 0.58499997854232799 45.166666666666679 0.50499999523162853 55.100000000000009 -66.499999999999986 9.5000000000000018 0.30666665732860571 56.500000000000007 0.95499998331069957 6.1000001430511483 24.522727272727277
decision_type=2 2 8 10 10 8 2 8 2 2 8 2 10 8 10 10 2 8 10 2 8 10 10 2 10 10 2 2 8 10
left_child=1 3 8 7 6 13 11 23 -2 10 -10 14 17 -3 -4 -5 -17 18 -6 20 -7 22 -21 -1 25 -8 -11 -28 -15 -30
right_child=2 5 4 15 12 19 24 -9 9 26 -12 -13 -14 28 -16 16 -18 -19 -20 21 -22 -23 -24 -25 -26 -27 27 -29 29 -31
leaf_value=0.2384115407572073 -0.25984841879143056 -0.67179937145926738 0.10379586896402233 -0.1101032606298093 0.38579114007206855 0.02623867007593314 0.26444551058718513 -0.31574078619048429 0.91685094812512402 0.046703561047942092 0.018341839637445369 -0.50923963004634498 0.87146634440869097 -0.13735077437618798 0.68246473987925471 0.77381119012832644 -0.0092999375836793768 0.14515223899985305 0.98317220584937814 0.012295216760332274 0.80808734866705823 -0.32889836601235656 0.3433035919376537 -0.18825111532846633 0.63743055308897112 0.085900064599423592 0.012511171903028046 0.69343769880565442 0.24301308653503659 -0.063160115351411403
leaf_weight=34 83 22 848 833 179 24 1207 960 25 1111 23 21 32 923 22 20 43 101 27 2736 22 55 58 1010 38 223 43 37 100 756
leaf_count=34 83 22 848 833 179 24 1207 960 25 1111 23 21 32 923 22 20 43 101 27 2736 22 55 58 1010 38 223 43 37 100 756
internal_value=2.81935e-11 -0.0885875 0.167391 -0.193717 0.219812 -0.0236654 0.192837 -0.242085 0.0604074 0.0818612 0.486315 0.103635 0.407521 -0.0916169 0.118429 -0.0855354 0.239307 0.359162 0.464089 0.0186078 0.400166 0.0124471 0.0191665 -0.174356 0.246978 0.236602 0.0655607 0.32744 -0.0844421 -0.0273922
internal_weight=11616 7596 4020 2900 2698 4696 2359 2004 1322 1239 48 891 339 1801 870 896 63 307 206 2895 46 2849 2794 1044 1468 1430 1191 80 1779 856
internal_count=11616 7596 4020 2900 2698 4696 2359 2004 1322 1239 48 891 339 1801 870 896 63 307 206 2895 46 2849 2794 1044 1468 1430 1191 80 1779 856
is_linear=0
shrinkage=0.05


Tree=25
num_leaves=31
num_cat=0
split_feature=92 91 1 2 81 91 1 91 139 120 168 103 133 159 135 53 76 20 175 14 119 74 9 13 73 92 119 91 74 72
split_gain=62909.5 18785.6 10356 5656.12 5250.77 4659.63 3990.58 3537.1 3494.4 3416.47 3398.37 2633.02 4031.95 4323.06 4283.61 2865.98 2621.13 2682.27 3069.82 2620.49 2600.74 4640.25 3095.93 2795.61 3368.23 2581.66 2466.97 4488.83 2435.97 2354.06
threshold=26.250000000000004 48.860483870967748 33.500000000000007 61.500000000000007 47.675438596491233 34.086894586894594 14.500000000000002 35.705769230769242 18.333333333333339 0.64499998092651378 2.9000000000000004 3.0000000000000004 3.3333333333333335 7.8000000000000007 1.0000000180025095e-35 2.5000000000000004 31.700000000000006 0.76499998569488536 35.100000000000009 28.500000000000004 47.500000000000007 57.70000000000001 -25349.999999999996 62.500000000000007 64.166666666666671 62.500000000000007 62.500000000000007 44.14772727272728 59.300000000000004 70.500000000000014
decision_type=2 2 2 2 10 2 2 2 10 10 10 8 8 8 10 2 8 2 10 8 8 10 2 8 8 2 10 2 10 10
left_child=2 4 6 20 5 -2 -1 -4 19 -6 -7 15 13 -13 -14 -5 17 -9 -19 -8 21 22 -3 28 -25 -17 -11 -28 -22 -12
right_child=1 3 7 11 9 10 8 16 -10 26 29 12 14 -15 -16 25 -18 18 -20 -21 23 -23 -24 24 -26 -27 27 -29 -30 -31
leaf_value=-0.3705637399352133 -0.30270167277377896 0.33119137849877867 -0.137618387614723 -0.14513576390578392 -0.19661729605868461 -0.0464570195235193 -0.23142976894141989 -0.45825393156659217 0.48416051149368289 0.11695235223104722 0.058314217653624816 0.8470892261400107 0.44852258737512574 0.19959620619947849 0.057406353847020197 0.22973485467528257 0.0079589302620034462 -0.18127525261337518 0.41592191987567484 -0.12711001629813001 0.1817647603371621 0.64299475959369123 0.006094599678929339 0.63978570261826884 0.25013950946950231 0.79804492755369705 -0.062585744559764872 0.59641264463736587 -0.09420545281635391 0.41668304769943165
leaf_weight=289 127 85 869 47 80 1283 1209 62 20 1023 1011 85 199 37 108 218 1535 106 27 1199 717 35 529 65 378 22 40 73 90 48
leaf_count=289 127 85 869 47 80 1283 1209 62 20 1023 1011 85 199 37 108 218 1535 106 27 1199 717 35 529 65 378 22 40 73 90 48
internal_value=2.41665e-10 0.106886 -0.126671 0.209379 0.0341537 -0.00773228 -0.194926 -0.0553176 -0.17402 0.1192 0.00826307 0.329136 0.407561 0.650718 0.310931 0.211909 -0.0139769 -0.186651 -0.0600397 -0.179487 0.164226 0.0830202 0.0510999 0.206389 0.307311 0.28183 0.141441 0.363139 0.150987 0.0745576
internal_weight=11616 6300 5316 2615 3685 2469 2717 2599 2428 1216 2342 716 429 122 307 287 1730 195 133 2408 1899 649 614 1250 443 240 1136 113 807 1059
internal_count=11616 6300 5316 2615 3685 2469 2717 2599 2428 1216 2342 716 429 122 307 287 1730 195 133 2408 1899 649 614 1250 443 240 1136 113 807 1059
is_linear=0
shrinkage=0.05


Tree=26
num_leaves=31
num_cat=0
split_feature=91 1 21 81 91 5 140 76 60 77 61 176 161 62 14 157 79 158 176 162 82 92 119 77 147 147 78 77 76 82
split_gain=57681.1 16638.3 13274.2 6338.82 5100.09 5010.59 4184.05 3749.83 3078.59 3026.03 2801.08 2778.25 2708.66 3375.3 2896.22 3073.18 2923.75 2846.63 2659.28 2612.85 3402.08 2484.45 2462.74 2880.52 2632.11 4760.27 2723.25 2430.08 2269.98 2019.21
threshold=43.694426371719807 30.500000000000004 42.500000000000007 61.763888888888893 35.705769230769242 43.500000000000007 2.1666666666666674 31.700000000000006 46.500000000000007 5.1316014394468903 1.0000000180025095e-35 0.75499999523162853 4.4000000000000012 5.5000000000000009 71.500000000000014 28.900000000000002 -3549.9999999999995 -1.8999999999999997 0.60100001096725475 0.6000000000000002 1.0000000180025095e-35 41.250000000000007 52.500000000000007 23.583185836107923 56.166666666666679 54.833333333333336 11.717508267545623 20.623596814285978 74.500000000000014 -81.499999999999986
decision_type=2 2 2 10 2 2 10 8 10 8 10 10 10 10 10 10 10 10 8 10 2 2 10 8 8 10 8 8 8 2
left_child=1 6 5 12 19 21 -1 -6 10 11 -9 -7 14 17 16 -16 -4 -14 -11 -3 -21 27 23 28 25 -24 -26 -2 -5 -20
right_child=2 4 3 22 7 9 -8 8 -10 18 -12 -13 13 -15 15 -17 -18 -19 29 20 -22 -23 24 -25 26 -27 -28 -29 -30 -31
leaf_value=-0.27325539398958043 -0.042111517282106756 -0.14615011481102944 0.18100807256047746 0.15717373178340496 -0.22355522833882815 -0.51695758205126319 -0.13102477928652334 0.0099044048285917771 0.12600104105442961 0.71766111373901376 -0.12751209381891362 0.062121375242494198 0.57925170796612901 -0.15808701768517497 0.11221746161580087 0.98874149426817903 0.06828796740229022 0.2410602329671383 0.56299622139105432 -0.21416434337469667 0.36888064453057173 0.13758832003976054 0.38779362978537879 0.48790965559892358 0.092599402937818986 1.1421434231873218 0.39079832528575237 -0.23353782757123312 -0.32353636462128527 0.11272979890000112
leaf_weight=1234 630 1209 1087 96 189 34 890 1967 453 20 457 53 84 40 20 20 1222 240 26 44 58 136 75 48 102 29 307 225 33 588
leaf_count=1234 630 1209 1087 96 189 34 890 1967 453 20 457 53 84 40 20 20 1222 240 26 44 58 136 75 48 102 29 307 225 33 588
internal_value=7.63412e-11 -0.0988305 0.12561 0.182742 -0.043109 0.012049 -0.213658 -0.00781622 0.00635642 0.112333 -0.0160029 -0.164185 0.148327 0.275242 0.12866 0.550479 0.121353 0.32874 0.150278 -0.125647 0.117371 -0.0609125 0.318056 0.157241 0.373542 0.598141 0.316431 -0.0924869 0.0342014 0.131796
internal_weight=11616 6501 5115 3403 4377 1712 2124 3066 2877 721 2424 87 2713 364 2349 40 2309 324 634 1311 102 991 690 177 513 104 409 855 129 614
internal_count=11616 6501 5115 3403 4377 1712 2124 3066 2877 721 2424 87 2713 364 2349 40 2309 324 634 1311 102 991 690 177 513 104 409 855 129 614
is_linear=0
shrinkage=0.05


Tree=27
num_leaves=31
num_cat=0
split_feature=91 1 60 0 119 91 167 75 86 10 177 105 82 91 175 81 130 88 150 62 80 19 19 177 79 83 68 92 87 148
split_gain=52057.2 15016 12046 6048.29 5490.99 4822.42 3932.39 3819.56 3138.48 2874.91 2742.5 2741.08 2706.26 2743.51 2646.94 3158.96 2586.85 3779.75 2819.95 2573.7 2368.24 2293.8 3553.49 3302.11 2206.89 4394.06 3511.22 2107.78 2055.74 2031.82
threshold=43.694426371719807 30.500000000000004 44.500000000000007 312650.00000000006 52.500000000000007 56.587037037037042 15.800000000000002 22.166666666666668 259100.00000000003 42.500000000000007 0.50499999523162853 6.0000000000000009 74.500000000000014 33.409677419354843 54.500000000000007 60.146428571428579 -2.8333333333333326 8447.4342105263186 5.1000000000000005 2.5000000000000004 -21.833333333333325 0.53499999642372142 0.62500000000000011 0.34300000965595251 -5016.6666666666652 -14.83333333333333 70.500000000000014 45.750000000000007 49250.000000000007 0.80333331227302562
decision_type=2 2 8 2 10 2 10 10 8 10 10 10 2 2 8 10 8 2 10 10 8 2 2 10 10 10 10 2 10 10
left_child=1 7 6 12 8 9 16 -1 -4 -6 19 -11 13 -3 -7 -16 17 -2 20 27 -18 -8 -23 -24 26 -26 -10 -5 -15 -19
right_child=2 3 4 10 5 14 21 -9 24 11 -12 -13 -14 28 15 -17 18 29 -20 -21 -22 22 23 -25 25 -27 -28 -29 -30 -31
leaf_value=-0.28628217596772637 0.67349113532475069 -0.19170134069588476 -0.13910726666307222 0.028766503007786066 0.64417232427841586 0.85375067434322682 0.56226874180138109 -0.14900941375738389 0.18561667359111619 0.16582962283860142 -0.48442908066969653 0.38327813469752503 0.21584674811017687 -0.052814985887598059 -0.084214161490571926 0.47788525316967156 0.48121861070394517 -0.37781449329285399 -0.28905928040012008 -0.16125391178236459 0.00036231027445722801 -0.38382608606056734 0.098683396131413595 0.39316926413754882 -0.30759456428197718 0.12858224506679081 0.68982260396351691 0.19219170092945581 -0.24076431354507807 0.31771917311208592
leaf_weight=835 35 626 104 1508 39 38 31 1289 517 780 26 178 69 1604 29 181 26 21 84 157 1688 33 577 114 65 517 37 227 160 21
leaf_count=835 35 626 104 1508 39 38 31 1289 517 780 26 178 69 1604 29 181 26 21 84 157 1688 33 577 114 65 517 37 227 160 21
internal_value=2.53639e-10 -0.093889 0.11933 -0.0409536 0.198267 0.272442 0.0447445 -0.202975 0.123793 0.223363 0.0255972 0.206232 -0.0928626 -0.101775 0.469748 0.400262 0.00594799 0.289743 -0.00620563 0.032606 0.00765651 0.141094 0.12306 0.147267 0.147861 0.0798683 0.219291 0.0501484 -0.0698625 -0.0300477
internal_weight=11616 6501 5115 4377 2485 1245 2630 2124 1240 997 1918 958 2459 2390 248 210 1875 77 1798 1892 1714 755 724 691 1136 582 554 1735 1764 42
internal_count=11616 6501 5115 4377 2485 1245 2630 2124 1240 997 1918 958 2459 2390 248 210 1875 77 1798 1892 1714 755 724 691 1136 582 554 1735 1764 42
is_linear=0
shrinkage=0.05


Tree=28
num_leaves=31
num_cat=0
split_feature=92 91 2 91 2 86 163 7 25 91 120 14 101 177 172 147 131 119 70 159 63 161 75 52 129 61 7 71 81 73
split_gain=47293.3 12589.8 8901.93 4726.92 3933.49 3636.79 3379.68 3091.05 3030.08 3019.02 2997.24 3134.88 2767.84 2602.09 3752.61 3394.44 2601.08 2575.43 2882.47 2552.51 2406.08 3018.11 3888.03 2263.85 2229.04 2191.5 2990.7 2927.96 2190.79 2176.24
threshold=28.250000000000004 48.983870967741943 30.500000000000004 37.218778077268645 55.500000000000007 365050.00000000006 7.0000000000000009 142350.00000000003 17.150000572204593 18.785714285714288 0.57499998807907116 45.500000000000007 26.500000000000004 0.41899998486042028 -1.3999999999999997 60.833333333333336 5.666666666666667 56.500000000000007 18650.000000000004 1.0000000180025095e-35 20.500000000000004 3.6000000000000005 61.166666666666679 19.000000000000004 40.833333333333336 4.5000000000000009 97950.000000000015 42.500000000000007 68.966666666666683 37.500000000000007
decision_type=2 2 2 2 2 10 10 2 10 2 8 10 10 10 8 10 10 10 10 8 8 8 8 2 10 10 2 10 10 10
left_child=2 5 9 10 13 19 7 24 -5 -1 -4 -12 -9 14 15 -3 -16 23 -19 -2 28 -22 -23 -10 -6 27 -27 -21 -7 -11
right_child=1 4 3 8 6 20 -8 12 17 29 11 -13 -14 -15 16 -17 -18 18 -20 25 21 22 -24 -25 -26 26 -28 -29 -30 -31
leaf_value=-0.57703152846316896 0.31689802544601897 0.26582120047165797 -0.47938828210121598 0.55808632529300195 0.25246993125633116 0.06901551764999185 -0.35243775352187784 0.24554112675013365 -0.055308153377509578 -0.18546723442803015 -0.12896474503846914 0.22381515150155984 0.93799700919658913 -0.34750339024025823 0.11633789365822522 0.93739381110803655 -0.23198924805772936 0.25264289662976502 -0.38849445194005972 -0.032469550422954629 0.10830568811723165 1.1537829270958901 0.22650071990031462 0.087702120792701704 -0.19900038191782576 -0.37205997872477625 0.13306070056765579 0.13642862218732651 0.49398971796035768 0.303895438624465
leaf_weight=49 59 130 58 23 1160 1395 23 27 1800 1858 1373 66 31 29 897 22 57 142 20 1424 70 20 26 327 28 92 43 313 31 23
leaf_count=49 59 130 58 23 1160 1395 23 27 1800 1858 1373 66 31 29 897 22 57 142 20 1424 70 20 26 327 28 92 43 313 31 23
internal_value=7.24989e-11 0.099697 -0.102094 -0.0577674 0.187657 0.0388111 0.248144 0.25923 -0.0129475 -0.189577 -0.126988 -0.112784 0.615647 0.12003 0.132289 0.363022 0.0955259 -0.0186853 0.17349 -0.00691114 0.0960677 0.315052 0.629667 -0.0333221 0.241829 -0.0171167 -0.21117 -0.00203482 0.0782541 -0.179484
internal_weight=11616 5877 5739 3809 2404 3473 1269 1246 2312 1930 1497 1439 58 1135 1106 152 954 2289 162 1931 1542 116 46 2127 1188 1872 135 1737 1426 1881
internal_count=11616 5877 5739 3809 2404 3473 1269 1246 2312 1930 1497 1439 58 1135 1106 152 954 2289 162 1931 1542 116 46 2127 1188 1872 135 1737 1426 1881
is_linear=0
shrinkage=0.05


Tree=29
num_leaves=31
num_cat=0
split_feature=91 10 21 66 129 172 79 60 5 60 168 139 130 172 60 70 91 13 76 102 70 122 121 69 60 77 88 80 80 25
split_gain=43006.6 12818.3 10354 5199.5 4990.62 4652.17 4179.37 3554.42 3504.05 3113.12 2869.36 2846.21 4466.57 2844.49 2713.76 2443.47 2446.92 2401.04 3405.95 3013.51 2815.23 2552.3 2274.08 2214.91 2147.79 2028.96 2038.42 1965.49 1878.28 2440.46
threshold=43.694426371719807 31.500000000000004 42.500000000000007 60.500000000000007 23.166666666666668 -1.7999999999999998 -3549.9999999999995 46.500000000000007 29.500000000000004 13.500000000000002 4.3000000000000016 15.000000000000002 -1.1666666666666663 -1.0000000180025095e-35 35.500000000000007 -7249.9999999999991 42.506410256410263 62.500000000000007 71.100000000000009 -2.4999999999999996 -16049.999999999998 8.5000000000000018 0.14500000327825549 -5249.9999999999991 62.500000000000007 27.97022226106424 6112.1581670362166 -24.166666666666657 15.666666666666668 60.45000076293946
decision_type=2 10 2 10 10 8 10 10 2 8 10 10 10 10 8 8 2 8 8 10 10 10 10 10 10 10 2 8 10 10
left_child=1 8 4 5 9 11 -7 10 -1 -2 -3 12 -4 25 27 -10 -17 21 20 -20 -19 24 -8 -16 -5 26 -6 -11 -9 -30
right_child=2 7 3 17 13 6 22 28 15 14 -12 -13 -14 -15 23 16 -18 18 19 -21 -22 -23 -24 -25 -26 -27 -28 -29 29 -31
leaf_value=-0.23259582024544345 0.57287575244903566 -0.064622760421506678 0.32829529413332548 0.24340504312469646 0.45504387068748475 0.16326174263980078 -0.15726832481367248 0.13445050553640439 -0.24541327964204052 0.35970319424356734 0.068931606433557488 0.21074367988490522 1.175721471724303 -0.16482251931841557 0.16667848537368798 -0.09551222070666604 0.26038415966665046 0.61851211921090177 1.0228195754381326 0.43198786673198386 0.17545484149431792 -0.20956282062750115 0.054944246470036456 -0.052658969616721465 -0.13763914438895883 0.5494667985373074 0.11299407483800453 -0.13116998038776484 0.24254431142693475 -0.4469584842522939
leaf_weight=1265 20 3061 48 490 50 1150 147 420 276 21 463 133 23 65 194 911 51 42 26 127 245 38 894 283 40 36 338 705 21 33
leaf_count=1265 20 3061 48 490 50 1150 147 420 276 21 463 133 23 65 194 911 51 42 26 127 245 38 894 283 40 36 338 705 21 33
internal_value=-6.50771e-11 -0.0853379 0.108462 0.158919 0.00816654 0.118823 0.0975594 -0.0297854 -0.174071 -0.0458139 -0.0470757 0.347199 0.602814 0.143173 -0.0560997 -0.11427 -0.0766445 0.254186 0.341863 0.532391 0.240292 0.186267 0.0249776 0.0365475 0.214647 0.190389 0.157073 -0.116971 0.0987616 -0.178819
internal_weight=11616 6501 5115 3403 1712 2395 2191 3998 2503 1223 3524 204 71 489 1203 1238 962 1008 440 153 287 568 1041 477 530 424 388 726 474 54
internal_count=11616 6501 5115 3403 1712 2395 2191 3998 2503 1223 3524 204 71 489 1203 1238 962 1008 440 153 287 568 1041 477 530 424 388 726 474 54
is_linear=0
shrinkage=0.05


Tree=30
num_leaves=31
num_cat=0
split_feature=92 2 92 168 168 180 61 52 63 60 149 9 25 43 1 66 102 70 2 119 88 29 4 77 1 77 92 64 1 86
split_gain=38970.4 11530.1 6740.3 3828.97 3325.63 4425.01 2939.74 2854.69 2974.45 2832.59 2852.92 3299.61 2983.65 2668.44 2412.18 2361.24 2493.08 2230.59 2191.87 2582.05 2131.26 2102.76 2054.16 2607.88 1908.9 1895.18 2826.46 2209.1 1893.75 1799.3
threshold=26.250000000000004 50.500000000000007 7.2500000000000009 3.3000000000000003 8.5000000000000018 16.500000000000004 4.5000000000000009 13.000000000000002 17.500000000000004 43.500000000000007 0.30666665732860571 -25349.999999999996 58.549999237060554 -4.4999999999999991 27.500000000000004 78.500000000000014 -1.0000000180025095e-35 -37349.999999999993 28.500000000000004 68.500000000000014 5773.4492481203015 71.500000000000014 0.59499999880790722 15.14375558880074 34.500000000000007 11.846237095944582 30.250000000000004 -1.4999999999999998 51.500000000000007 353100.00000000006
decision_type=2 2 2 10 10 2 10 2 10 8 10 2 10 2 2 10 10 8 2 8 2 2 10 10 2 10 2 8 2 8
left_child=2 3 14 6 9 -6 18 8 21 13 11 -11 -12 -3 29 25 -17 -9 -2 -20 -15 28 -16 -24 -23 27 -27 -5 -4 -1
right_child=1 4 7 15 5 -7 -8 17 -10 10 12 -13 -14 20 22 16 -18 -19 19 -21 -22 24 23 -25 -26 26 -28 -29 -30 -31
leaf_value=-0.16018753477128655 -0.2385988632197647 0.58945943097705422 -0.20008074104296211 0.22314748855279898 0.21604790137364316 1.1162931467450801 -0.33454721806304799 0.438936802689676 0.34572388787527347 0.50804224413904275 -0.17917696620523929 0.19344788553203843 0.14929052430338094 -0.31671006943170843 -0.14331371196097589 0.16396983287683348 0.83390491796391353 -0.01978151107932204 -0.015484558706898084 0.15563886511243052 0.065676758310627525 -0.13113984332051956 0.63430747866630555 -0.14636502894370451 -0.0376803392485211 0.24932478365271984 -0.04420180416926079 0.055983627157327354 -0.6685817976792654 -0.31247873362657191
leaf_weight=325 96 23 213 335 39 21 70 27 37 88 100 1577 224 39 503 41 21 1435 1760 252 555 1268 20 23 960 99 478 482 24 481
leaf_count=325 96 23 213 335 39 21 70 27 37 88 100 1577 224 39 503 41 21 1435 1760 252 555 1268 20 23 960 99 478 482 24 481
internal_value=3.95558e-11 0.0841262 -0.0996981 0.0261894 0.163099 0.531134 -0.0157739 -0.0668176 -0.0992525 0.154626 0.183659 0.210075 0.0479117 0.0610316 -0.196102 0.0889615 0.390883 -0.01131 -0.00518848 0.00594839 0.0405706 -0.105932 -0.114958 0.216738 -0.09087 0.0755331 0.00616064 0.124527 -0.247524 -0.251071
internal_weight=11616 6300 5316 3634 2666 60 2178 3964 2502 2606 1989 1665 324 617 1352 1456 62 1462 2108 2012 594 2465 546 43 2228 1394 577 817 237 806
internal_count=11616 6300 5316 3634 2666 60 2178 3964 2502 2606 1989 1665 324 617 1352 1456 62 1462 2108 2012 594 2465 546 43 2228 1394 577 817 237 806
is_linear=0
shrinkage=0.05


Tree=31
num_leaves=31
num_cat=0
split_feature=91 92 14 30 91 9 111 91 161 147 175 26 121 10 60 80 176 158 88 149 168 146 175 119 70 9 29 70 19 87
split_gain=36154.4 11421.5 7180.33 5573.19 4394.57 4268.91 3904.06 3528.71 3315.31 3365.06 3310.64 3085.91 2984.8 2916.46 2883.42 2868.85 2819.28 2683.88 2663.08 3350.25 3105.27 2599.43 2424.33 2322.63 2284.24 2262.07 3272.08 2197.89 2386.62 2180.74
threshold=40.730735575608428 41.250000000000007 34.500000000000007 31.500000000000004 54.866666666666674 -34149.999999999993 9.0000000000000018 33.991543917075838 2.8000000000000003 55.166666666666679 64.500000000000014 46.45000076293946 0.32500000298023229 30.500000000000004 43.500000000000007 -21.833333333333325 0.93999999761581432 -0.69999999999999984 6446.9068877551026 0.42166665196418768 7.9000000000000012 -1.0000000180025095e-35 59.70000000000001 25.500000000000004 -2449.9999999999995 36450.000000000007 68.500000000000014 -25049.999999999996 0.94499999284744274 54650.000000000007
decision_type=2 2 8 2 2 2 8 2 10 10 10 10 8 10 8 8 8 10 2 10 10 8 10 8 10 2 2 8 2 8
left_child=2 3 13 5 6 15 -3 -4 25 24 21 18 -7 16 -11 -2 -1 23 20 -20 -6 -9 -23 -18 -10 26 -5 28 -8 -27
right_child=1 4 7 8 11 12 27 10 9 14 -12 -13 -14 -15 -16 -17 17 -19 19 -21 -22 22 -24 -25 -26 29 -28 -29 -30 -31
leaf_value=-0.34709556339627229 0.75341894497042128 -0.1286725463424668 -0.12717459341786921 -0.18764387246221303 0.32768920268335844 -0.025115057709540301 0.075085399299860009 0.44306193189413262 -0.010572429437964381 0.098471538225809729 -0.64344109214842327 -0.2103996513705505 -0.19719790699989989 -0.098273887343473365 0.84794211387634277 0.076512579015475146 -0.29801550870953303 0.04018983052228578 0.22417928567609555 -0.32396637519885757 0.88080587983131409 -0.014079296016635804 0.40075278704365092 -0.13964462161391897 0.25074613090512937 0.72508765377781614 0.041197381807696803 0.13591177972865973 -0.51710623902079 0.11983640725198
leaf_weight=304 23 165 878 170 203 538 46 33 154 21 20 38 474 934 33 49 388 128 719 29 29 1625 36 574 183 22 1925 1802 27 46
leaf_count=304 23 165 878 170 203 538 46 33 154 21 20 38 474 934 33 49 388 128 719 29 29 1625 36 574 183 22 1925 1802 27 46
internal_value=-2.29586e-10 0.0756131 -0.102908 0.0157428 0.146839 -0.079249 0.104497 -0.0456631 0.0560604 0.190047 -0.00390871 0.231689 -0.105715 -0.166644 0.556481 0.292747 -0.212452 -0.174901 0.248831 0.202928 0.396829 0.00364185 -0.00508835 -0.20352 0.131331 0.03184 0.0226279 0.125016 -0.143944 0.315653
internal_weight=11616 6696 4920 3638 3058 1084 2040 2592 2554 391 1714 1018 1012 2328 54 72 1394 1090 980 748 232 1694 1661 962 337 2163 2095 1875 73 68
internal_count=11616 6696 4920 3638 3058 1084 2040 2592 2554 391 1714 1018 1012 2328 54 72 1394 1090 980 748 232 1694 1661 962 337 2163 2095 1875 73 68
is_linear=0
shrinkage=0.05


Tree=32
num_leaves=31
num_cat=0
split_feature=21 92 81 92 66 2 12 79 144 71 81 163 135 83 140 66 70 161 112 1 176 112 63 73 145 30 92 134 149 8
split_gain=32544.9 8929.03 7588.64 4143.02 3162.49 3134.38 2610.03 5382.29 3528.34 3871.93 2684.04 2379.21 2313.71 2638.86 2310.03 2305.71 2109.31 2488.05 2091.87 2106.74 2084.76 2057.83 2597.43 1921.91 1917.39 3173.51 2753.33 2685.95 2616.82 1838.59
threshold=42.500000000000007 21.500000000000004 47.51315789473685 54.500000000000007 78.500000000000014 21.500000000000004 57.500000000000007 -11749.999999999998 -0.99999999999999989 59.500000000000007 62.51315789473685 7.0000000000000009 1.0000000180025095e-35 -60.499999999999993 3.1666666666666674 59.500000000000007 20850.000000000004 2.0000000000000004 1.5000000000000002 49.500000000000007 0.79299998283386242 1.5000000000000002 12.500000000000002 45.500000000000007 -0.99999999999999989 37.500000000000007 48.250000000000007 1.0000000180025095e-35 0.080000001937150969 12.500000000000002
decision_type=2 2 10 2 10 2 8 8 10 10 10 10 8 10 8 10 10 10 8 2 8 8 10 10 8 2 2 8 8 2
left_child=1 5 4 12 14 -1 24 8 10 -10 -8 15 13 -3 18 -9 17 -16 20 -20 -2 23 -23 -14 25 -4 27 -26 -28 -7
right_child=2 3 6 -5 -6 29 7 11 9 -11 -12 -13 21 -15 16 -17 -18 -19 19 -21 -22 22 -24 -25 26 -27 28 -29 -30 -31
leaf_value=-0.24892604478871144 -0.25556908230341618 0.5630875380201773 0.5082349940637747 0.29250377716001025 0.52530151912942535 -0.12110189883688441 0.71887137800455092 0.090086125150723687 1.1335984957856791 0.32807548367060146 0.0064393822963421171 -0.30217382197196668 -0.17261867233406322 0.0113531780548404 0.04800759256513977 0.24317428730941426 -0.12916038351202452 0.21577066323172289 -0.15624045732781211 0.030942970320959634 0.1239860874768418 -0.032298172703379188 -0.47694385186495158 -0.68397431373596196 0.16491653228256423 -0.026301509413703395 -0.28211352601647377 -0.033618349819714302 0.27926230746336089 0.039511986710621338
leaf_weight=477 42 22 30 109 32 2864 20 409 35 26 39 26 147 1453 1283 617 135 267 411 237 261 966 34 21 407 373 22 293 368 190
leaf_count=477 42 22 30 109 32 2864 20 409 35 26 39 26 147 1453 1283 617 135 267 411 237 261 966 34 21 407 373 22 293 368 190
internal_value=2.97569e-10 -0.0771055 0.0908408 -0.00958849 0.0312304 -0.129727 0.150518 0.206367 0.523621 0.790261 0.247942 0.170178 -0.0220471 0.0195824 0.0252325 0.182148 0.0603964 0.0769061 -0.0370714 -0.0877799 0.0713745 -0.0746186 -0.0474161 -0.236538 0.106677 0.0134903 0.141131 0.0818155 0.247595 -0.11111
internal_weight=11616 6283 5333 2752 2668 3531 2665 1172 120 61 59 1052 2643 1475 2636 1026 1685 1550 951 648 303 1168 1000 168 1493 403 1090 700 390 3054
internal_count=11616 6283 5333 2752 2668 3531 2665 1172 120 61 59 1052 2643 1475 2636 1026 1685 1550 951 648 303 1168 1000 168 1493 403 1090 700 390 3054
is_linear=0
shrinkage=0.05


Tree=33
num_leaves=31
num_cat=0
split_feature=91 1 1 0 167 92 176 91 87 140 140 147 103 82 177 88 53 149 62 79 78 72 177 73 42 25 6 161 62 68
split_gain=30619.6 8969.51 7272.83 3935.5 3478.82 5012.85 3287.85 3092.76 3112.24 2925.63 2466.26 2605.61 2404.68 2359.9 2346.51 2329.94 2408.56 2328.03 2315.85 2194.37 2121.18 2886.65 2457.72 2054.31 2359.5 2020.83 2003.53 1889.45 2039.96 1887.85
threshold=43.694426371719807 30.500000000000004 52.500000000000007 312650.00000000006 12.600000000000003 54.500000000000007 0.75499999523162853 58.152966101694922 -104149.99999999999 2.1666666666666674 7.8333333333333348 59.500000000000007 7.0000000000000009 74.500000000000014 0.51299998164176952 5331.58866995074 1.5000000000000002 0.21333333849906924 2.5000000000000004 -5983.333333333333 15.472556012411976 26.500000000000004 0.39100000262260443 33.833333333333336 10.500000000000002 68.299999237060561 0.84529897570610057 2.8000000000000003 2.5000000000000004 27.500000000000004
decision_type=2 2 2 2 10 2 10 2 10 10 10 8 10 2 10 2 2 8 10 10 10 8 10 8 2 10 2 10 8 8
left_child=1 9 4 13 5 20 -6 15 12 -1 11 -10 -9 27 18 -4 17 -17 -5 -7 22 -22 -2 -8 -25 -15 -18 29 -29 -3
right_child=2 3 7 14 6 19 23 8 10 -11 -12 -13 -14 25 -16 16 26 -19 -20 -21 21 -23 -24 24 -26 -27 -28 28 -30 -31
leaf_value=-0.20615182044935479 -0.020718793618245107 -0.17975973754430546 -0.16972504139861519 0.045293978786940498 -0.19029619934711051 0.49148294657900715 0.48759387657046321 0.88038060938557372 -0.1157040358131582 -0.087218268695653661 0.71632247476474109 0.31053512689558049 0.21674103282746815 -0.036331871232470954 -0.47940485594065296 0.84157134320424953 0.040584265221247175 0.2574224814772606 -0.15522477352030717 0.005430246080671039 0.30245993073497501 -0.24009816354982139 0.32415484054772947 -0.23585850085530963 0.11693687326613184 0.50627326201647527 0.17349590886414945 -0.068093394910491364 0.2451318412595852 -0.06958504899634424
leaf_weight=1234 1192 507 57 1738 94 69 36 39 55 890 23 103 21 37 23 23 376 66 157 35 28 197 54 49 1445 32 1153 127 88 1668
leaf_count=1234 1192 507 57 1738 94 69 36 39 55 890 23 103 21 37 23 23 376 66 157 35 28 197 54 49 1445 32 1153 127 88 1668
internal_value=1.32128e-10 -0.0720069 0.0915185 -0.0310947 0.0453772 -0.00756858 0.0967255 0.168557 0.33603 -0.156316 0.232579 0.162161 0.648107 -0.072967 0.0225883 0.144461 0.155529 0.408382 0.0286811 0.327908 -0.0312868 -0.17258 -0.00577242 0.11436 0.105366 0.215311 0.140811 -0.0812897 0.0601104 -0.0952671
internal_weight=11616 6501 5115 4377 3199 1575 1624 1916 241 2124 181 158 60 2459 1918 1675 1618 89 1895 104 1471 225 1246 1530 1494 69 1529 2390 215 2175
internal_count=11616 6501 5115 4377 3199 1575 1624 1916 241 2124 181 158 60 2459 1918 1675 1618 89 1895 104 1471 225 1246 1530 1494 69 1529 2390 215 2175
