tree
version=v4
num_class=1
num_tree_per_iteration=1
label_index=0
max_feature_idx=176
objective=regression
feature_names=Column_0 Column_1 Column_2 Column_3 Column_4 Column_5 Column_6 Column_7 Column_8 Column_9 Column_10 Column_11 Column_12 Column_13 Column_14 Column_15 Column_16 Column_17 Column_18 Column_19 Column_20 Column_21 Column_22 Column_23 Column_24 Column_25 Column_26 Column_27 Column_28 Column_29 Column_30 Column_31 Column_32 Column_33 Column_34 Column_35 Column_36 Column_37 Column_38 Column_39 Column_40 Column_41 Column_42 Column_43 Column_44 Column_45 Column_46 Column_47 Column_48 Column_49 Column_50 Column_51 Column_52 Column_53 Column_54 Column_55 Column_56 Column_57 Column_58 Column_59 Column_60 Column_61 Column_62 Column_63 Column_64 Column_65 Column_66 Column_67 Column_68 Column_69 Column_70 Column_71 Column_72 Column_73 Column_74 Column_75 Column_76 Column_77 Column_78 Column_79 Column_80 Column_81 Column_82 Column_83 Column_84 Column_85 Column_86 Column_87 Column_88 Column_89 Column_90 Column_91 Column_92 Column_93 Column_94 Column_95 Column_96 Column_97 Column_98 Column_99 Column_100 Column_101 Column_102 Column_103 Column_104 Column_105 Column_106 Column_107 Column_108 Column_109 Column_110 Column_111 Column_112 Column_113 Column_114 Column_115 Column_116 Column_117 Column_118 Column_119 Column_120 Column_121 Column_122 Column_123 Column_124 Column_125 Column_126 Column_127 Column_128 Column_129 Column_130 Column_131 Column_132 Column_133 Column_134 Column_135 Column_136 Column_137 Column_138 Column_139 Column_140 Column_141 Column_142 Column_143 Column_144 Column_145 Column_146 Column_147 Column_148 Column_149 Column_150 Column_151 Column_152 Column_153 Column_154 Column_155 Column_156 Column_157 Column_158 Column_159 Column_160 Column_161 Column_162 Column_163 Column_164 Column_165 Column_166 Column_167 Column_168 Column_169 Column_170 Column_171 Column_172 Column_173 Column_174 Column_175 Column_176
feature_infos=[113800:902900] [5:90] [-1:130] [-151:220] [0:4.2399997711181641] [5:90] [-0.40000000596046448:4.880000114440918] [-357700:540600] [0:23] [-114900:220300] [0:163] [0:159] [0:129] [0:85] [0:83] [0:0] [0:0] [0:0] [0:0] [-0.17000000178813934:2.1400001049041748] [-0.17000000178813934:2.4300000667572021] [-1:110] [0:0] [0:0] [0:0] [0:100] [0:160] [0:100] [0:100] [6:130] [-1:71] [-6:102] [-3:112] [0:90] [-22:0] [0:102] [0:60] [0:12] [0:44] [-10:0] none none [0:53] [-11:0] [0:36] [0:18] [0:28] [0:6] [0:60] [0:48] none none [0:46] [0:21] [0:6] [0:10] [-6:0] [-10:0] [-12:0] [-16:0] [0:66] [-6:102] [-3:112] [0:90] [-22:0] none [-5:199] [-5:199] [-4:191] [-249900:220300] [-249900:220300] [2:158.66666666666666] [4.4000000000000004:129] [0:86.892654081535184] [1.5165750888103062:64.969223483123145] [-82666.666666666672:142433.33333333334] [-87.666666666666671:83] [-1:130] [-176:254] [-135:177.33333333333334] [-176:254] [0:3] [113800:767500] [-357700:530100] [1190.2912621359224:433600] none [42.634995296331141:54.5] [5.5:77.869565217391298] [1:75] [1:75] [0:102] [0:60] [0:12] [0:44] [-10:0] [0:10] [-2:0] [0:49] [-11:0] [0:36] [0:18] [0:28] [0:6] [0:60] [0:48] [0:10] [0:8] [0:46] [0:21] [0:6] [0:10] [-6:0] [-10:0] [-12:0] [-16:0] [0:90] [-0.17000000178813934:5] [0:4.2399997711181641] [0:56.666666666666664] [0:36] [0:8] [0:32] [-5.333333333333333:0] [0:3.3333333333333335] [-0.66666666666666663:0] [0:41.333333333333336] [-6.666666666666667:0] [0:28.666666666666668] [0:8] [0:16] [0:3.3333333333333335] [0:43.333333333333336] [0:26.666666666666668] [0:3.3333333333333335] [0:2.6666666666666665] [1.3333333333333333:38] [0:14] [0:4] [0:5] [-2:0] [-4.666666666666667:0] [-7.333333333333333:0] [-5.333333333333333:0] [5.333333333333333:85] [0:1.3333333730697632] [0.0066666663624346256:2.3433332443237305] [0:40.799999999999997] [0:31.199999999999999] [0:6] [0:26.399999999999999] [-4:0] [0:2] [-0.40000000000000002:0] [0.59999999999999998:37] [-6:0] [0:20.800000000000001] [0:6] [0:15.199999999999999] [0:2.3999999999999999] [0:30] [0:22.399999999999999] [0:2] [0:1.6000000000000001] [2:36] [0.40000000000000002:11.6] [0:3] [0:3] [-1.8:0] [-4:0] [-5.5999999999999996:0] [-3.2000000000000002:0] [6.4000000000000004:84.200000000000003] [0:1.1039999723434448] [0.034000001847743988:1.8939998149871826] none [7:23] [7:23]
tree_sizes=819 832 834 833 839 838 839 840 855 834 845 840 756 842 840 838 837 765 764 840

Tree=0
num_leaves=8
num_cat=0
split_feature=87 87 87 2 13 87 87
split_gain=465314 97463.2 90036.8 59322.8 25872.6 19529.5 14210.6
threshold=47.603188811188822 38.646464646464658 54.255142405063303 48.500000000000007 57.500000000000007 42.702226720647779 30.131130063965887
decision_type=2 2 2 2 8 2 2
left_child=1 6 4 -4 -2 -3 -1
right_child=2 5 3 -5 -6 -7 -8
leaf_value=44.436120083174558 46.422163462083006 46.163431587924656 47.324038313816402 48.556236018173841 47.371113914786761 46.643366615979104 45.546077086370701
leaf_weight=188 493 1985 826 1835 2785 3276 1593
leaf_count=188 493 1985 826 1835 2785 3276 1593
internal_value=46.8648 46.2009 47.652 48.1738 47.2284 46.4623 45.4289
internal_weight=12981 7042 5939 2661 3278 5261 1781
internal_count=12981 7042 5939 2661 3278 5261 1781
is_linear=0
shrinkage=1


Tree=1
num_leaves=8
num_cat=0
split_feature=87 87 77 88 11 72 87
split_gain=365191 104146 52030.5 31676.3 30183.2 22473 16729.1
threshold=51.157015890115815 40.478433252004187 69.050000000000011 30.750000000000004 36.500000000000007 68.100000000000009 33.741935483870975
decision_type=2 2 10 2 8 10 2
left_child=1 6 3 -2 -3 -4 -1
right_child=2 4 5 -5 -6 -7 -8
leaf_value=-1.8144526153620488 0.16271585288091528 -0.53865832920076961 1.2466580524270445 0.95117073376193806 0.019085404419412796 3.0594326454812788 -0.97609869545329431
leaf_weight=416 982 2260 189 3050 3781 211 2092
leaf_count=416 982 2260 189 3050 3781 211 2092
internal_value=0 -0.461109 0.889444 0.759141 -0.189572 2.2029 -1.11516
internal_weight=12981 8549 4432 4032 6041 400 2508
internal_count=12981 8549 4432 4032 6041 400 2508
is_linear=0
shrinkage=0.120741


Tree=2
num_leaves=8
num_cat=0
split_feature=87 72 87 87 0 21 21
split_gain=285583 59512 59052.1 52362.1 28872.6 16816.5 13287.9
threshold=47.603188811188822 46.100000000000009 38.646464646464658 66.256200084068951 511350.00000000006 50.500000000000007 23.500000000000004
decision_type=2 10 2 2 2 2 2
left_child=2 4 6 -3 -2 -4 -1
right_child=1 3 5 -5 -6 -7 -8
leaf_value=-1.535236410973722 0.082162909515164986 0.84448975488016975 -0.36228182753581134 2.7847904540787454 1.3407576448468901 0.70461536798356361 -0.85843140474183754
leaf_weight=691 2523 2901 5036 218 297 225 1090
leaf_count=691 2523 2901 5036 218 297 225 1090
internal_value=0 0.616678 -0.520087 0.980106 0.214717 -0.316653 -1.12102
internal_weight=12981 5939 7042 3119 2820 5261 1781
internal_count=12981 5939 7042 3119 2820 5261 1781
is_linear=0
shrinkage=0.120741


Tree=3
num_leaves=8
num_cat=0
split_feature=87 87 2 2 72 87 157
split_gain=227518 80928.4 37339.9 27903.6 20715.3 17647.1 13102.8
threshold=53.112044817927178 42.504056437389778 69.500000000000014 35.500000000000007 42.900000000000006 35.687330316742084 1.2000000000000004
decision_type=2 2 2 2 10 2 8
left_child=1 5 4 -3 -2 -1 -4
right_child=2 3 6 -5 -6 -7 -8
leaf_value=-1.2024679368770683 0.2973365786494287 -0.61278977158491021 3.7233115642726662 0.086891414612038947 0.94706353618399963 -0.59539142458976968 1.6895499455695291
leaf_weight=949 1142 998 54 4964 1915 2640 319
leaf_count=949 1142 998 54 4964 1915 2640 319
internal_value=0 -0.302922 0.843502 -0.0302306 0.704346 -0.755914 1.98398
internal_weight=12981 9551 3430 5962 3057 3589 373
internal_count=12981 9551 3430 5962 3057 3589 373
is_linear=0
shrinkage=0.120741


Tree=4
num_leaves=8
num_cat=0
split_feature=87 87 87 149 88 13 30
split_gain=178438 52473.2 26050.3 24976.3 21817.6 12254 10967.8
threshold=45.62079139187783 54.361979166666679 38.574786324786338 14.000000000000002 30.750000000000004 58.500000000000007 11.500000000000002
decision_type=2 2 2 10 2 8 2
left_child=2 4 6 -3 -2 -4 -1
right_child=1 3 5 -5 -6 -7 -8
leaf_value=-1.8436582631632805 -0.18304752812444433 0.79347343107994228 -0.81504018228956454 2.9630446488995119 0.36456262616944818 -0.23773180041442596 -0.78586480997566877
leaf_weight=157 1636 2340 632 80 3016 3529 1591
leaf_count=157 1636 2340 632 80 3016 3529 1591
internal_value=0 0.409195 -0.489732 0.865195 0.171981 -0.325417 -0.880873
internal_weight=12981 7072 5909 2420 4652 4161 1748
internal_count=12981 7072 5909 2420 4652 4161 1748
is_linear=0
shrinkage=0.120741


Tree=5
num_leaves=8
num_cat=0
split_feature=87 2 87 21 87 21 107
split_gain=141051 40819.4 28924 22667.3 20991.7 14891.1 14704.7
threshold=51.157015890115815 36.500000000000007 66.256200084068951 42.500000000000007 43.798611111111121 27.500000000000004 9.0000000000000018
decision_type=2 2 2 2 2 2 10
left_child=1 5 3 -2 -3 -1 -4
right_child=2 4 6 -5 -6 -7 -8
leaf_value=-0.92129094242718457 0.28729852345247325 -0.36471345565321955 0.088563488724958186 0.91202230308515853 0.095459491760160248 -0.34685433000078952 2.1071155515512627
leaf_weight=1541 2929 2589 67 1191 3271 1148 245
leaf_count=1541 2929 2589 67 1191 3271 1148 245
internal_value=0 -0.286571 0.552774 0.467892 -0.107849 -0.67605 1.67364
internal_weight=12981 8549 4432 4120 5860 2689 312
internal_count=12981 8549 4432 4120 5860 2689 312
is_linear=0
shrinkage=0.120741


Tree=6
num_leaves=8
num_cat=0
split_feature=87 87 2 11 80 87 21
split_gain=111108 40405.3 24676.5 18128 15169.5 10864.6 10773.1
threshold=53.112044817927178 42.299853801169597 69.500000000000014 36.500000000000007 -60.499999999999993 33.21120689655173 53.500000000000007
decision_type=2 2 2 8 8 2 2
left_child=1 5 4 -3 -2 -1 -4
right_child=2 3 6 -5 -6 -7 -8
leaf_value=-1.1651306225331679 1.1411283435415986 -0.31332119929617186 1.123863656680103 0.11759094552758198 0.3675135001313119 -0.47609867050159482 2.5887338923414842
leaf_weight=377 430 2182 273 4093 2627 2899 100
leaf_count=377 430 2182 273 4093 2627 2899 100
internal_value=5.51976e-09 -0.211688 0.589455 -0.0322497 0.476331 -0.555392 1.51659
internal_weight=12981 9551 3430 6275 3057 3276 373
internal_count=12981 9551 3430 6275 3057 3276 373
is_linear=0
shrinkage=0.120741


Tree=7
num_leaves=8
num_cat=0
split_feature=87 72 87 21 0 163 155
split_gain=87550.1 30392 24097.4 17965.6 17897.3 11444 10075.1
threshold=46.577682186234824 46.100000000000009 66.256200084068951 21.500000000000004 511350.00000000006 20.200000000000003 5.0000000000000009
decision_type=2 10 2 2 2 10 10
left_child=3 4 -3 6 -2 -5 -1
right_child=1 2 -4 5 -6 -7 -8
leaf_value=-0.85079541682972382 -0.047237210910254311 0.48631566015496519 1.8000398863928202 -0.24905147187329749 0.9263547189144129 0.6130054172463546 0.094254090370536531
leaf_weight=1112 2823 3071 218 5024 305 235 193
leaf_count=1112 2823 3071 218 5024 305 235 193
internal_value=0 0.317138 0.573391 -0.310035 0.0476942 -0.21053 -0.711029
internal_weight=12981 6417 3289 6564 3128 5259 1305
internal_count=12981 6417 3289 6564 3128 5259 1305
is_linear=0
shrinkage=0.120741


Tree=8
num_leaves=8
num_cat=0
split_feature=87 2 2 87 87 80 21
split_gain=70236.1 28177.5 18824.1 12899.6 11705.1 11247.5 10386.3
threshold=53.112044817927178 36.500000000000007 48.500000000000007 43.798611111111121 60.661111111111119 -74.499999999999986 27.500000000000004
decision_type=2 2 2 2 2 8 2
left_child=1 6 5 -3 -4 -2 -1
right_child=2 3 4 -5 -6 -7 -8
leaf_value=-0.69009669494151871 1.4880313323646475 -0.24557780997732842 0.52013289603409363 0.097957976763734328 1.1710048651172902 -0.032175497234481307 -0.22184744664247827
leaf_weight=1607 76 2589 1764 4144 522 1068 1211
leaf_count=1607 76 2589 1764 4144 522 1068 1211
internal_value=4.92139e-09 -0.168308 0.468661 -0.0341398 0.668757 0.0688172 -0.488873
internal_weight=12981 9551 3430 6733 2286 1144 2818
internal_count=12981 9551 3430 6733 2286 1144 2818
is_linear=0
shrinkage=0.120741


Tree=9
num_leaves=8
num_cat=0
split_feature=88 87 1 69 87 147 86
split_gain=55489.1 27835.6 16778.2 12549 12401.1 10090.6 6194.23
threshold=30.750000000000004 52.047334607624514 39.500000000000007 -42149.999999999993 35.687330316742084 8.4000000000000021 50.147198229734123
decision_type=2 2 2 8 2 10 2
left_child=2 5 6 -3 -4 -2 -1
right_child=1 3 4 -5 -6 -7 -8
leaf_value=-0.76384412259613454 -0.0042650158923412907 1.4395628630699635 -0.66807414394075504 0.44312307476588897 -0.14593627262648329 1.6891945425811092 -1.8999157344834521
leaf_weight=258 3785 197 765 2848 4980 52 96
leaf_count=258 3785 197 765 2848 4980 52 96
internal_value=0 0.235005 -0.265175 0.507589 -0.215464 0.0186851 -1.07193
internal_weight=12981 6882 6099 3045 5745 3837 354
internal_count=12981 6882 6099 3045 5745 3837 354
is_linear=0
shrinkage=0.120741


Tree=10
num_leaves=8
num_cat=0
split_feature=87 88 69 30 53 11 87
split_gain=45349.8 23555.7 17099.3 10982.4 10062.5 7948.65 5978.08
threshold=44.482258064516138 31.750000000000004 -42149.999999999993 23.500000000000004 5.5000000000000009 28.500000000000004 41.804900956284158
decision_type=2 2 8 2 2 8 2
left_child=3 4 -3 5 -2 -1 -5
right_child=1 2 -4 6 -6 -7 -8
leaf_value=-0.74428492413513947 -0.29207214249651448 1.2655382969888476 0.27429966063111666 -0.27739261662528231 0.20559572977557863 -0.29629405483592319 0.092954281523659643
leaf_weight=936 1700 267 5096 1408 909 1507 1158
leaf_count=936 1700 267 5096 1408 909 1507 1158
internal_value=0 0.178888 0.323649 -0.284706 -0.11868 -0.467935 -0.11026
internal_weight=12981 7972 5363 5009 2609 2443 2566
internal_count=12981 7972 5363 5009 2609 2443 2566
is_linear=0
shrinkage=0.120741


Tree=11
num_leaves=8
num_cat=0
split_feature=87 77 77 69 79 30 157
split_gain=36580.8 15630.5 15088.3 12117.4 11348.8 11033.7 8845.37
threshold=53.112044817927178 39.519230769230781 69.050000000000011 28050.000000000004 41.500000000000007 22.500000000000004 1.2000000000000004
decision_type=2 10 10 8 8 2 8
left_child=1 5 3 -2 -3 -1 -4
right_child=2 4 6 -5 -6 -7 -8
leaf_value=-0.51448144744903013 0.37679597561707667 0.095971876242049947 2.487125412088675 -0.20776212466849805 -0.37775925755535006 -0.12236428930470386 0.82358477690193033
leaf_weight=1860 2412 4415 55 658 885 2391 305
leaf_count=1860 2412 4415 55 658 885 2391 305
internal_value=0 -0.121465 0.338224 0.251506 0.0168677 -0.293933 1.07774
internal_weight=12981 9551 3430 3070 5300 4251 360
internal_count=12981 9551 3430 3070 5300 4251 360
is_linear=0
shrinkage=0.120741


Tree=12
num_leaves=7
num_cat=0
split_feature=21 163 39 149 87 163
split_gain=33036.3 25629.6 17220.4 15522 9636.97 6443.73
threshold=50.500000000000007 18.200000000000003 -1.0000000180025095e-35 6.8000000000000016 64.786642833929164 12.200000000000001
decision_type=2 10 2 10 2 8
left_child=1 2 -1 -3 5 -2
right_child=4 3 -4 -5 -6 -7
leaf_value=0.53868479720097517 -0.19136569116886326 0.36763477601114031 -0.14953872403850968 2.3896750528974677 1.9962584883549919 0.72050565859782312
leaf_weight=559 134 1209 10225 58 76 720
leaf_count=559 134 1209 10225 58 76 720
internal_value=0 -0.053509 -0.113864 0.460199 0.693373 0.577425
internal_weight=12981 12051 10784 1267 930 854
internal_count=12981 12051 10784 1267 930 854
is_linear=0
shrinkage=0.120741


Tree=13
num_leaves=8
num_cat=0
split_feature=0 52 155 75 135 116 13
split_gain=27447.2 17348.9 15556.9 12019.5 11303.2 9805.73 8825.35
threshold=488750.00000000006 9.0000000000000018 10.200000000000001 650.00000000000011 11.000000000000002 0.48499999940395361 60.500000000000007
decision_type=2 2 10 8 8 10 8
left_child=1 6 -3 4 -2 -5 -1
right_child=3 2 -4 5 -6 -7 -8
leaf_value=-0.74245334744294866 2.169767630877586 -0.013409186640665089 1.2397069377738248 0.070702285628953324 0.6459768486747538 0.98394635239187689 -0.22229855676728613
leaf_weight=631 81 8254 147 1164 573 201 1930
leaf_count=631 81 8254 147 1164 573 201 1930
internal_value=0 -0.0753482 0.00851772 0.409097 0.834703 0.20518 -0.350459
internal_weight=12981 10962 8401 2019 654 1365 2561
internal_count=12981 10962 8401 2019 654 1365 2561
is_linear=0
shrinkage=0.120741


Tree=14
num_leaves=8
num_cat=0
split_feature=87 21 39 6 1 87 3
split_gain=23994.1 14919.9 12670.1 12089.5 7461.86 6241.53 5818.76
threshold=44.482258064516138 51.500000000000007 -1.0000000180025095e-35 1.4550000429153445 39.500000000000007 32.25396825396826 80.500000000000014
decision_type=2 2 2 2 2 2 2
left_child=4 2 -2 -3 6 -6 -1
right_child=1 3 -4 -5 5 -7 -8
leaf_value=-0.52358890446933615 0.65359682326923363 0.49825949835760386 0.035109231219195153 2.1829234283793331 -0.74229369460769012 -0.13926896912172118 -1.8824883256740339
leaf_weight=196 520 621 6762 69 265 4488 60
leaf_count=196 520 621 6762 69 265 4488 60
internal_value=1.32337e-09 0.13012 0.0792748 0.666726 -0.207091 -0.17289 -0.842082
internal_weight=12981 7972 7282 690 5009 4753 256
internal_count=12981 7972 7282 690 5009 4753 256
is_linear=0
shrinkage=0.120741


Tree=15
num_leaves=8
num_cat=0
split_feature=21 150 87 63 52 26 67
split_gain=19688.7 19772.4 12460.5 9706.93 9432.65 7215.02 5486.3
threshold=39.500000000000007 -0.59999999999999998 54.255142405063303 6.5000000000000009 5.0000000000000009 64.500000000000014 19.500000000000004
decision_type=2 8 2 8 2 10 8
left_child=1 3 6 -1 -3 -4 -2
right_child=2 4 5 -5 -6 -7 -8
leaf_value=-0.2195465387775028 -0.66205508301503369 -0.54995330002613263 0.52681353143479182 0.88000514588628631 -0.096575089509956746 1.9864480596178336 0.14180303508889333
leaf_weight=160 131 728 976 436 8254 52 2244
leaf_count=160 131 728 976 436 8254 52 2244
internal_value=0 -0.0886346 0.249469 0.584823 -0.133322 0.600647 0.0974639
internal_weight=12981 9578 3403 596 8982 1028 2375
internal_count=12981 9578 3403 596 8982 1028 2375
is_linear=0
shrinkage=0.120741


Tree=16
num_leaves=8
num_cat=0
split_feature=77 39 74 21 135 0 126
split_gain=17237.4 11019.7 10819.9 9912.64 7038.91 5954.32 2859.85
threshold=39.519230769230781 -1.0000000180025095e-35 27.720028801328588 44.500000000000007 5.0000000000000009 511350.00000000006 -1.1666666666666663
decision_type=10 2 10 2 8 2 10
left_child=4 2 -2 -3 6 -6 -1
right_child=1 3 -4 -5 5 -7 -8
leaf_value=-0.54114384632646872 0.2780367763931062 0.0038814831673754887 1.4667634067072819 0.3555721179699915 -0.18207590531314316 0.59599316011417014 -1.7732534953905943
leaf_weight=57 364 6157 161 1442 4599 148 53
leaf_count=57 364 6157 161 1442 4599 148 53
internal_value=0 0.107581 0.64258 0.070619 -0.179944 -0.157818 -1.1348
internal_weight=12981 8124 525 7599 4857 4747 110
internal_count=12981 8124 525 7599 4857 4747 110
is_linear=0
shrinkage=0.120741


Tree=17
num_leaves=7
num_cat=0
split_feature=163 21 21 12 87 158
split_gain=14788.2 15267.8 10159.9 8971.45 6870.76 5904.94
threshold=18.200000000000003 50.500000000000007 11.500000000000002 74.500000000000014 66.256200084068951 1.0000000000000002
decision_type=10 2 2 8 2 10
left_child=1 2 -1 -3 5 -2
right_child=4 3 -4 -5 -6 -7
leaf_value=-0.7387245940108359 0.36285004220678385 0.35943692680986938 -0.061255064791322769 1.8777586773927435 1.3596920457972297 -0.60072095470149822
leaf_weight=333 1273 668 10451 62 94 100
leaf_count=333 1273 668 10451 62 94 100
internal_value=1.15024e-09 -0.0460003 -0.0821747 0.48839 0.361041 0.29267
internal_weight=12981 11514 10784 730 1467 1373
internal_count=12981 11514 10784 730 1467 1373
is_linear=0
shrinkage=0.120741


Tree=18
num_leaves=7
num_cat=0
split_feature=87 1 69 19 143 74
split_gain=13166.5 10341.3 9246.93 5563.35 5384.38 6296.43
threshold=43.798611111111121 32.500000000000007 36350.000000000007 0.51499998569488536 82.833333333333357 27.590759307764301
decision_type=2 2 10 2 10 8
left_child=4 3 -3 -2 5 -1
right_child=1 2 -4 -5 -6 -7
leaf_value=-0.020711824992353269 -0.11336703744103838 0.15110540541432624 -0.2873245988698454 -1.3939881014120128 -1.2653937501807009 -0.30854046720654799
leaf_weight=2466 96 7467 774 102 64 2012
leaf_count=2466 96 7467 774 102 64 2012
internal_value=6.5024e-10 0.0892101 0.109928 -0.773082 -0.165752 -0.150035
internal_weight=12981 8439 8241 198 4542 4478
internal_count=12981 8439 8241 198 4542 4478
is_linear=0
shrinkage=0.120741


Tree=19
num_leaves=8
num_cat=0
split_feature=0 169 69 66 83 82 21
split_gain=12575.2 11351 8904.83 14755.9 8581.17 7499.73 6382.1
threshold=564950.00000000012 -2.1999999999999997 33950.000000000007 66.500000000000014 -84549.999999999985 330150.00000000006 39.500000000000007
decision_type=2 8 8 10 10 10 2
left_child=1 4 3 -2 -1 -4 -3
right_child=2 6 5 -5 -6 -7 -8
leaf_value=-0.11805267354620362 0.22658051169191129 -0.13833559624183528 1.2324274705944949 1.5105884626805799 0.39891885641355368 -0.38469145558461021 0.086695575880317885
leaf_weight=706 325 7641 51 218 1389 232 2419
leaf_count=706 325 7641 51 218 1389 232 2419
internal_value=0 -0.0309792 0.455875 0.742076 0.224703 -0.0932667 -0.0842252
internal_weight=12981 12155 826 543 2095 283 10060
internal_count=12981 12155 826 543 2095 283 10060
is_linear=0
shrinkage=0.120741


end of trees

feature_importances:
Column_87=39
Column_21=14
Column_2=7
Column_0=5
Column_69=5
Column_72=4
Column_77=4
Column_88=4
Column_163=4
Column_1=3
Column_11=3
Column_13=3
Column_30=3
Column_39=3
Column_52=2
Column_74=2
Column_80=2
Column_135=2
Column_149=2
Column_155=2
Column_157=2
Column_3=1
Column_6=1
Column_12=1
Column_19=1
Column_26=1
Column_53=1
Column_63=1
Column_66=1
Column_67=1
Column_75=1
Column_79=1
Column_82=1
Column_83=1
Column_86=1
Column_107=1
Column_116=1
Column_126=1
Column_143=1
Column_147=1
Column_150=1
Column_158=1
Column_169=1

parameters:
[boosting: gbdt]
[objective: regression]
[metric: l2]
[tree_learner: serial]
[device_type: cpu]
[data_sample_strategy: bagging]
[data: ]
[valid: ]
[num_iterations: 311]
[learning_rate: 0.120741]
[num_leaves: 31]
[num_threads: 14]
[seed: 42]
[deterministic: 0]
[force_col_wise: 0]
[force_row_wise: 0]
[histogram_pool_size: -1]
[max_depth: 3]
[min_data_in_leaf: 50]
[min_sum_hessian_in_leaf: 0.001]
[bagging_fraction: 0.500922]
[pos_bagging_fraction: 1]
[neg_bagging_fraction: 1]
[bagging_freq: 0]
[bagging_seed: 400]
[bagging_by_query: 0]
[feature_fraction: 0.975932]
[feature_fraction_bynode: 1]
[feature_fraction_seed: 30056]
[extra_trees: 0]
[extra_seed: 12879]
[early_stopping_round: 0]
[early_stopping_min_delta: 0]
[first_metric_only: 0]
[max_delta_step: 0]
[lambda_l1: 0.00108364]
[lambda_l2: 8.28419e-06]
[linear_lambda: 0]
[min_gain_to_split: 0]
[drop_rate: 0.1]
[max_drop: 50]
[skip_drop: 0.5]
[xgboost_dart_mode: 0]
[uniform_drop: 0]
[drop_seed: 17869]
[top_rate: 0.2]
[other_rate: 0.1]
[min_data_per_group: 100]
[max_cat_threshold: 32]
[cat_l2: 10]
[cat_smooth: 10]
[max_cat_to_onehot: 4]
[top_k: 20]
[monotone_constraints: ]
[monotone_constraints_method: basic]
[monotone_penalty: 0]
[feature_contri: ]
[forcedsplits_filename: ]
[refit_decay_rate: 0.9]
[cegb_tradeoff: 1]
[cegb_penalty_split: 0]
[cegb_penalty_feature_lazy: ]
[cegb_penalty_feature_coupled: ]
[path_smooth: 0]
[interaction_constraints: ]
[verbosity: 1]
[saved_feature_importance_type: 0]
[use_quantized_grad: 0]
[num_grad_quant_bins: 4]
[quant_train_renew_leaf: 0]
[stochastic_rounding: 1]
[linear_tree: 0]
[max_bin: 255]
[max_bin_by_feature: ]
[min_data_in_bin: 3]
[bin_construct_sample_cnt: 200000]
[data_random_seed: 175]
[is_enable_sparse: 1]
[enable_bundle: 1]
[use_missing: 1]
[zero_as_missing: 0]
[feature_pre_filter: 1]
[pre_partition: 0]
[two_round: 0]
[header: 0]
[label_column: ]
[weight_column: ]
[group_column: ]
[ignore_column: ]
[categorical_feature: ]
[forcedbins_filename: ]
[precise_float_parser: 0]
[parser_config_file: ]
[objective_seed: 16083]
[num_class: 1]
[is_unbalance: 0]
[scale_pos_weight: 1]
[sigmoid: 1]
[boost_from_average: 1]
[reg_sqrt: 0]
[alpha: 0.9]
[fair_c: 1]
[poisson_max_delta_step: 0.7]
[tweedie_variance_power: 1.5]
[lambdarank_truncation_level: 30]
[lambdarank_norm: 1]
[label_gain: ]
[lambdarank_position_bias_regularization: 0]
[eval_at: ]
[multi_error_top_k: 1]
[auc_mu_weights: ]
[num_machines: 1]
[local_listen_port: 12400]
[time_out: 120]
[machine_list_filename: ]
[machines: ]
[gpu_platform_id: -1]
[gpu_device_id: -1]
[gpu_use_dp: 0]
[num_gpu: 1]

end of parameters

pandas_categorical:null
