tree
version=v4
num_class=1
num_tree_per_iteration=1
label_index=0
max_feature_idx=180
objective=regression
feature_names=Column_0 Column_1 Column_2 Column_3 Column_4 Column_5 Column_6 Column_7 Column_8 Column_9 Column_10 Column_11 Column_12 Column_13 Column_14 Column_15 Column_16 Column_17 Column_18 Column_19 Column_20 Column_21 Column_22 Column_23 Column_24 Column_25 Column_26 Column_27 Column_28 Column_29 Column_30 Column_31 Column_32 Column_33 Column_34 Column_35 Column_36 Column_37 Column_38 Column_39 Column_40 Column_41 Column_42 Column_43 Column_44 Column_45 Column_46 Column_47 Column_48 Column_49 Column_50 Column_51 Column_52 Column_53 Column_54 Column_55 Column_56 Column_57 Column_58 Column_59 Column_60 Column_61 Column_62 Column_63 Column_64 Column_65 Column_66 Column_67 Column_68 Column_69 Column_70 Column_71 Column_72 Column_73 Column_74 Column_75 Column_76 Column_77 Column_78 Column_79 Column_80 Column_81 Column_82 Column_83 Column_84 Column_85 Column_86 Column_87 Column_88 Column_89 Column_90 Column_91 Column_92 Column_93 Column_94 Column_95 Column_96 Column_97 Column_98 Column_99 Column_100 Column_101 Column_102 Column_103 Column_104 Column_105 Column_106 Column_107 Column_108 Column_109 Column_110 Column_111 Column_112 Column_113 Column_114 Column_115 Column_116 Column_117 Column_118 Column_119 Column_120 Column_121 Column_122 Column_123 Column_124 Column_125 Column_126 Column_127 Column_128 Column_129 Column_130 Column_131 Column_132 Column_133 Column_134 Column_135 Column_136 Column_137 Column_138 Column_139 Column_140 Column_141 Column_142 Column_143 Column_144 Column_145 Column_146 Column_147 Column_148 Column_149 Column_150 Column_151 Column_152 Column_153 Column_154 Column_155 Column_156 Column_157 Column_158 Column_159 Column_160 Column_161 Column_162 Column_163 Column_164 Column_165 Column_166 Column_167 Column_168 Column_169 Column_170 Column_171 Column_172 Column_173 Column_174 Column_175 Column_176 Column_177 Column_178 Column_179 Column_180
feature_infos=[113800:902900] [5:90] [-1:130] [-151:220] [0:4.2399997711181641] [5:90] [-0.40000000596046448:4.880000114440918] [-357700:540600] [0:23] [-114900:220300] [0:163] [0:159] [0:129] [0:85] [0:83] [0:0] [0:0] [0:0] [0:0] [-0.17000000178813934:2.1400001049041748] [-0.17000000178813934:2.4300000667572021] [-1:110] [0:0] [0:0] [0:0] [0:100] [0:160] [0:100] [0:100] [6:130] [-1:71] [-6:102] [-3:112] [0:90] [-22:0] [0:102] [0:60] [0:12] [0:44] [-10:0] none none [0:53] [-11:0] [0:36] [0:18] [0:28] [0:6] [0:60] [0:48] none none [0:46] [0:21] [0:6] [0:10] [-6:0] [-10:0] [-12:0] [-16:0] [0:66] [-6:102] [-3:112] [0:90] [-22:0] none [-5:199] [-5:199] [-4:191] [-249900:220300] [-249900:220300] [-5:199] [-5:199] [2:160.66666666666666] [4.4000000000000004:130.80000000000001] [2:158.66666666666666] [4.4000000000000004:129] [0:86.892654081535184] [1.5165750888103062:64.969223483123145] [-82666.666666666672:142433.33333333334] [-87.666666666666671:83] [-1:130] [-176:254] [-135:177.33333333333334] [-176:254] [0:3] [113800:767500] [-357700:530100] [1190.2912621359224:433600] none [42.661958568738228:54.556701030927833] [5.5:77.869565217391298] [1:75] [1:75] [0:102] [0:60] [0:12] [0:44] [-10:0] [0:10] [-2:0] [0:49] [-11:0] [0:36] [0:18] [0:28] [0:6] [0:60] [0:48] [0:10] [0:8] [0:46] [0:21] [0:6] [0:10] [-6:0] [-10:0] [-12:0] [-16:0] [0:90] [-0.17000000178813934:5] [0:4.2399997711181641] [0:56.666666666666664] [0:36] [0:8] [0:32] [-5.333333333333333:0] [0:3.3333333333333335] [-0.66666666666666663:0] [0:41.333333333333336] [-6.666666666666667:0] [0:28.666666666666668] [0:8] [0:16] [0:3.3333333333333335] [0:43.333333333333336] [0:26.666666666666668] [0:3.3333333333333335] [0:2.6666666666666665] [1.3333333333333333:38] [0:14] [0:4] [0:5] [-2:0] [-4.666666666666667:0] [-7.333333333333333:0] [-5.333333333333333:0] [5.333333333333333:85] [0:1.3333333730697632] [0.0066666663624346256:2.3433332443237305] [0:40.799999999999997] [0:31.199999999999999] [0:6] [0:26.399999999999999] [-4:0] [0:2] [-0.40000000000000002:0] [0.59999999999999998:37] [-6:0] [0:20.800000000000001] [0:6] [0:15.199999999999999] [0:2.3999999999999999] [0:30] [0:22.399999999999999] [0:2] [0:1.6000000000000001] [2:36] [0.40000000000000002:11.6] [0:3] [0:3] [-1.8:0] [-4:0] [-5.5999999999999996:0] [-3.2000000000000002:0] [6.4000000000000004:84.200000000000003] [0:1.1039999723434448] [0.034000001847743988:1.8939998149871826] none [7:23] [7:23]
tree_sizes=2702 2789 2789 2788 2794 2771 2796 2787 2813 2788 2781 2829 2806 2781 2800 2805 2819 2808 2810 2797 2795 2810 2776 2805 2810 2802 2767 2800 2799 2801 2794 2805 2835 2798 2816 2778 2801 2832 2793 2784 2830 2809 2561 2793 2797 2555 2633 2480 2813 2800

Tree=0
num_leaves=31
num_cat=0
split_feature=91 91 91 81 12 13 0 91 91 175 21 91 125 122 21 111 44 81 92 139 176 79 68 75 73 121 158 148 27 25
split_gain=464856 97463.2 90294 49788.3 31730.4 25788.9 21028.9 19529.5 16565.2 25467.2 16084.9 14210.6 13318.5 12180.8 10786.8 10515.1 10757.2 10481.6 10446.8 9714.24 9695.66 9311 9253.97 10148.8 9243.9 8346.14 8006.52 7762.22 7727.99 7095.95
threshold=47.603188811188822 38.646464646464658 54.255142405063303 69.050000000000011 47.500000000000007 57.500000000000007 507550.00000000006 42.702226720647779 64.786642833929164 73.90000000000002 34.500000000000007 30.131130063965887 15.333333333333334 14.16666666666667 23.500000000000004 27.000000000000004 13.000000000000002 29.522727272727277 19.750000000000004 19.666666666666668 0.41299998760223394 216.66666666666671 82.500000000000014 45.500000000000007 48.500000000000007 0.16499999910593036 -2.8999999999999995 0.34833332896232611 51.45000076293946 67.449996948242202
decision_type=2 2 2 10 10 8 2 2 2 8 2 2 10 10 2 10 2 8 2 10 8 10 10 10 8 8 8 10 10 10
left_child=1 11 5 4 6 20 19 27 21 -10 17 -1 15 -14 -13 16 -5 -9 25 -4 -2 -6 29 -24 -8 -7 -27 -3 -19 -12
right_child=2 7 3 12 8 18 24 10 9 -11 22 14 13 -15 -16 -17 -18 28 -20 -21 -22 -23 23 -25 -26 26 -28 -29 -30 -31
leaf_value=45.856730476170995 45.95256381464236 46.522045141878088 46.981075706876652 47.545863634216708 47.595845165898702 47.622563799549617 48.54749132822942 46.312247230643258 49.504013055438925 47.709655999153121 46.773503427345219 46.149661650058022 49.686730453947661 48.03123047039854 46.41791733712779 48.498642234477991 48.366230462292307 46.686972403001754 47.109263555611456 47.691779492623148 46.746835795991927 47.297767828633738 46.491957740438188 47.744640288391203 47.475480469128215 47.562087605575201 46.679230466027214 46.767621559818167 47.125772527711639 47.012968237499223
leaf_weight=188 42 1581 840 199 449 30 23 179 23 141 784 603 20 25 990 51 50 1612 2418 51 451 629 22 61 160 28 310 404 107 511
leaf_count=188 42 1581 840 199 449 30 23 179 23 141 784 603 20 25 990 51 50 1612 2418 51 451 629 22 61 160 28 310 404 107 511
internal_value=46.8623 46.5876 47.1881 47.4045 47.321 47.0125 47.122 46.6958 47.4931 47.9613 46.7708 46.2679 47.9649 48.767 46.3164 47.8446 47.7106 46.6764 47.0715 47.0218 46.6792 47.4219 46.9008 47.4126 47.6102 46.8233 46.7524 46.572 46.7143 46.868
internal_weight=12982 7042 5940 2661 2316 3279 1074 5261 1242 164 3276 1781 345 45 1593 300 249 1898 2786 891 493 1078 1378 83 183 368 338 1985 1719 1295
internal_count=12982 7042 5940 2661 2316 3279 1074 5261 1242 164 3276 1781 345 45 1593 300 249 1898 2786 891 493 1078 1378 83 183 368 338 1985 1719 1295
is_linear=0
shrinkage=1


Tree=1
num_leaves=31
num_cat=0
split_feature=91 91 0 12 11 91 91 111 33 91 1 91 91 79 92 91 122 67 176 173 1 82 179 26 71 25 177 12 74 168
split_gain=420985 121303 49723.4 36152.7 30470.8 27814.7 18853.8 18595.1 17029 16288.9 16256 15195.7 12075.7 15698.8 11729.2 11298 11017.7 13043.3 10309.3 10309.1 10177.9 9150.21 8399.21 8381.36 8372.46 8105.93 7435.41 6937.54 6933.85 6637.92
threshold=51.157015890115815 40.478433252004187 509250.00000000006 42.500000000000007 36.500000000000007 66.256200084068951 33.21120689655173 9.0000000000000018 35.500000000000007 54.328059071729967 39.500000000000007 44.482258064516138 53.605487804878059 -3549.9999999999995 32.250000000000007 52.98607367475293 14.16666666666667 52.500000000000007 0.32600001990795141 -3.3999999999999999 40.500000000000007 -56.499999999999993 18.500000000000004 47.500000000000007 86.500000000000014 54.350000381469734 0.68999996781349193 32.500000000000007 80.300000000000026 2.3000000000000003
decision_type=2 2 2 10 8 2 2 10 2 2 2 2 2 10 2 2 10 8 10 8 2 2 2 10 8 8 8 8 10 8
left_child=1 6 3 10 20 9 -1 -7 15 16 -2 18 -10 -14 -13 -5 17 -4 -6 -17 -3 -8 -11 -24 -9 -16 -20 -23 -26 -22
right_child=2 4 5 8 11 7 21 24 12 22 -12 14 13 -15 25 19 -18 -19 26 -21 29 27 23 -25 28 -27 -28 -29 -30 -31
leaf_value=-0.82327177473183344 -0.68068858264014132 -0.58853590624273155 1.0503440489371618 0.15763692078735547 -0.23861032293858511 0.29101306170225144 -0.77570973072100335 1.2460904199468053 0.38453680394725365 0.57828182899940461 0.13509858338716063 -0.078195794099693017 2.5603801691532135 0.9640956902681892 0.00036476238829652392 1.1789372031177794 -0.088328509730851559 0.24379635924642737 0.00032984303212732643 0.43839508944585781 0.51694996878504751 -0.50867175623232963 0.81623397172180889 1.6602676069911788 1.5116920039057733 0.2405729532365255 0.98085018634796151 -0.31943632896580448 2.7722501468658449 -0.20878718558641568
leaf_weight=377 64 181 72 386 835 40 185 92 55 519 1332 771 20 67 529 49 127 165 581 1149 32 908 218 34 24 1045 20 1038 20 2047
leaf_count=377 64 181 72 386 835 40 185 92 55 519 1332 771 20 67 529 49 127 165 581 1149 32 908 218 34 24 1045 20 1038 20 2047
internal_value=-3.12318e-09 -0.205033 0.395404 0.28689 -0.0836779 0.653819 -0.49734 1.23867 0.439909 0.563128 0.0976986 0.00313985 0.964447 1.33106 0.081579 0.392886 0.287455 0.488824 -0.124952 0.468684 -0.228925 -0.439679 0.693277 0.930112 1.5174 0.159842 0.0329595 -0.407733 2.08467 -0.197617
internal_weight=12982 8549 4433 3122 6041 1311 2508 176 1726 1135 1396 3781 142 87 2345 1584 364 237 1436 1198 2260 2131 771 252 136 1574 601 1946 44 2079
internal_count=12982 8549 4433 3122 6041 1311 2508 176 1726 1135 1396 3781 142 87 2345 1584 364 237 1436 1198 2260 2131 771 252 136 1574 601 1946 44 2079
is_linear=0
shrinkage=0.05


Tree=2
num_leaves=31
num_cat=0
split_feature=91 91 76 91 0 81 21 2 11 28 159 91 91 0 67 68 111 84 44 53 115 84 61 80 139 52 88 4 64 168
split_gain=381271 87847.7 64183.6 49654.7 27441.3 21844.8 19589.4 18188.5 17022.6 14936.8 15941.9 14318.2 14056.7 11534.8 10752.9 10615.5 10375.9 9914.41 9211.05 9157.24 8735.45 8320.97 7883.8 7871.69 7618.81 7542.14 7501.09 6967.42 6719.96 6505.43
threshold=48.191829233813969 40.271541950113381 46.100000000000009 66.256200084068951 511350.00000000006 69.050000000000011 50.500000000000007 35.500000000000007 33.500000000000007 14.650000095367433 11.000000000000002 33.21120689655173 54.361979166666679 495800.00000000006 58.500000000000007 79.500000000000014 9.0000000000000018 78.500000000000014 13.000000000000002 5.5000000000000009 -1.0000000180025095e-35 -38.499999999999993 14.500000000000002 22.333333333333343 9.6666666666666696 5.0000000000000009 8757.2599531615942 0.34499999880790716 -2.4999999999999996 2.5000000000000004
decision_type=2 2 10 2 2 10 2 2 8 8 10 2 2 2 8 10 10 10 2 2 8 10 10 10 10 2 2 10 10 8
left_child=1 11 4 5 7 12 8 19 25 10 16 -1 20 26 28 27 -5 -14 23 -2 -4 -15 -20 -7 -13 -3 -10 -8 -6 -9
right_child=2 6 3 9 14 18 15 29 13 -11 -12 24 17 21 -16 -17 -18 -19 22 -21 -22 -23 -24 -25 -26 -27 -28 -29 -30 -31
leaf_value=-0.78210817120415943 -0.36650223752034972 -0.59175806658551888 1.2408624327701072 -0.11415029925604661 1.7336454956619829 0.57144357416364888 0.65436407226708626 0.98010592719782952 -0.055566758928185161 2.1325138532453116 2.2798420385880904 -0.54807277493187379 0.56337558703684676 0.78997645944889106 0.40899346065576947 1.3139220838745436 1.0134809293380174 0.040308990079909568 2.2350414213680088 0.12734635919332504 0.25853254012255628 0.09116348657715187 0.97189793248971312 1.5541644657651583 -0.34081021721632976 -0.23950541398652372 -0.22411292147054362 0.027784887562768586 0.7547601912617683 0.13393597007790725
leaf_weight=377 303 169 23 24 27 135 62 23 2234 36 22 873 963 56 214 24 136 100 21 136 1412 178 30 24 901 1507 937 156 50 1829
leaf_count=377 303 169 23 24 27 135 62 23 2234 36 22 873 963 56 214 24 136 100 21 136 1412 178 30 24 901 1507 937 156 50 1829
internal_value=9.82311e-10 -0.232614 0.315643 0.475977 0.133947 0.417536 -0.123646 0.0758534 -0.144579 1.20193 1.01786 -0.502274 0.376361 -0.0803713 0.591309 0.315864 0.844336 0.514169 0.907322 -0.21351 0.274277 0.258401 1.49202 0.719779 -0.442806 -0.275025 -0.105371 0.205986 1.09801 0.144445
internal_weight=12982 7474 5508 2926 2582 2708 5323 2291 5081 218 182 2151 2498 3405 291 242 160 1063 210 439 1435 234 51 159 1774 1676 3171 218 77 1852
internal_count=12982 7474 5508 2926 2582 2708 5323 2291 5081 218 182 2151 2498 3405 291 242 160 1063 210 439 1435 234 51 159 1774 1676 3171 218 77 1852
is_linear=0
shrinkage=0.05


Tree=3
num_leaves=31
num_cat=0
split_feature=91 91 2 76 2 0 149 91 90 91 1 111 91 77 71 39 72 42 175 70 80 163 69 52 75 86 82 105 4 175
split_gain=345125 99036.3 44907.3 26595.1 25460.4 19489.1 17232.8 16892 15517.8 15382 13686.5 13272.1 10936 10059.6 9995.68 9924.79 9766.09 9838.08 9729.05 9302.82 9148.4 9057.09 8855.51 8646.92 8089.96 8889.12 8062.51 7750.03 7549.01 7512.36
threshold=51.157015890115815 40.478433252004187 67.500000000000014 46.100000000000009 39.500000000000007 511350.00000000006 0.26833333075046545 62.30886568386569 44.940621338540744 33.741935483870975 33.500000000000007 29.000000000000004 44.482258064516138 8.1853527718724592 93.500000000000014 -1.0000000180025095e-35 21.500000000000004 8.5000000000000018 73.90000000000002 -29149.999999999996 -20.499999999999993 3.0000000000000004 31750.000000000004 5.0000000000000009 48.500000000000007 569600.00000000012 -56.499999999999993 1.0000000180025095e-35 0.74500000476837169 75.300000000000026
decision_type=2 2 2 10 2 2 10 2 2 2 2 10 2 10 8 2 8 2 8 10 8 8 8 2 8 8 2 10 10 8
left_child=1 9 3 5 20 10 -4 16 14 -1 -2 15 21 22 27 -10 17 -5 -9 -18 -3 -6 -14 -22 -7 -26 -11 -8 -25 -15
right_child=2 4 6 7 12 24 8 18 11 26 -12 -13 13 29 -16 -17 19 -19 -20 -21 23 -23 -24 28 25 -27 -28 -29 -30 -31
leaf_value=-0.72744367279363087 -0.64100896979371713 -0.77751807351079261 0.43140898229554292 1.4344720099030472 0.19024755052034406 1.4795027186473213 1.8451122474102748 1.7622353595991929 1.2883697464800719 -0.71157568479414846 0.12881820409449146 2.0367891606830417 -0.24467907180668602 -0.16401037635956792 2.3495876323792242 0.52125960505670965 0.69992758276269718 0.081829351335763939 0.70387778501026332 0.311423227498206 -0.52980574939013181 -0.16715166318597124 0.21618415799693788 -0.19024083246717216 0.92023410439491282 0.21030911670945518 -0.36415352462149375 0.486714445125489 0.33293287689901063 0.13955762607274783
leaf_weight=416 60 72 195 41 207 24 21 24 57 183 1530 21 426 229 31 162 170 20 228 1646 183 1234 138 1628 75 107 1909 21 72 1852
leaf_count=416 60 72 195 41 207 24 21 24 57 183 1530 21 426 229 31 162 170 20 228 1646 183 1234 138 1628 75 107 1909 21 72 1852
internal_value=-9.9804e-11 -0.185643 0.358011 0.300759 -0.0759904 0.159053 0.800362 0.4203 1.03022 -0.449762 0.0997681 0.836057 -0.00498811 0.0553885 1.66857 0.720918 0.368695 0.990983 0.804674 0.347792 -0.224387 -0.115811 -0.131915 -0.203237 0.616644 0.502861 -0.394545 1.16591 -0.168083 0.106152
internal_weight=12982 8549 4433 3925 6041 1796 508 2129 313 2508 1590 240 4086 2645 73 219 1877 61 252 1816 1955 1441 564 1883 206 182 2092 42 1700 2081
internal_count=12982 8549 4433 3925 6041 1796 508 2129 313 2508 1590 240 4086 2645 73 219 1877 61 252 1816 1955 1441 564 1883 206 182 2092 42 1700 2081
is_linear=0
shrinkage=0.05


Tree=4
num_leaves=31
num_cat=0
split_feature=91 91 91 2 2 13 5 91 84 161 161 1 39 91 149 52 0 32 44 92 4 5 90 82 29 76 167 129 112 158
split_gain=312954 66219.9 61457.2 44272.3 23352.3 19763.1 17710.8 13568 13012.7 12556.7 12215.3 10698.4 10442 10281.8 9154.29 8576.92 8558.53 8440.43 8048.75 7966.2 7901.49 7477.28 7334.07 7146.08 6876.3 6609.96 6389.07 6652.72 6355.26 6188.25
threshold=47.603188811188822 38.646464646464658 54.255142405063303 48.500000000000007 69.500000000000014 57.500000000000007 70.500000000000014 42.702226720647779 -78.499999999999986 7.6000000000000005 1.2000000000000004 79.500000000000014 -1.0000000180025095e-35 30.131130063965887 0.43166664242744451 23.000000000000004 487050.00000000006 39.000000000000007 19.000000000000004 19.750000000000004 0.61500000953674328 63.500000000000007 50.288549484052538 -58.499999999999993 50.500000000000007 64.300000000000026 19.800000000000004 6.5000000000000009 1.5000000000000002 -2.8999999999999995
decision_type=2 2 2 2 2 8 2 2 8 8 8 2 2 2 10 2 2 2 2 2 8 2 2 2 10 10 10 10 8 8
left_child=1 13 5 8 6 14 -5 26 16 -8 12 20 -6 -1 24 25 -4 19 -12 29 -9 -10 -17 -15 -2 -13 27 -3 -26 -7
right_child=2 7 3 4 10 17 9 11 21 -11 18 15 -14 23 -16 22 -18 -19 -20 -21 -22 -23 -24 -25 28 -27 -28 -29 -30 -31
leaf_value=-0.83869533618079872 -0.35824937106747379 -0.32662118199372914 0.29716975386104277 1.8423434385408957 2.5128544935158321 0.63625126929953701 0.55154406968026592 -0.21612598925181059 -0.40925215519424801 0.19849512163279465 0.75521778082376345 -0.085542950524988837 1.0779754855670036 -0.8328122033338462 -0.73746085166893605 0.36960859396195578 1.5148149137143736 1.0537945357737717 1.7930984330177306 0.19866942163748294 -0.80928949047537424 0.1363289568567907 -0.22784035304451691 -0.41859759743511554 0.85587901136149525 0.30709459152338758 0.26868712822596236 -0.13419514373257882 -0.011791245354106651 -0.11323618977441496
leaf_weight=188 152 1211 31 24 21 30 1131 322 69 324 283 2496 32 112 62 210 27 27 20 2393 68 699 68 1481 23 112 60 714 256 336
leaf_count=188 152 1211 31 24 21 30 1131 322 69 324 283 2496 32 112 62 210 27 27 20 2393 68 699 68 1481 23 112 60 714 256 336
internal_value=1.45798e-09 -0.225468 0.267297 0.445827 0.582659 0.122415 0.495149 -0.136258 0.14185 0.472927 0.946218 -0.0737546 1.64651 -0.488991 -0.169391 -0.0405391 0.864005 0.174052 0.823725 0.165443 -0.319549 0.0873119 0.22347 -0.44772 -0.0876734 -0.0686812 -0.239412 -0.255249 0.0597371 -0.0518028
internal_weight=12982 7042 5940 2661 1835 3279 1479 5261 826 1455 356 3276 53 1781 493 2886 58 2786 303 2759 390 768 278 1593 431 2608 1985 1925 279 366
internal_count=12982 7042 5940 2661 1835 3279 1479 5261 826 1455 356 3276 53 1781 493 2886 58 2786 303 2759 390 768 278 1593 431 2608 1985 1925 279 366
is_linear=0
shrinkage=0.05


Tree=5
num_leaves=31
num_cat=0
split_feature=91 91 81 92 2 91 91 76 175 1 173 69 159 21 27 21 20 79 87 19 151 25 70 161 61 90 173 6 69 172
split_gain=282985 80607 37312.6 24429.1 21991.5 20644.3 19543.8 17019.1 16265.8 11456 11167.4 10451.8 11947.1 10329.2 9015.82 10557.7 10071 8899.07 8434.3 8184.52 7944.72 7938.27 7347.75 7915.02 7919.95 7218.41 6960.03 6465.07 5956.28 5557.89
threshold=51.157015890115815 42.299853801169597 69.050000000000011 30.750000000000004 35.500000000000007 62.30886568386569 35.687330316742084 68.100000000000009 73.90000000000002 46.500000000000007 -2.1999999999999997 31150.000000000004 9.4000000000000004 23.500000000000004 51.45000076293946 34.500000000000007 0.23499999940395358 9916.6666666666697 36850.000000000007 0.41499999165534979 8.4000000000000021 70.200000762939467 62050.000000000007 1.2000000000000004 5.5000000000000009 49.127165313717562 -1.7999999999999998 0.72613650560379039 29550.000000000004 -0.99999999999999989
decision_type=2 2 10 2 2 2 2 10 8 2 8 8 10 2 10 2 2 10 8 2 10 10 10 8 10 2 8 2 8 8
left_child=1 6 3 9 17 11 13 25 -7 -2 20 12 -5 -1 15 -12 -16 27 -19 26 21 -6 23 -9 -25 -4 -11 -3 -10 -21
right_child=2 4 7 5 10 8 -8 22 28 19 14 -13 -14 -15 16 -17 -18 18 -20 29 -22 -23 -24 24 -26 -27 -28 -29 -30 -31
leaf_value=-0.76370950403620719 -0.57973130211234103 -0.26481350176212287 0.69082205875923763 0.31367709164958024 0.046924877988964227 1.7846050617285074 -0.28489718656177698 1.9033000881331308 0.72350177332078769 0.27283849913595071 -0.1430215047086478 0.10323393085017436 0.72583921090000036 -0.42429228478426007 1.3960358722694219 0.036276067342461631 0.18192308654642514 -0.23454635483878003 0.80079252752097885 1.1917351887984711 1.0605473867074275 0.40026542288120659 0.46390478658048728 1.5267467194118283 0.75308636929615436 0.059227307379245753 -0.052997727067102519 -0.76812644720185497 0.2158428259586033 0.3243241228811119
leaf_weight=363 65 847 114 1975 618 32 2327 35 241 234 1669 533 193 586 20 1616 117 42 37 22 24 214 38 55 83 75 547 69 76 115
leaf_count=363 65 847 114 1975 618 32 2327 35 241 234 1669 533 193 586 20 1616 117 42 37 22 24 214 38 55 83 75 547 69 76 115
internal_value=2.20248e-10 -0.168102 0.324183 0.278499 -0.0470861 0.34836 -0.362887 0.784792 0.710245 0.0617369 0.00215859 0.3016 0.350369 -0.554122 -0.0382452 -0.0548191 0.359166 -0.258813 0.250359 0.107157 0.163679 0.137808 1.09347 1.23175 1.06143 0.440189 0.044628 -0.302727 0.601792 0.463616
internal_weight=12982 8549 4433 4033 5273 3050 3276 400 349 983 4278 2701 2168 949 3422 3285 137 995 79 918 856 832 211 173 138 189 781 916 317 137
internal_count=12982 8549 4433 4033 5273 3050 3276 400 349 983 4278 2701 2168 949 3422 3285 137 995 79 918 856 832 211 173 138 189 781 916 317 137
is_linear=0
shrinkage=0.05


Tree=6
num_leaves=31
num_cat=0
split_feature=92 0 2 2 125 21 69 20 125 19 78 69 101 76 11 26 73 145 168 81 63 32 90 87 9 168 175 158 21 27
split_gain=182281 57110.4 40945.6 29059.2 18863.8 13823.6 13454.8 12993.4 13901.7 12404.8 12285.4 11595.9 11255 10287.2 8639.62 8567.05 9662.25 8303.18 7846.41 7796.01 7492.87 7092.38 7168.18 8379.8 6915.67 6731.64 6443.71 6258.48 6193.12 5777.15
threshold=30.750000000000004 564950.00000000012 35.500000000000007 48.500000000000007 11.333333333333334 23.500000000000004 -42149.999999999993 0.55500000715255748 3.3333333333333335 0.40500000119209295 38.574599908028567 42050.000000000007 5.5000000000000009 56.900000000000006 55.500000000000007 19.10000038146973 43.166666666666679 -2.3333333333333326 3.9000000000000004 69.050000000000011 14.500000000000002 31.000000000000004 50.523681001743412 -41949.999999999993 -25249.999999999996 6.3000000000000016 79.300000000000026 -1.0999999999999999 42.500000000000007 29.69999980926514
decision_type=2 2 2 2 10 2 8 2 10 2 8 8 10 10 10 8 8 10 10 10 10 2 2 8 2 10 8 10 2 8
left_child=2 3 5 15 9 29 14 8 -8 11 12 26 -6 21 24 16 20 -11 -17 -13 -2 22 23 -4 -5 -19 -3 -9 -18 -1
right_child=1 4 13 6 10 -7 7 27 -10 17 -12 19 -14 -15 -16 18 28 25 -20 -21 -22 -23 -24 -25 -26 -27 -28 -29 -30 -31
leaf_value=-0.5944974549848121 0.066237510302047151 -0.080341566867298556 0.056899647552500612 0.74317244045565478 2.3358516627550125 -0.25845759240428329 0.08915051253702462 0.29651627078597453 0.45337922445454659 0.42676846948925234 0.48705937814068156 -0.29589032995700837 0.99772777972799354 0.52158014887210091 1.4746445304499223 -0.015986960597219012 -0.21212516888418739 1.2079923360035396 0.24991809890446023 0.69127789044380195 0.89366623674829793 0.7147146179698981 -0.29614834313274951 -0.13257181486624414 0.061838023743386997 0.54639940491465278 0.56714291440415066 0.65145511533189948 0.17582468243380045 -0.34345309351589171
leaf_weight=640 311 45 767 101 30 1333 2167 746 298 128 37 100 33 66 26 671 909 104 473 25 30 26 471 2440 59 61 263 149 116 357
leaf_count=640 311 45 767 101 30 1333 2167 746 298 128 37 100 33 66 26 671 909 104 473 25 30 26 471 2440 59 61 263 149 116 357
internal_value=1.16415e-09 0.176392 -0.199004 0.123197 0.566399 -0.363783 0.215345 0.19243 0.133183 0.477719 1.21022 0.307705 1.63493 -0.097165 0.629299 -0.00698496 -0.09152 0.728969 0.0939546 -0.0984567 0.139032 -0.10819 -0.114007 -0.087257 0.49193 0.963403 0.472543 0.355607 -0.168221 -0.504605
internal_weight=12982 6882 6100 6056 826 2330 3546 3360 2465 726 100 433 63 3770 186 2510 1366 293 1144 125 341 3704 3678 3207 160 165 308 895 1025 997
internal_count=12982 6882 6100 6056 826 2330 3546 3360 2465 726 100 433 63 3770 186 2510 1366 293 1144 125 341 3704 3678 3207 160 165 308 895 1025 997
is_linear=0
shrinkage=0.05


Tree=7
num_leaves=31
num_cat=0
split_feature=92 0 2 81 2 79 122 21 76 139 20 87 19 78 147 76 0 176 2 28 81 80 69 159 2 62 111 52 130 12
split_gain=164509 51944.2 36953.4 21663.1 21522.8 17356.9 15123.4 12705.6 12147.6 11652 11308.3 11205.2 10112.8 9492.26 9365.88 9284.21 9222.03 9130.2 9091.44 9017.66 8146.88 7024.04 6833.76 6732.09 8629.11 6322.96 6610.83 6307.93 6058.82 6025.68
threshold=30.750000000000004 488750.00000000006 35.500000000000007 69.050000000000011 46.500000000000007 650.00000000000011 8.5000000000000018 27.500000000000004 68.100000000000009 11.000000000000002 0.64499998092651378 -9049.9999999999982 0.40500000119209295 25.086848966384903 80.500000000000014 56.900000000000006 557450.00000000012 0.38699999451637274 25.500000000000004 23.300000190734867 46.972222222222229 24.166666666666675 -34349.999999999993 9.0000000000000018 47.500000000000007 26.500000000000004 21.000000000000004 13.000000000000002 -1.1666666666666663 65.500000000000014
decision_type=2 2 2 10 2 8 8 2 10 8 2 8 2 10 10 10 2 8 2 10 8 10 8 10 2 10 10 2 10 8
left_child=2 4 7 5 18 9 13 -1 -5 17 11 -8 20 21 27 23 -11 -3 -2 -15 -7 -6 -9 25 -25 26 -4 -10 -17 -12
right_child=1 3 15 8 6 12 10 22 14 16 29 -13 -14 19 -16 28 -18 -19 -20 -21 -22 -23 -24 24 -26 -27 -28 -29 -30 -31
leaf_value=-0.44315934285817465 -0.53972864828031997 1.6265142751903072 -0.13743288528272343 0.3526325493545856 0.16926747021738381 0.56913078377954662 0.31375476569519378 0.31541382599685153 1.6174253373690275 0.2907331574751012 0.30585163466942811 -0.050836446433759376 0.40878149931590385 0.41218575660348816 0.060447998841603602 0.8817336608469486 0.75740596775902569 0.46728786060522343 -0.029745805409759365 1.3396920574562889 0.035201998366165659 0.87070728765951633 -0.24007690902242543 1.2791609443724157 -0.11423436576128006 0.62510946269693046 0.097601060388117222 0.94009485262829606 -0.098702737481261682 1.0981112095993013
leaf_weight=1372 92 41 3301 118 1008 80 256 59 46 302 96 1192 381 409 24 40 163 29 1744 28 668 37 899 20 25 29 329 136 26 32
leaf_count=1372 92 41 3301 118 1008 80 256 59 46 302 96 1192 381 409 24 40 163 29 1744 28 668 37 899 20 25 29 329 136 26 32
internal_value=-7.95942e-10 0.167572 -0.189054 0.383101 0.0800218 0.310269 0.161268 -0.345594 0.757148 0.544854 0.0534426 0.0136217 0.199106 0.275933 0.98886 -0.0923068 0.45432 1.14626 -0.0553005 0.471614 0.0923067 0.194103 -0.205866 -0.102781 0.505052 -0.110256 -0.116131 1.11129 0.495501 0.503917
internal_weight=12982 6882 6100 1988 4894 1664 3058 2330 324 535 1576 1448 1129 1482 206 3770 465 70 1836 437 748 1045 958 3704 45 3659 3630 182 66 128
internal_count=12982 6882 6100 1988 4894 1664 3058 2330 324 535 1576 1448 1129 1482 206 3770 465 70 1836 437 748 1045 958 3704 45 3659 3630 182 66 128
is_linear=0
shrinkage=0.05


Tree=8
num_leaves=31
num_cat=0
split_feature=91 91 91 81 76 13 0 167 167 88 5 30 69 68 32 161 122 69 10 149 29 116 177 79 79 20 67 177 20 91
split_gain=228660 51834.7 43914.1 24711.6 16252.9 14523.8 11696.6 10620.6 10165.5 10797.9 10087.6 10067.6 10042.8 9973.94 9443.01 9015.71 11261.1 8487.67 8446.76 7872.52 7433.61 7400.11 6629.56 6864.51 6175 5979.66 7193.29 5951.8 10013.3 5833.27
threshold=46.577682186234824 54.255142405063303 38.574786324786338 69.050000000000011 48.300000000000004 63.500000000000007 507550.00000000006 19.000000000000004 20.200000000000003 8757.2599531615942 69.500000000000014 11.500000000000002 -21049.999999999996 46.500000000000007 39.000000000000007 1.2000000000000004 14.16666666666667 36350.000000000007 45.500000000000007 0.54833334684371959 50.500000000000007 -1.0000000180025095e-35 0.39100000262260443 4883.3333333333348 -13216.666666666666 0.82499998807907116 108.50000000000001 0.41800001263618475 0.35500000417232519 31.923076923076927
decision_type=2 2 2 10 10 8 2 10 10 2 2 2 10 8 2 8 10 8 10 8 10 8 8 10 8 2 10 10 2 2
left_child=2 5 11 4 6 13 7 -3 9 19 -6 -1 -12 -2 17 16 -5 18 -7 -4 -15 -8 -11 -24 -21 26 -17 -10 -29 -13
right_child=1 3 8 15 10 14 21 -9 27 22 12 29 -14 20 -16 25 -18 -19 -20 24 -22 -23 23 -25 -26 -27 -28 28 -30 -31
leaf_value=-0.80414657835747794 -0.5948947401717305 0.074887543074513049 -0.025537395552719295 2.1769408464431765 1.5631979691982272 0.062596336136841513 1.2262563888773774 0.87954967787251059 -0.027460970952842674 -0.45678772966303527 0.74082492836446412 -0.60833010320680414 0.36236487270435713 -0.28934187715508275 1.0052814001998593 0.49519749916199107 0.71276572536805594 -0.096085189983770858 0.23950856570129259 -0.48724217760140781 0.097518201543801086 0.40022571502057347 -0.26722420761748161 0.00067203311577626753 -0.14700897378646935 1.47976043791998 1.2140875234836486 1.4465116190768423 0.22435633008738601 -0.34352125286086566
leaf_weight=157 96 885 1825 24 20 1240 33 43 141 315 214 246 969 194 31 230 29 371 1480 154 345 152 964 318 995 21 41 21 83 1345
leaf_count=157 96 885 1825 24 20 1240 33 43 141 315 214 246 969 194 31 230 29 371 1480 154 345 152 964 318 995 21 41 21 83 1345
internal_value=1.29494e-10 0.212216 -0.207496 0.381057 0.322249 0.0926297 0.184543 0.112173 -0.129582 -0.1464 0.449653 -0.42216 0.430827 -0.125352 0.136966 0.77584 1.37579 0.128258 0.158857 -0.0900857 -0.0417227 0.547572 -0.25127 -0.200773 -0.19261 0.666945 0.603959 0.184189 0.471138 -0.384466
internal_weight=12982 6418 6564 2661 2316 3757 1113 928 4816 4571 1203 1748 1183 635 3122 345 53 3091 2720 2974 539 185 1597 1282 1149 292 271 245 104 1591
internal_count=12982 6418 6564 2661 2316 3757 1113 928 4816 4571 1203 1748 1183 635 3122 345 53 3091 2720 2974 539 185 1597 1282 1149 292 271 245 104 1591
is_linear=0
shrinkage=0.05


Tree=9
num_leaves=31
num_cat=0
split_feature=91 91 91 12 91 28 13 91 0 32 173 157 30 93 151 112 21 21 7 121 67 1 150 3 126 112 103 117 78 7
split_gain=206470 48346.5 34676.4 19598 18797.5 13209 11940.1 11661.4 10638 9863.21 9819.33 9689.6 9217.57 9024.16 8814.74 8806.83 8492.59 8242.97 7704.31 7628.68 7592.51 7219.65 7122.84 6819.09 6537.63 7701.19 6572.17 6344.69 5870.9 10468.7
threshold=48.191829233813969 38.646464646464658 54.361979166666679 43.500000000000007 66.256200084068951 14.650000095367433 57.500000000000007 43.798611111111121 507550.00000000006 39.000000000000007 -2.1999999999999997 2.3000000000000003 11.500000000000002 63.750000000000007 6.0000000000000009 4.5000000000000009 36.500000000000007 55.500000000000007 108050.00000000001 0.085000000894069686 56.500000000000007 66.500000000000014 8.5000000000000018 58.500000000000007 -0.99999999999999989 7.5000000000000009 17.000000000000004 -4.9999999999999991 18.878559081280795 -4049.9999999999995
decision_type=2 2 2 10 2 8 8 2 2 2 8 10 2 2 10 8 2 2 2 8 8 2 8 2 10 10 10 10 8 2
left_child=1 12 6 8 16 13 15 17 18 24 11 -9 -1 -6 -13 -2 23 28 19 -4 -10 -12 -19 -5 25 -8 -26 -18 29 -3
right_child=2 7 3 4 5 -7 9 10 20 -11 21 14 -14 -15 -16 -17 27 22 -20 -21 -22 -23 -24 -25 26 -27 -28 -29 -30 -31
leaf_value=-0.75813195624469243 -0.42823230544336477 -0.21319725755115951 0.46487230488736381 -0.009120148645173869 0.58550308770119397 1.7805698091785116 0.2477058323375026 1.1065342399936458 0.99528869108429974 1.1695843842501441 -0.32485774789955102 0.055954963691613603 -0.36255655236814893 1.5309670687715213 0.8483081585482547 0.045635857998014812 1.0344037932654222 -0.10278469486081082 0.92974509367576008 -0.020933737390425682 0.31112811532961271 -0.043496551803502231 1.1708630283673604 0.3762283903198036 0.10080713894818177 0.88673036705772823 0.68080954867601395 0.47323297787164259 -0.23995055752593097 0.12473989839365329
leaf_weight=162 153 613 95 169 159 36 427 26 56 24 255 460 1619 30 38 273 54 23 26 541 147 2153 21 358 2108 53 50 749 1738 366
leaf_count=162 153 613 95 169 159 36 427 26 56 24 255 460 1619 30 38 273 54 23 26 541 147 2153 21 358 2108 53 50 749 1738 366
internal_value=3.27205e-10 -0.171178 0.232277 0.373994 0.480117 0.902776 0.121217 -0.10005 0.183217 0.160548 -0.0306077 0.165544 -0.398538 0.735577 0.116416 -0.124556 0.408615 -0.173794 0.0861195 0.0516316 0.499862 -0.0732919 0.505093 0.252654 0.151368 0.318265 0.114246 0.51097 -0.184788 -0.0868592
internal_weight=12982 7474 5508 2420 1555 225 3088 5693 865 2662 2932 524 1781 189 498 426 1330 2761 662 636 203 2408 44 527 2638 480 2158 803 2717 979
internal_count=12982 7474 5508 2420 1555 225 3088 5693 865 2662 2932 524 1781 189 498 426 1330 2761 662 636 203 2408 44 527 2638 480 2158 803 2717 979
is_linear=0
shrinkage=0.05


Tree=10
num_leaves=31
num_cat=0
split_feature=91 91 91 0 11 21 144 158 60 84 69 86 154 91 157 111 6 134 21 68 91 108 149 91 6 68 21 82 78 1
split_gain=187204 53555.1 25759.8 18520 14607.4 13117.2 12107.8 15017.3 12323.5 12018.9 10462 10053.5 10013 9915.28 9333.45 7729.67 7546.27 7496.9 7426.33 7776.02 7338.07 7253.39 6959.66 7772.25 6660.09 6499.77 6196.66 6160.04 6131.1 5668.02
threshold=51.157015890115815 40.478433252004187 66.256200084068951 285750.00000000006 36.500000000000007 42.500000000000007 -1.0000000180025095e-35 -0.69999999999999984 21.500000000000004 -74.499999999999986 4850.0000000000009 367400.00000000006 -1.7999999999999998 33.741935483870975 7.3000000000000016 19.000000000000004 1.4550000429153445 1.6666666666666667 54.500000000000007 80.500000000000014 44.388508064516138 12.000000000000002 0.48333333432674414 47.603188811188822 0.8213925063610078 61.500000000000007 50.500000000000007 -56.499999999999993 12.835497505214722 40.500000000000007
decision_type=2 2 2 2 8 2 10 10 10 8 10 10 8 2 10 10 2 10 2 8 2 10 10 2 2 10 2 2 8 2
left_child=1 13 3 28 26 11 14 8 -8 22 -10 12 -5 -1 15 -4 17 -7 20 -20 -11 -13 23 -6 -17 -18 29 -15 -2 -3
right_child=2 4 6 5 9 16 7 -9 10 18 -12 21 -14 27 -16 24 25 -19 19 -21 -22 -23 -24 -25 -26 -27 -28 -29 -30 -31
leaf_value=-0.55389187252148986 0.32279604723654598 -0.4360555337278883 0.049414934977045605 0.7300396568124945 1.5031471128974643 0.35412574955608378 1.771041687635275 2.1840458430349829 1.00102230142802 -0.11814133952802773 -0.082316737297253736 0.26850416464087207 0.034684774803331382 -0.56373058477304683 1.4061331987380983 1.5116278940439225 1.2272814303636552 1.2140272502715772 0.19510600368181866 1.2581449415534736 0.030964685122027165 1.1443033816545116 -0.053668615860598429 0.33525453312643649 0.27620468089977901 0.27579583078622821 0.45243332629523625 -0.26005205145303795 -0.1513313313975384 -0.14409589701422634
leaf_weight=416 83 181 106 55 28 1009 26 24 52 1303 39 1582 882 183 21 20 50 26 123 20 2250 24 28 29 24 28 41 1909 382 2038
leaf_count=416 83 181 106 55 28 1009 26 24 52 1303 39 1582 882 183 21 20 50 26 123 20 2250 24 28 29 24 28 41 1909 382 2038
internal_value=-9.19154e-11 -0.136725 0.263673 0.230509 -0.0560905 0.268311 0.701716 1.04473 0.811025 0.00402039 0.536734 0.205655 0.0755007 -0.330949 0.418879 0.280663 0.411468 0.375727 -0.00949856 0.343783 -0.0237173 0.281592 0.591856 0.908956 0.837761 0.885722 -0.156657 -0.286617 -0.0667021 -0.167911
internal_weight=12982 8549 4433 4121 6041 3656 312 141 117 3781 91 2543 937 2508 171 150 1113 1035 3696 143 3553 1606 85 57 44 78 2260 2092 465 2219
internal_count=12982 8549 4433 4121 6041 3656 312 141 117 3781 91 2543 937 2508 171 150 1113 1035 3696 143 3553 1606 85 57 44 78 2260 2092 465 2219
is_linear=0
shrinkage=0.05


Tree=11
num_leaves=31
num_cat=0
split_feature=91 91 91 2 76 175 115 14 111 0 139 88 21 167 97 21 140 98 0 87 79 139 20 10 61 163 87 31 116 78
split_gain=169848 39773.8 32551.7 23065.6 13032.1 11898.7 12873.5 10433.4 9218.41 8925.02 8690.92 8631.95 8622.86 10989.1 14280.4 8404.34 8075.98 6758.69 6627.15 6605.76 6898.52 6128.09 6114.65 6910.14 6273.11 6930.8 5886.14 7171.59 5832.48 5755.99
threshold=46.577682186234824 53.112044817927178 38.574786324786338 69.500000000000014 42.900000000000006 80.90000000000002 -1.0000000180025095e-35 76.500000000000014 11.000000000000002 504450.00000000006 21.666666666666668 8757.2599531615942 53.500000000000007 14.600000000000003 18.000000000000004 23.500000000000004 5.8333333333333348 -1.0000000180025095e-35 478650.00000000006 -2749.9999999999995 -28949.999999999996 17.000000000000004 0.6850000023841859 83.500000000000014 8.5000000000000018 5.0000000000000009 85150.000000000015 26.500000000000004 -1.0000000180025095e-35 12.278028988973064
decision_type=2 2 2 2 10 8 8 8 10 2 10 2 2 10 10 2 10 8 2 8 8 8 2 10 10 8 8 2 8 8
left_child=2 7 15 4 9 6 -6 19 -7 16 11 26 13 -5 -15 -1 -3 -17 -13 -2 -21 -20 23 29 25 -24 27 -4 -11 -9
right_child=1 3 10 12 5 8 -8 22 -10 28 -12 18 -14 14 -16 17 -18 -19 21 20 -22 -23 24 -25 -26 -27 -28 -29 -30 -31
leaf_value=-0.50137985163435417 -0.28035954802373342 0.12323435094651472 -0.05732556713863151 0.18209362580544419 1.6438596224784854 0.53575524898675775 0.36758165899715461 -0.099917103241750738 -0.15136628787280348 0.99745790080891727 0.20049066129594195 -0.25350355368338295 1.0674491863548756 0.61724330782890324 2.0255726665258407 0.57147113110708159 -0.26023764677211914 -0.29500334665860622 0.5013382139958833 0.83422680278308692 -0.027701941380810585 -0.14370895671443298 1.3501986320941679 -0.3367458742925491 -0.0027058495716615161 0.15634513467550279 -0.16412769098783997 0.24347602345247188 0.29615474126878238 0.15619128120136042
leaf_weight=678 293 772 1608 126 20 65 1634 256 196 36 213 1447 100 126 21 23 167 1047 57 24 709 104 31 87 33 20 1161 226 168 1534
leaf_count=678 293 772 1608 126 20 65 1634 256 196 36 213 1447 100 126 21 23 167 1047 57 24 709 104 31 87 33 20 1161 226 168 1534
internal_value=2.8342e-10 0.1829 -0.178832 0.299038 0.253761 0.333505 0.383014 0.0494981 0.0197559 0.120157 -0.111751 -0.126199 0.670237 0.524738 0.818433 -0.36365 0.0550343 -0.276378 -0.219645 -0.0796926 0.000519464 0.0846618 0.117091 0.0984133 0.53445 0.882021 -0.0760288 -0.0202584 0.419914 0.119563
internal_weight=12982 6418 6564 3431 3058 1915 1654 2987 261 1143 4816 4603 373 273 147 1748 939 1070 1608 1026 733 161 1961 1877 84 51 2995 1834 204 1790
internal_count=12982 6418 6564 3431 3058 1915 1654 2987 261 1143 4816 4603 373 273 147 1748 939 1070 1608 1026 733 161 1961 1877 84 51 2995 1834 204 1790
is_linear=0
shrinkage=0.05


Tree=12
num_leaves=31
num_cat=0
split_feature=91 91 91 81 71 76 69 11 148 88 9 30 68 71 12 161 122 120 53 90 130 32 103 87 82 21 67 159 71 82
split_gain=153287 35895.8 29377.9 19213.3 13710.1 10074.5 10730.6 9752.27 8347.88 8609.63 7973.7 7698.58 7695.57 7627.08 7575.24 7499.07 9616.97 7143.63 7022.64 6739.42 10677.9 6581.16 6574.57 6289.97 7915.07 5918.87 6829.72 5840.15 5140.83 5128.07
threshold=46.577682186234824 53.112044817927178 38.574786324786338 69.050000000000011 115.50000000000001 42.900000000000006 31150.000000000004 39.500000000000007 0.33833333849906927 8910.5823068309091 -32349.999999999996 11.500000000000002 60.500000000000007 39.500000000000007 65.500000000000014 1.2000000000000004 14.16666666666667 0.39499999582767492 5.5000000000000009 44.286487623039044 -1.1666666666666663 39.000000000000007 11.000000000000002 3250.0000000000005 -63.499999999999993 64.500000000000014 108.50000000000001 9.8000000000000025 135.50000000000003 -6.4999999999999991
decision_type=2 2 2 10 10 10 10 8 10 2 2 2 10 10 10 8 10 10 2 2 10 2 10 8 2 2 10 10 10 2
left_child=2 7 11 4 5 22 -7 17 9 23 13 -1 28 -9 27 16 -5 18 -2 20 -12 -21 -3 24 -4 26 -17 -11 -6 -20
right_child=1 3 8 15 12 6 -8 10 -10 14 19 -13 -14 -15 -16 25 -18 -19 29 21 -22 -23 -24 -25 -26 -27 -28 -29 -30 -31
leaf_value=-0.67950087652369673 -0.10916855081210836 0.08072633101725607 0.98567578746005902 1.8913253435729711 1.9246410699117753 0.35796674828701819 0.048821686229844029 0.21780550951181454 -0.0051188116398630246 -0.30474634797983313 0.48094029974020203 -0.31250506760548136 0.250927979250749 1.2781941147255047 0.5931001219749451 0.3740778268360701 0.56350309371948248 -0.36908883885206545 0.36037064222026771 0.034663827757181125 -0.12238378822452055 0.82256224159565239 0.56484546309709549 -0.16550220937936383 -0.019309983522010347 1.3642309989035131 1.0715181564412466 0.53764699300130203 0.8045479646325111 -0.066053401973067222
leaf_weight=157 642 1080 20 25 21 1506 345 43 1435 1016 238 1591 24 28 25 244 30 170 173 1441 106 27 75 1339 960 20 41 21 20 119
leaf_count=157 642 1080 20 25 21 1506 345 43 1435 1016 238 1591 24 28 25 244 30 170 173 1441 106 27 75 1339 960 20 41 21 20 119
internal_value=-2.57082e-10 0.173755 -0.16989 0.284086 0.243575 0.22804 0.300347 0.0470232 -0.106163 -0.149049 0.116201 -0.345468 0.962011 0.635987 -0.266953 0.629667 1.16706 -0.070967 -0.016705 0.0958338 0.295032 0.0491551 0.112163 -0.0950546 0.00119993 0.53276 0.474411 -0.287687 1.37825 0.186588
internal_weight=12982 6418 6564 3431 3071 3006 1851 2987 4816 3381 1883 1748 65 71 1062 360 55 1104 934 1812 344 1468 1155 2319 980 305 285 1037 41 292
internal_count=12982 6418 6564 3431 3071 3006 1851 2987 4816 3381 1883 1748 65 71 1062 360 55 1104 934 1812 344 1468 1155 2319 980 305 285 1037 41 292
is_linear=0
shrinkage=0.05


Tree=13
num_leaves=31
num_cat=0
split_feature=91 91 91 2 5 2 84 2 28 21 179 67 68 79 78 75 81 21 157 81 81 83 129 73 139 103 5 177 7 73
split_gain=138410 29218.3 28606.6 22263.5 11779.1 11409.1 10159.4 10131.5 9862.68 9764.77 9008.54 8518.52 8405.03 7517.17 7591.95 7512.59 7505.62 7217.62 6875.62 6525.25 6467.84 6455.08 6004.52 5617.15 5562.14 5477.73 5453.52 5113.32 5029.47 8811.05
threshold=47.574352941176478 38.646464646464658 54.255142405063303 48.500000000000007 67.500000000000014 69.500000000000014 -76.499999999999986 35.500000000000007 29.69999980926514 50.500000000000007 20.500000000000004 123.50000000000001 80.500000000000014 46600.000000000007 7.1274118724821864 39.500000000000007 31.81534090909091 23.500000000000004 5.1000000000000005 34.345238095238102 35.707142857142863 59.166666666666679 6.166666666666667 33.500000000000007 21.666666666666668 17.000000000000004 63.500000000000007 0.42399999499320989 33450.000000000007 46.500000000000007
decision_type=2 2 2 2 2 2 8 2 10 2 2 10 10 8 8 8 10 2 10 8 8 8 8 8 10 10 2 10 2 8
left_child=1 17 7 6 -5 8 15 10 -6 20 18 -7 21 14 -9 -4 -15 -1 23 -12 28 -11 -19 -2 -22 -16 -8 -26 -3 -30
right_child=2 9 3 4 5 11 26 13 -10 12 19 -13 -14 16 25 -17 -18 22 -20 -21 24 -23 -24 -25 27 -27 -28 -29 29 -31
leaf_value=-0.45245834869594087 0.20904851392121385 -0.23607737991574773 0.20341541225259957 1.4132115051682508 0.30244561788955726 0.5730612076043573 -0.39015077823314115 -0.54421197667717935 1.3244344808161259 -0.009233786230101999 0.95934124268867349 1.5695024448892345 1.2091554959118367 0.1625901369181903 0.13935175699036603 1.3280243105358549 -0.29964292687363925 -0.070100888747367127 -0.77144903633101236 -0.046649421341717248 -0.088317907959825637 0.67990414624990425 -0.32423747356978572 -0.31695474361938042 -0.00049750849841133002 0.65301086509002837 0.07584473964587185 0.54010440689414296 0.75276735921700799 -0.31921072980252707
leaf_weight=691 71 1096 33 28 1442 318 69 40 24 162 27 23 20 152 2507 27 208 336 58 40 3615 43 754 178 126 53 697 67 36 41
leaf_count=691 71 1096 33 28 1442 318 69 40 24 162 27 23 20 152 2507 27 208 336 58 40 3615 43 754 178 126 53 697 67 36 41
internal_value=2.1472e-10 -0.151228 0.176252 0.298507 0.395539 0.37977 0.0829452 0.0786744 0.319177 -0.0914235 -0.166533 0.64027 0.230769 0.109657 0.139306 0.709489 -0.104478 -0.32604 -0.281171 0.35875 -0.105977 0.135317 -0.245898 -0.16697 -0.0743553 0.149986 0.0338686 0.187173 -0.208635 0.181974
internal_weight=12982 6987 5995 2661 1835 1807 826 3334 1466 5206 374 341 225 2960 2600 60 360 1781 307 67 4981 205 1090 249 3808 2560 766 193 1173 77
internal_count=12982 6987 5995 2661 1835 1807 826 3334 1466 5206 374 341 225 2960 2600 60 360 1781 307 67 4981 205 1090 249 3808 2560 766 193 1173 77
is_linear=0
shrinkage=0.05


Tree=14
num_leaves=31
num_cat=0
split_feature=91 91 91 5 20 91 154 144 29 2 87 78 157 63 72 148 87 1 177 148 5 149 151 177 30 91 76 26 140 3
split_gain=125615 37339.8 20354.3 14617.4 11582.7 11518.8 10752 10413.8 13008.2 9560.73 9516.54 8614.66 8311.94 8233.89 7676.78 7299.61 6595.32 6249.72 7107.35 5720.59 5649.86 5342.67 7527.92 5186.37 5164.05 5099.09 6135 5729.98 5048.91 4970.57
threshold=51.157015890115815 42.504056437389778 66.256200084068951 58.500000000000007 0.53499999642372142 35.687330316742084 -0.99999999999999989 -1.0000000180025095e-35 28.500000000000004 46.500000000000007 -10449.999999999998 26.129485243390935 7.3000000000000016 28.500000000000004 71.500000000000014 0.48000000417232519 -130249.99999999999 79.500000000000014 0.74099999666214 0.24833333492279056 81.500000000000014 0.60666665434837352 8.4000000000000021 0.49899999797344213 13.500000000000002 54.328059071729967 66.90000000000002 64.500000000000014 5.8333333333333348 44.500000000000007
decision_type=2 2 2 2 2 2 8 10 10 2 8 10 10 8 10 10 10 2 10 8 2 10 10 10 2 2 10 10 10 2
left_child=1 5 3 -2 6 24 11 12 -9 17 -8 -5 29 16 21 19 -10 23 20 -16 -19 22 -11 -3 -1 26 -6 -27 -23 -4
right_child=2 9 7 4 25 -7 10 8 13 14 -12 -13 -14 -15 15 -17 -18 18 -20 -21 -22 28 -24 -25 -26 27 -28 -29 -30 -31
leaf_value=-0.68370480747222906 -0.32323202416026858 -0.19178993830151816 -0.24140234904926877 0.25029449015639205 0.28921858258665106 -0.18113635750362211 0.24724320441887637 1.8281426519155504 1.179917163434236 0.098478814291245456 0.043485084686371078 0.86318877516964143 1.2747249762217203 1.5337131126360459 -1.0762078441679479 0.72753758549690251 0.19475277012357348 -0.049784147606590133 0.60781507253646849 -0.19562977315221408 -0.48833827705269583 -0.37951228356361394 1.0087874272595281 -0.6995811485011002 -0.33881563176446172 0.38124130012641633 -0.17523929435631325 1.0038139746739316 0.49073871187865736 0.39508926734746064
leaf_weight=125 136 378 43 172 389 2640 887 31 23 1808 1619 86 21 22 20 20 65 2180 40 237 76 100 23 58 824 706 87 39 20 107
leaf_count=125 136 378 43 172 389 2640 887 31 23 1808 1619 86 21 22 20 20 65 2180 40 237 76 100 23 58 824 706 87 39 20 107
internal_value=3.56195e-10 -0.111998 0.215987 0.186508 0.203904 -0.234842 0.147247 0.605367 0.923483 -0.0231099 0.115605 0.454593 0.343061 0.668534 0.0537602 -0.192555 0.452239 -0.085799 -0.0528443 -0.264157 -0.0645581 0.0887316 0.109914 -0.25934 -0.384244 0.332158 0.204328 0.413832 -0.23447 0.212628
internal_weight=12982 8549 4433 4121 3985 3589 2764 312 141 4960 2506 258 171 110 2228 277 88 2732 2296 257 2256 1951 1831 436 949 1221 476 745 120 150
internal_count=12982 8549 4433 4121 3985 3589 2764 312 141 4960 2506 258 171 110 2228 277 88 2732 2296 257 2256 1951 1831 436 949 1221 476 745 120 150
is_linear=0
shrinkage=0.05


Tree=15
num_leaves=31
num_cat=0
split_feature=92 0 2 69 21 39 97 122 131 19 19 69 21 105 180 11 123 73 90 60 126 172 60 145 122 159 2 180 79 73
split_gain=80866.8 26485.9 19561.3 13587.2 13452.8 13043.3 12068.3 14654.2 11996.5 9702 9251.37 9174.7 9018.04 8339.31 8108.35 10388.3 7080.36 9379.08 6936.24 7112.38 6970.08 8096.82 6795.5 6788.46 8556.15 6533.61 7804.89 6529.44 6111.71 6658.44
threshold=30.750000000000004 564950.00000000012 35.500000000000007 -42149.999999999993 39.500000000000007 -1.0000000180025095e-35 14.000000000000002 19.833333333333339 7.666666666666667 0.40500000119209295 0.35500000417232519 42050.000000000007 27.500000000000004 1.0000000180025095e-35 9.5000000000000018 55.500000000000007 1.0000000180025095e-35 46.833333333333336 50.523681001743412 39.500000000000007 -0.99999999999999989 -1.0000000180025095e-35 39.500000000000007 -2.3333333333333326 1.0000000180025095e-35 9.0000000000000018 47.500000000000007 14.500000000000002 -27183.333333333332 25.166666666666668
decision_type=2 2 2 8 2 2 10 8 10 2 2 8 2 10 2 10 10 8 2 10 8 8 10 8 8 10 2 2 8 10
left_child=2 3 12 14 5 27 9 10 -7 11 -8 13 -1 -3 -2 -16 22 -18 20 -20 21 -4 -6 -11 -25 -22 -27 -5 29 -14
right_child=1 6 18 4 16 8 7 -9 -10 23 -12 -13 28 -15 15 -17 17 -19 19 -21 25 -23 -24 24 -26 26 -28 -29 -30 -31
leaf_value=-0.32863875506099577 -0.18187106561593036 0.55457405191317333 0.73799950539088643 0.59782213516194715 0.063474213828142459 -0.060095391885431296 2.0410246622973474 -0.1178615416799273 0.16172255740795405 0.15560688553033053 0.69822317128596101 -0.18028317282442005 0.96120144656071305 0.049206583968856757 0.44848510047005868 1.6194970463003433 1.0372582022632872 0.26251658538426398 -0.28028701765992053 0.66060731183914911 -0.058439266638464084 -0.14611604399151273 0.39858835395744868 1.6268315101211723 0.58637497882099499 1.283290758728981 -0.00062730368869058021 0.11097327867626317 -0.15708711411933651 -0.25228117048740389
leaf_weight=1372 44 175 61 132 1116 2855 29 21 775 81 23 128 26 153 193 21 42 559 461 21 3133 45 175 22 194 20 29 144 912 20
leaf_count=1372 44 175 61 132 1116 2855 29 21 775 81 23 128 26 153 193 21 42 559 461 21 3133 45 175 22 194 20 29 144 912 20
internal_value=1.73635e-10 0.117488 -0.132549 0.0812619 0.0654635 0.0124566 0.383084 0.996901 -0.0127376 0.323578 1.44709 0.178734 -0.246442 0.318839 0.436297 0.563397 0.174895 0.316658 -0.062159 -0.239294 -0.0361922 0.362667 0.1089 0.545964 0.692347 -0.0494791 0.523421 0.343814 -0.128724 0.4336
internal_weight=12982 6882 6100 6056 5798 3906 826 73 3630 753 52 456 2330 328 258 214 1892 601 3770 482 3288 106 1291 297 216 3182 49 276 958 46
internal_count=12982 6882 6100 6056 5798 3906 826 73 3630 753 52 456 2330 328 258 214 1892 601 3770 482 3288 106 1291 297 216 3182 49 276 958 46
is_linear=0
shrinkage=0.05


Tree=16
num_leaves=31
num_cat=0
split_feature=91 91 91 2 84 10 171 64 80 175 173 11 84 151 167 149 67 1 84 148 91 88 68 179 177 88 0 1 82 26
split_gain=107351 25324.6 20661.7 14854.2 9751.46 11061.9 10462.4 9687.68 10266.7 8501.48 8083.02 7449.28 8358.62 7486.74 7376.21 8622.73 9154.06 7060.61 7076.96 6453.04 6309.52 6199.62 5728.42 7053.49 6207.65 5703.5 6264.95 5617.82 5284.02 5030.36
threshold=46.577682186234824 53.112044817927178 38.574786324786338 69.500000000000014 -60.499999999999993 38.500000000000007 -1.0000000180025095e-35 -2.4999999999999996 -28.166666666666657 77.90000000000002 -2.5999999999999992 39.500000000000007 57.500000000000007 8.4000000000000021 14.200000000000001 0.55833333730697643 123.50000000000001 32.500000000000007 -44.499999999999993 0.33833333849906927 30.131130063965887 6365.711175616837 17.500000000000004 14.500000000000002 0.67099997401237499 8910.5823068309091 509250.00000000006 34.500000000000007 -58.499999999999993 27.54999923706055
decision_type=2 2 2 2 8 8 8 8 10 8 8 8 8 10 8 10 10 2 10 10 2 2 10 2 10 2 2 2 2 10
left_child=2 9 20 4 7 27 -7 8 -3 -2 -9 29 13 -13 -5 16 -16 18 -4 25 -1 -14 23 -21 -24 -19 -27 -6 -22 -11
right_child=1 3 17 14 5 6 -8 10 -10 11 -12 12 21 -15 15 -17 -18 19 -20 22 28 -23 24 -25 -26 26 -28 -29 -30 -31
leaf_value=-0.56305904187499844 -0.16645916094312019 0.43047441506328488 -0.89660590122330874 -0.17773397275895786 -0.67878628394476348 0.72802322046043955 0.19587709903774858 0.93503902322716181 1.2607296487974837 0.029396941612683802 0.12979204970058697 0.17336366949538928 0.27224646741887193 0.99965536015640422 0.46952779404193967 1.5866184271517254 1.5496042978195916 -0.072846280424499019 -0.1478438365344818 1.0888667747930245 -0.59054187955504112 -0.2546655761454199 -0.028196243693238549 -0.034146842000813325 0.59674776952441144 -0.24333707305023672 0.33620637533616049 0.012458634761538245 -0.23109535523253527 -0.23591569536986451
leaf_weight=188 431 104 53 33 31 97 1933 36 58 699 232 1309 77 28 298 21 21 2285 78 27 110 203 1289 29 41 965 49 567 1450 240
leaf_count=188 431 104 53 33 31 97 1933 36 58 699 232 1309 77 28 298 21 21 2285 78 27 110 203 1289 29 41 965 49 567 1450 240
internal_value=-1.85088e-10 0.145407 -0.142173 0.238079 0.201745 0.165628 0.221305 0.422476 0.727726 0.0389602 0.23796 0.0735986 0.138645 0.190668 0.535964 0.605235 0.54063 -0.0887294 -0.450778 -0.078606 -0.289418 -0.109765 0.011927 0.507306 -0.00893105 -0.116641 -0.215332 -0.0233751 -0.256441 -0.0384146
internal_weight=12982 6418 6564 3431 3058 2628 2030 430 162 2987 268 2556 1617 1337 373 340 319 4816 131 4685 1748 280 1386 56 1330 3299 1014 598 1560 939
internal_count=12982 6418 6564 3431 3058 2628 2030 430 162 2987 268 2556 1617 1337 373 340 319 4816 131 4685 1748 280 1386 56 1330 3299 1014 598 1560 939
is_linear=0
shrinkage=0.05


Tree=17
num_leaves=31
num_cat=0
split_feature=91 91 91 91 111 175 5 13 153 175 77 20 87 60 77 78 161 63 52 147 167 88 32 84 69 63 83 32 63 71
split_gain=96948.9 27342.7 16426.4 13746.4 10179.8 12912.4 9920.91 8763.26 8554.69 8524.68 8388.78 8051.35 8511.05 8021.1 7010.87 8899.41 6937 6163.73 6389.28 5746.47 6066.26 5913.73 5581.53 5324.29 5023.04 6330.52 5829.06 5041.7 4535.38 4620.22
threshold=45.62079139187783 53.112044817927178 35.687330316742084 66.256200084068951 9.0000000000000018 74.500000000000014 58.500000000000007 58.500000000000007 14.000000000000002 76.300000000000026 8.1853527718724592 0.53499999642372142 49850.000000000007 25.500000000000004 9.6436507609929745 16.864162926441498 1.2000000000000004 11.500000000000002 7.0000000000000009 62.500000000000007 20.200000000000003 8757.2599531615942 39.000000000000007 -46.499999999999993 -22649.999999999996 6.5000000000000009 -10.83333333333333 6.5000000000000009 27.500000000000004 28.500000000000004
decision_type=2 2 2 2 10 8 2 8 10 8 10 2 8 10 10 10 8 10 2 8 10 2 2 8 10 8 10 2 10 10
left_child=2 9 -1 6 -5 -6 -3 13 -7 24 17 12 -8 23 15 -12 -13 18 -11 -9 21 -21 -16 -4 25 -2 -26 -28 29 -15
right_child=1 3 7 4 5 8 11 19 -10 10 14 16 -14 28 22 -17 -18 -19 -20 20 -22 -23 -24 -25 26 -27 27 -29 -30 -31
leaf_value=-0.34007728741797683 0.66946841513409339 -0.32280677612250053 -0.72891252898063863 -0.0035356346795808024 1.8774718188104176 0.45698582875141824 0.22985741039040805 0.2067346124195614 1.3518077942632862 -0.37096482748726767 0.18277035976748868 0.60671549133219571 0.017720109664075574 0.2397465560146991 0.077483239522884717 1.0984831298773106 0.26435124721877307 -0.23256794383430349 0.10519207465627767 -0.067004414388548067 0.20556955216918144 -0.20074542916232407 0.81441720824402108 -0.31226885257310444 -0.59106514007555988 -0.16213812968560629 0.026341048017037003 -0.56349582090612738 0.65546677596867087 -0.22938123735882665
leaf_weight=949 34 90 97 67 21 193 1319 163 31 83 83 182 737 68 2185 39 791 362 466 2656 160 1200 26 366 106 70 139 49 20 230
leaf_count=949 34 90 97 67 21 193 1319 163 31 83 83 182 737 68 2185 39 791 362 466 2656 160 1200 26 366 106 70 139 49 20 230
internal_value=4.19979e-10 0.124889 -0.149491 0.226175 0.54261 0.691964 0.194522 -0.113026 0.580823 0.0294717 0.0562658 0.209893 0.153814 -0.266761 0.106509 0.475498 0.328391 -0.0724041 0.0332048 -0.0842951 -0.0961073 -0.108625 0.0861491 -0.399557 -0.188921 0.109733 -0.294567 -0.127393 -0.0734138 -0.122332
internal_weight=12982 7073 5909 3431 312 245 3119 4960 224 3642 3244 3029 2056 781 2333 122 973 911 549 4179 4016 3856 2211 463 398 104 294 188 318 298
internal_count=12982 7073 5909 3431 312 245 3119 4960 224 3642 3244 3029 2056 781 2333 122 973 911 549 4179 4016 3856 2211 463 398 104 294 188 318 298
is_linear=0
shrinkage=0.05


Tree=18
num_leaves=31
num_cat=0
split_feature=2 2 20 39 83 21 29 87 2 112 111 161 131 161 0 44 1 66 69 0 70 0 123 12 66 120 83 87 139 90
split_gain=55726.6 18574.5 17574.3 18427.6 13434.4 11303.7 8292.25 11773.5 9998.85 7797.56 7689.64 7259.51 7113.09 12059.8 8500.77 8020.64 7182.22 6796.91 6764.74 6500.97 6308.43 13449.1 6596.68 6016.68 5966.64 5554.7 5526 5378.65 5359.51 5191.07
threshold=48.500000000000007 36.500000000000007 0.65500000119209301 -1.0000000180025095e-35 41.500000000000007 27.500000000000004 63.500000000000007 5950.0000000000009 69.500000000000014 9.5000000000000018 23.000000000000004 1.0000000180025095e-35 7.666666666666667 1.0000000180025095e-35 464650.00000000006 5.0000000000000009 31.500000000000004 73.500000000000014 -34349.999999999993 427250.00000000006 8050.0000000000009 507550.00000000006 6.0000000000000009 14.500000000000002 83.500000000000014 0.33500000834465032 23.166666666666668 -77149.999999999985 12.333333333333334 47.974160988639859
decision_type=2 2 2 2 8 2 10 8 2 10 10 8 10 8 2 2 2 8 8 2 8 2 10 8 10 10 8 10 8 2
left_child=1 5 3 10 6 19 7 -5 -8 28 24 -4 16 27 -15 -16 -3 29 23 -1 21 -18 -22 -7 -2 -21 -20 -14 -6 -13
right_child=2 12 11 4 9 18 8 -9 -10 -11 -12 17 13 14 15 -17 20 -19 26 25 22 -23 -24 -25 -26 -27 -28 -29 -30 -31
leaf_value=-0.29010269879280071 0.26210684640100229 -0.51015958813950424 1.0373642009038191 0.33409561769978846 -0.53446064665913584 0.81733889793738346 -0.019591705078602504 0.0831600641602952 0.9375025773154837 0.5304187667400887 1.1676324881613256 0.41837530407682061 0.16662296467813953 -0.079184385027849316 -0.067285613298416133 1.1364128160861231 0.0027978551219995929 0.58104774306085027 -0.18363038485501118 -0.083755068999269738 -0.13487377597747327 1.1678362185955047 0.39168839901685715 -0.022732673363482697 0.80283249184008576 0.75672860980033885 0.031945201588804192 1.0108314931323683 -0.089472586425531339 0.053481358361684467
leaf_weight=1619 288 80 39 739 73 39 1074 1272 28 48 32 175 29 264 25 31 2711 187 768 92 1463 25 62 47 62 25 485 54 926 220
leaf_count=1619 288 80 39 739 73 39 1074 1272 28 48 32 175 29 264 25 31 2711 187 768 92 1463 25 62 47 62 25 485 54 926 220
internal_value=1.13331e-10 -0.0841794 0.127484 0.0933739 0.0628552 -0.179899 0.114965 0.175374 0.00472648 -0.0920794 0.425724 0.376964 -0.022135 0.178806 0.0395062 0.599047 -0.0407896 0.33271 -0.0707445 -0.264092 -0.0319772 0.0134433 -0.113466 0.35823 0.357893 0.0958355 -0.100187 0.715867 -0.121989 0.215143
internal_weight=12982 7819 5163 4542 4160 3075 3113 2011 1102 1047 382 621 4744 403 320 56 4341 582 1339 1736 4261 2736 1525 86 350 117 1253 83 999 395
internal_count=12982 7819 5163 4542 4160 3075 3113 2011 1102 1047 382 621 4744 403 320 56 4341 582 1339 1736 4261 2736 1525 86 350 117 1253 83 999 395
is_linear=0
shrinkage=0.05


Tree=19
num_leaves=31
num_cat=0
split_feature=91 91 91 2 173 175 69 111 90 21 39 21 131 91 21 151 66 20 70 111 173 157 87 52 72 140 1 63 31 180
split_gain=82709.7 19892.6 16817.4 12907 9815.3 9048.98 11138 10539.4 8628.96 11538.5 12678.2 7823.84 7628.17 7524.22 7276.7 6905.72 6893.34 7032.67 6586.18 6386.45 6121.99 5715.92 5487.27 5169.19 5157.1 5113.52 5109.68 4836.57 4522.43 8160.84
threshold=48.191829233813969 42.299853801169597 66.091282051282064 35.500000000000007 -2.1999999999999997 73.90000000000002 -23049.999999999996 21.000000000000004 43.908788293517667 42.500000000000007 -1.0000000180025095e-35 34.500000000000007 13.000000000000002 30.131130063965887 34.500000000000007 6.0000000000000009 37.500000000000007 0.64499998092651378 -51349.999999999993 27.000000000000004 -1.7999999999999998 2.3000000000000003 96950.000000000015 15.000000000000002 70.500000000000014 3.1666666666666674 79.500000000000014 1.0000000180025095e-35 23.500000000000004 12.500000000000002
decision_type=2 2 2 2 8 8 8 10 2 2 2 2 10 2 2 10 10 2 8 10 8 8 10 2 10 10 2 8 2 2
left_child=1 13 3 16 15 -4 11 20 12 10 -10 -7 18 -1 25 21 17 -2 -5 -11 -8 -3 -9 28 -23 -6 -27 -16 -15 -30
right_child=2 4 5 8 14 6 7 22 9 19 -12 -13 -14 23 27 -17 -18 -19 -20 -21 -22 24 -24 -25 -26 26 -28 -29 29 -31
leaf_value=-0.50778806663138121 0.025373601922792061 0.68956373710381369 1.4797465530308811 1.1061201522747675 -0.21807380749227165 1.816161423379725 0.42914145401545939 0.52555198542773718 0.39929763014508546 0.22128082031686491 0.037833015353598273 0.54592455879405699 1.245922402157025 -0.24559425771686502 0.78760170396417384 0.74184056398543452 -0.52773072123527531 -0.82703242969448465 0.25896986745827028 0.66084673676032868 -0.18179055271162228 0.10044774224706579 1.4926765978336336 -0.085084916886818768 -0.43439658904562189 -0.32223888009599172 -0.016466893106085144 0.0046450524523386971 0.48532872434522284 -0.25576501433786597
leaf_weight=188 349 38 22 24 924 22 70 55 267 1155 2653 27 22 1980 20 44 87 26 521 89 99 562 20 952 49 159 971 1431 61 95
leaf_count=188 349 38 22 24 924 22 70 55 267 1155 2653 27 22 1980 20 44 87 26 521 89 99 562 20 952 49 159 971 1431 61 95
internal_value=2.71538e-10 -0.108342 0.147013 0.125496 -0.0362829 0.501751 0.428318 0.29017 0.150129 0.125211 0.0708847 1.11623 0.333123 -0.200682 -0.0702786 0.135657 -0.126753 -0.0337265 0.296276 0.252729 0.0712582 0.0945603 0.783452 -0.181985 0.0575552 -0.13083 -0.0594914 0.015437 -0.225173 0.0340216
internal_weight=12982 7474 5508 5193 4198 315 293 244 4731 4164 2920 49 567 3276 3505 693 462 375 545 1244 169 649 75 3088 611 2054 1130 1451 2136 156
internal_count=12982 7474 5508 5193 4198 315 293 244 4731 4164 2920 49 567 3276 3505 693 462 375 545 1244 169 649 75 3088 611 2054 1130 1451 2136 156
is_linear=0
shrinkage=0.05


Tree=20
num_leaves=31
num_cat=0
split_feature=91 91 91 121 86 111 175 77 71 91 153 169 159 7 167 150 90 64 133 164 175 90 126 76 168 29 5 172 67 139
split_gain=75247.8 23191.3 12992.4 11337.1 10109.4 8267.99 10704.4 8043.34 7773.6 7660.65 7344.25 7337.54 7027.59 7364.37 6663.21 6653.45 6470.09 7940.44 6642.09 6284.98 6053.14 6033.49 6536.18 5738.67 5510.81 5460.34 5877.26 5311.66 5290.52 5256.6
threshold=51.157015890115815 42.748267498267502 66.091282051282064 0.5249999761581422 434950.00000000006 9.0000000000000018 74.500000000000014 49.06287420459504 34.500000000000007 35.687330316742084 14.000000000000002 1.0000000180025095e-35 9.4000000000000004 195650.00000000003 11.4 8.5000000000000018 50.288549484052538 -4.4999999999999991 1.0000000180025095e-35 5.6000000000000005 77.500000000000014 43.908788293517667 -1.6666666666666663 36.500000000000007 2.1000000000000005 68.500000000000014 66.500000000000014 -1.0000000180025095e-35 60.500000000000007 17.666666666666668
decision_type=2 2 2 8 10 10 8 10 8 2 10 8 10 2 8 10 2 8 8 10 10 2 8 8 8 10 2 10 10 8
left_child=1 9 3 7 21 -4 -7 12 15 -1 -8 -9 23 -14 -6 25 19 29 -19 24 -17 -5 -23 -2 -10 -3 -27 -16 -21 -18
right_child=2 8 5 4 14 6 10 11 16 -11 -12 -13 13 -15 27 20 17 18 -20 28 -22 22 -24 -25 -26 26 -28 -29 -30 -31
leaf_value=-0.30195938061757921 -0.16633223014981002 -0.42164856925838357 -0.0025720871772084916 0.30256365925073625 0.96909607194471536 1.6929887848240988 0.39765180680958717 1.2158420806129775 0.57632302617033326 -0.13788011742664638 1.2267540738947931 0.11353380565459913 0.48417627455225687 -0.30510374822399838 0.047566799161884575 0.75849214904010298 1.1438220661878586 -0.42222429765769615 -0.061595065099379377 1.1168416252136231 0.012805385330876152 0.67285038846589273 -0.22737716669879351 0.16910737156019875 0.035995455697442932 0.20890627532735864 -0.18312470878274956 0.54796930120541498 0.17003190455337366 0.011187643096560524
leaf_weight=949 134 193 70 70 26 21 193 36 48 2841 31 26 283 33 288 32 20 171 504 25 182 21 506 2630 2793 113 621 65 36 21
leaf_count=949 134 193 70 70 26 21 193 36 48 2841 31 26 283 33 288 32 20 171 504 25 182 21 506 2630 2793 113 621 65 36 21
internal_value=-2.56171e-10 -0.0866837 0.167169 0.143494 -0.00535839 0.476663 0.613588 0.189733 -0.0131922 -0.178965 0.512394 0.753584 0.178382 0.401751 0.196606 -0.126985 0.0226943 -0.111917 -0.152954 0.0559066 0.12431 -0.133574 -0.191505 0.152845 0.0451245 -0.184997 -0.122771 0.139709 0.558069 0.563692
internal_weight=12982 8549 4433 4118 976 315 245 3142 4759 3790 224 62 3080 316 379 1141 3618 716 675 2902 214 597 527 2764 2841 927 734 353 61 41
internal_count=12982 8549 4433 4118 976 315 245 3142 4759 3790 224 62 3080 316 379 1141 3618 716 675 2902 214 597 527 2764 2841 927 734 353 61 41
is_linear=0
shrinkage=0.05


Tree=21
num_leaves=31
num_cat=0
split_feature=91 91 91 153 26 33 86 92 67 4 1 26 161 53 126 86 87 87 29 60 161 60 74 93 64 6 21 129 93 103
split_gain=68007.9 19507.6 12059.4 11011.1 16744.5 11631.2 9230.52 8155.55 7873.83 8721.65 7101.44 6934.58 6806.71 5998.3 8359.66 6900.39 6778.03 5875.02 5534.52 5453.83 15651.9 6067.92 5267.32 5242.7 4588.18 6050.98 4497.01 5593.64 4495.17 4894.29
threshold=45.698747763864056 54.361979166666679 36.861111111111121 14.000000000000002 35.149999618530281 4.5000000000000009 483250.00000000006 30.750000000000004 32.500000000000007 0.12499999627470972 39.500000000000007 69.599998474121108 7.6000000000000005 5.5000000000000009 -0.99999999999999989 180950.00000000003 82450.000000000015 265750.00000000006 48.500000000000007 17.500000000000004 1.0000000180025095e-35 24.500000000000004 85.500000000000014 16.250000000000004 -2.4999999999999996 1.1922200322151186 26.500000000000004 5.8333333333333348 17.750000000000004 3.0000000000000004
decision_type=2 2 2 10 10 2 8 2 10 10 2 10 10 2 8 8 10 10 10 8 8 8 8 2 10 2 2 8 2 10
left_child=2 7 26 5 6 -3 -5 13 10 -10 -4 12 -7 14 18 -15 -16 19 -2 20 -9 -21 -13 -17 25 -11 -1 28 -28 -30
right_child=1 3 8 4 -6 11 -8 17 9 24 -12 22 -14 15 16 23 -18 -19 -20 21 -22 -23 -24 -25 -26 -27 27 -29 29 -31
leaf_value=-0.36969644304962812 -0.026831168532371521 -0.0030181385292827418 -0.53538199525613051 2.0452902495861056 -0.11191297577273461 0.26340206757702017 0.6724960746864479 1.5816726933354917 0.81923038378357893 0.05905312760782179 -0.13561506819414301 0.41215715988406115 -0.30176305819641458 -0.82547516345977778 -0.18054638555845914 0.41338195318684862 0.32617525381731316 -0.66884888732433323 1.1224018682133068 -0.039916914608455902 0.19238462300851333 0.12784893776857456 1.4745650398731234 0.03761678547267383 -0.096956096206314013 -0.69908941951062953 0.75418442772782379 -0.25420486182534446 0.34514220210970664 -0.34200908823446796
leaf_weight=567 20 538 117 25 31 1699 24 23 30 1043 2199 28 55 20 936 119 71 25 22 737 171 2006 20 422 1431 27 23 449 49 55
leaf_count=567 20 538 117 25 31 1699 24 23 30 1043 2199 28 55 20 936 119 71 25 22 737 171 2006 20 422 1431 27 23 449 49 55
internal_value=-1.57102e-10 0.105923 -0.123642 0.220717 0.797536 0.200996 1.3729 0.0451622 -0.0891907 -0.0282301 -0.155811 0.261906 0.24568 -0.0454159 -0.115993 0.0865548 -0.144819 0.0943961 0.575148 0.100893 0.357094 0.082773 0.854827 0.120271 -0.0383955 0.0399224 -0.269736 -0.171337 0.121636 -0.0182551
internal_weight=12982 6992 5990 2420 80 2340 49 4572 4847 2531 2316 1802 1754 1610 1049 561 1007 2962 42 2937 194 2743 48 541 2501 1070 1143 576 127 104
internal_count=12982 6992 5990 2420 80 2340 49 4572 4847 2531 2316 1802 1754 1610 1049 561 1007 2962 42 2937 194 2743 48 541 2501 1070 1143 576 127 104
is_linear=0
shrinkage=0.05


Tree=22
num_leaves=31
num_cat=0
split_feature=92 0 30 69 97 150 19 29 112 19 139 6 92 80 69 126 69 93 101 7 19 145 120 5 163 62 30 1 161 117
split_gain=43662.5 15546.9 11043.1 9902.44 8395.4 9035.03 8460.76 7897.24 14363.1 7512.14 7363.39 8626.54 7795.94 7516.65 7385.14 7342.37 7297.63 8289.96 6812.42 8566.59 6967.76 6121.55 6105.71 5902.39 5661.28 5606.22 5400.64 4902 4703.96 4679.62
threshold=30.750000000000004 564950.00000000012 19.500000000000004 -42149.999999999993 14.000000000000002 15.300000000000002 0.35500000417232519 30.500000000000004 4.5000000000000009 0.40500000119209295 19.000000000000004 0.33891899883747106 37.750000000000007 52.333333333333343 36950.000000000007 -0.99999999999999989 42050.000000000007 52.250000000000007 2.5000000000000004 87650.000000000015 0.85500001907348644 -2.3333333333333326 0.18500000238418582 79.500000000000014 11.000000000000002 26.500000000000004 48.500000000000007 83.500000000000014 1.2000000000000004 -4.9999999999999991
decision_type=2 2 2 8 10 8 2 10 10 2 10 2 2 10 10 8 8 2 8 2 2 8 10 2 10 10 2 2 10 10
left_child=2 3 18 7 9 6 -6 8 -2 16 13 23 -13 14 -5 22 17 -3 19 29 27 -11 -4 -12 -9 26 -17 -20 -24 -1
right_child=1 4 15 10 5 -7 -8 24 -10 21 11 12 -14 -15 -16 25 -18 -19 20 -21 -22 -23 28 -25 -26 -27 -28 -29 -30 -31
leaf_value=0.61083736907352104 0.12808971560519675 0.43112932513422764 -0.30286660478228616 0.033137661238958033 1.8863032416750987 0.116604424139549 0.4938505280017853 0.14072490334114496 1.9601931117475033 0.065183978904912496 0.20003831166970101 0.57316264652393079 0.15654804583464285 0.90234922897070646 -0.20026550610227464 -0.072352589002314449 -0.2074596854276024 -0.08895010518551362 -0.25410557589065469 0.70974315868483651 -0.99985327586050965 0.57487812172793962 0.33434705529894149 -0.60444403468516839 0.91498314075999798 0.6175425129663199 0.73146923106341133 0.49866099249232898 1.2673729360103607 -0.14034316475399666
leaf_weight=22 23 206 21 4428 24 29 20 188 20 81 38 132 752 24 367 4225 128 122 1275 36 31 216 35 57 27 30 21 22 22 360
leaf_count=22 23 206 21 4428 24 29 20 188 20 81 38 132 752 24 367 4225 128 122 1275 36 31 216 35 57 27 30 21 22 22 360
internal_value=-3.50338e-10 0.0863299 -0.0973971 0.0585755 0.289818 0.801778 1.25337 0.36167 0.980231 0.240185 0.0450883 0.170102 0.218757 0.0196913 0.0152734 -0.0547952 0.112732 0.237685 -0.203633 -0.0275942 -0.259043 0.435871 0.425951 -0.282651 0.237957 -0.0635647 -0.068377 -0.241337 0.694462 -0.0970815
internal_weight=12982 6882 6100 6056 826 73 44 258 43 753 5798 979 884 4819 4795 4354 456 328 1746 418 1328 297 78 95 215 4276 4246 1297 57 382
internal_count=12982 6882 6100 6056 826 73 44 258 43 753 5798 979 884 4819 4795 4354 456 328 1746 418 1328 297 78 95 215 4276 4246 1297 57 382
is_linear=0
shrinkage=0.05


Tree=23
num_leaves=31
num_cat=0
split_feature=91 91 111 84 11 107 27 86 52 120 159 173 159 171 86 0 175 64 158 67 1 91 43 1 27 67 140 69 180 27
split_gain=58610.3 22719.5 9134.09 7855.89 9566.16 8863.31 8031.04 7305.35 9236.82 7117.26 7479.68 15766.3 7573.99 7000.68 7244.62 6996.8 7226.99 6995.35 7444.14 8232.75 6946.62 6484.34 6182.91 5995.55 5805.09 5791 5759.95 5498.02 10476.6 5043.32
threshold=53.112044817927178 42.748267498267502 27.000000000000004 -59.499999999999993 66.500000000000014 35.000000000000007 9.4499998092651385 353350.00000000006 21.000000000000004 0.15500000119209292 6.6000000000000005 -1.7999999999999998 9.4000000000000004 -1.0000000180025095e-35 425900.00000000006 409700.00000000006 77.700000000000003 -2.4999999999999996 -1.4999999999999998 76.500000000000014 34.500000000000007 30.131130063965887 -6.4999999999999991 14.500000000000002 54.149999618530281 31.500000000000004 6.166666666666667 -27549.999999999996 19.500000000000004 44.95000076293946
decision_type=2 2 10 8 10 10 8 8 2 10 8 10 8 8 8 2 8 8 8 10 2 2 2 2 10 8 8 10 2 8
left_child=1 21 3 9 13 6 -6 17 23 -2 11 -11 -12 14 -5 29 -17 18 19 -3 -15 -1 -23 26 -25 -4 -9 28 -19 -10
right_child=2 7 25 4 5 -7 -8 8 15 10 12 -13 -14 20 -16 16 -18 27 -20 -21 -22 22 -24 24 -26 -27 -28 -29 -30 -31
leaf_value=-0.44502242541069442 -0.40531257708867391 0.33629443356162542 -0.26887766945929753 -0.21205190221468606 0.56346834252709932 -0.69159803498875017 0.18986510530812667 -1.1326564243206612 -0.15292412517727286 1.1574673726102682 -0.10477993226825044 0.18262075127924191 0.42405830746919843 -0.59600784767419102 0.89793833749634888 -0.30053993788632483 0.38860567209983637 0.10277377302382168 0.1015433528043384 1.2416731094320617 0.069456403378989715 0.71162421249207997 -0.14882729290058871 -0.081448249373524323 0.25135102584196706 0.61150282756563212 -0.0040137319266796111 -0.022898532286894566 1.1257631847262384 0.50414646478260261
leaf_weight=188 30 154 21 21 230 22 384 26 207 81 104 85 194 40 49 44 281 151 413 30 2001 21 3581 3009 137 169 20 1225 30 34
leaf_count=188 30 154 21 21 230 22 384 26 207 81 104 85 194 40 49 44 281 151 413 30 2001 21 3581 3009 137 169 20 1225 30 34
internal_value=7.00107e-10 -0.0636755 0.177256 0.157503 0.124492 0.294482 0.329814 -0.00112722 -0.0422331 0.34107 0.389327 0.658299 0.239497 0.073277 0.564941 0.143922 0.295306 0.075995 0.219392 0.483911 0.0564145 -0.158752 -0.143811 -0.0752419 -0.0669557 0.514198 -0.641942 0.0151074 0.27233 -0.0602254
internal_weight=12982 9551 3431 3241 2747 636 614 5761 3758 494 464 166 298 2111 70 566 325 2003 597 184 2041 3790 3602 3192 3146 190 46 1406 181 241
internal_count=12982 9551 3431 3241 2747 636 614 5761 3758 494 464 166 298 2111 70 566 325 2003 597 184 2041 3790 3602 3192 3146 190 46 1406 181 241
is_linear=0
shrinkage=0.05


Tree=24
num_leaves=31
num_cat=0
split_feature=81 21 167 125 30 83 159 148 64 31 81 55 13 62 8 112 48 159 86 83 10 25 86 27 94 20 28 14 83 13
split_gain=32201.1 13725.7 14028.5 14690.7 11315.3 9031.83 9848.7 9898.74 8323.21 7476.9 7337.72 7336.03 10474.8 7037.95 5852.7 6108.36 5970.75 5452.05 5394.2 7763.61 5954.27 5353.21 5318.86 6584.74 5682.07 5267.59 5011.65 4838.67 4662.71 4031.69
threshold=39.519230769230781 51.500000000000007 18.200000000000003 12.66666666666667 23.500000000000004 36.833333333333336 9.8000000000000025 0.26666666567325598 -2.4999999999999996 33.500000000000007 34.547008547008552 1.0000000180025095e-35 79.500000000000014 31.000000000000004 11.500000000000002 9.5000000000000018 1.0000000180025095e-35 3.0000000000000004 502500.00000000006 -29.833333333333332 28.500000000000004 35.149999618530281 284900.00000000006 4.5999999046325692 1.0000000180025095e-35 0.99000000953674328 30.399999618530277 80.500000000000014 19.166666666666668 81.500000000000014
decision_type=10 2 10 10 2 8 10 10 10 2 8 10 10 10 2 10 2 8 10 10 10 10 10 10 10 2 10 8 8 10
left_child=4 2 5 21 9 6 8 -8 -2 18 28 26 -13 17 15 -7 -16 -3 25 20 -20 -4 24 -24 -19 29 -6 -23 -11 -1
right_child=1 13 3 -5 11 14 7 -9 -10 10 -12 12 -14 -15 16 -17 -18 22 19 -21 -22 27 23 -25 -26 -27 -28 -29 -30 -31
leaf_value=-0.20380614904141725 0.10023747037854996 -0.36297837274415157 0.81248955037444837 1.508828673192433 -0.048310318283375231 -0.16563192516215008 0.9565072766056768 0.17659946825016629 -0.032310579502961574 1.2249375203535671 -0.14994328068569304 1.4203209842954365 -0.056922697595187602 1.0678807526826859 0.89490111917257309 0.34852029041188665 -0.023836766617993513 0.3282707530270963 0.056965884332563367 -0.59326001582322296 0.94469633877277381 0.22243768239968184 0.48420004978328945 0.051624127286752863 0.93795081686298798 -0.89060364488897648 0.6931533919728321 -0.0040496906400265464 0.25999730537014626 -0.81888043659704712
leaf_weight=2011 2116 35 32 21 2494 1090 54 165 2690 21 64 21 28 27 28 61 48 137 51 27 30 814 125 297 53 29 23 332 31 27
leaf_count=2011 2116 35 32 21 2494 1090 54 165 2690 21 64 21 28 27 28 61 48 137 51 27 30 814 125 297 53 29 23 332 31 27
internal_value=-3.20223e-11 0.0608845 0.0413389 0.198002 -0.10185 0.0112942 0.0409905 0.368906 0.0260481 -0.182617 0.208511 -0.0297391 0.576182 0.276959 -0.110323 -0.138383 0.314646 0.243953 -0.203477 0.141001 0.385755 0.174635 0.278663 0.179757 0.498339 -0.221476 -0.0415349 0.156824 0.649685 -0.211955
internal_weight=12982 8125 7451 1199 4857 6252 5025 219 4806 2291 116 2566 49 674 1227 1151 76 647 2175 108 81 1178 612 422 190 2067 2517 1146 52 2038
internal_count=12982 8125 7451 1199 4857 6252 5025 219 4806 2291 116 2566 49 674 1227 1151 76 647 2175 108 81 1178 612 422 190 2067 2517 1146 52 2038
is_linear=0
shrinkage=0.05


Tree=25
num_leaves=31
num_cat=0
split_feature=91 91 28 91 71 90 52 94 120 173 84 112 10 79 151 69 4 11 30 72 11 3 78 148 64 21 80 19 134 69
split_gain=51234.6 12703.6 11447.3 10448 8604.36 11828.2 8590.49 9413.49 8136.42 8044.46 10056.3 7118.35 7095.66 14720.8 6657.36 6065.74 8077.71 5514.29 8710.98 6178.29 5512.9 5291.73 4374.28 6459.88 5340.59 4218.67 3985.02 4567.76 4367.56 3970.77
threshold=46.577682186234824 60.661111111111119 29.000000000000004 35.687330316742084 88.500000000000014 47.974160988639859 9.0000000000000018 42.500000000000007 0.31499999761581426 -2.9999999999999996 -55.499999999999993 13.500000000000002 40.500000000000007 -30316.666666666661 3.6000000000000001 -17149.999999999996 0.53499999642372142 28.500000000000004 24.500000000000004 14.500000000000002 41.500000000000007 109.50000000000001 29.07920213904638 0.34833332896232611 -4.4999999999999991 23.500000000000004 -3.9999999999999978 0.59499999880790722 1.0000000180025095e-35 30450.000000000004
decision_type=2 2 8 2 10 2 2 10 8 8 10 10 10 8 10 8 10 8 2 10 10 2 10 10 8 2 10 2 10 10
left_child=3 6 4 25 15 -6 12 9 -7 10 -8 -11 26 -14 -15 20 -17 18 -5 -20 -3 22 24 -24 -19 -1 27 -2 -28 -27
right_child=1 2 -4 17 5 8 7 -9 -10 11 -12 -13 13 14 -16 16 -18 21 19 -21 -22 -23 23 -25 -26 29 28 -29 -30 -31
leaf_value=-0.38560426624969019 -0.065152495663340512 1.1253032292638507 1.359002529859543 -0.26132413330806548 1.5907110477487247 -0.3419429196761205 0.96774614919315693 -0.47349576250366543 0.77850181723749923 0.09156805067363688 0.22949751315807757 0.99328348487615592 1.2722993862032892 -0.073156861969052939 0.38201863266599989 0.19714702787614391 -0.4053640778091821 0.24462710437838903 0.11079378405916913 -0.23134262166284209 0.31271503431404513 0.39394109573434383 -0.2989605622793563 0.10038870002542225 -0.044866643792763478 -0.1379292838189432 -0.64626730270199972 -0.72329857477119996 0.020895749175300203 -0.71940108552094439
leaf_weight=363 451 28 25 833 27 26 55 69 43 4250 286 22 25 365 103 354 66 167 377 203 82 68 366 140 3461 555 77 28 36 31
leaf_count=363 451 28 25 833 27 26 55 69 43 4250 286 22 25 365 103 354 66 167 377 203 82 68 366 140 3461 555 77 28 36 31
internal_value=6.58242e-11 0.100454 0.309826 -0.0982192 0.267926 0.703482 0.0768188 0.106196 0.356305 0.114866 0.34857 0.0962117 -0.0499478 0.0901687 0.0270207 0.189032 0.102467 -0.0722857 -0.157733 -0.00895396 0.519556 -0.0435526 -0.0507489 -0.188469 -0.031541 -0.251661 -0.166633 -0.103625 -0.43372 -0.16869
internal_weight=12982 6418 651 6564 626 96 5767 4682 69 4613 341 4272 1085 493 468 530 420 5615 1413 580 110 4202 4134 506 3628 949 592 479 113 586
internal_count=12982 6418 651 6564 626 96 5767 4682 69 4613 341 4272 1085 493 468 530 420 5615 1413 580 110 4202 4134 506 3628 949 592 479 113 586
is_linear=0
shrinkage=0.05


Tree=26
num_leaves=31
num_cat=0
split_feature=91 91 2 167 167 20 151 84 171 64 83 74 66 68 86 53 0 70 90 92 73 168 136 173 70 1 3 78 30 92
split_gain=46788.9 17659.4 8236.77 6925.51 7154.19 7377.82 8927.64 6647.49 8071.97 7845.14 11283.8 9059.33 6685.9 8247.41 6483.1 10126.1 8555.69 8172.96 7640.62 8015.31 6974.27 6620.91 6456.83 6434.12 6236.86 5653.16 5527.32 5447.57 5421.31 5296.14
threshold=53.112044817927178 42.748267498267502 69.500000000000014 14.200000000000001 19.000000000000004 0.41499999165534979 3.6000000000000001 -60.499999999999993 -1.0000000180025095e-35 -2.4999999999999996 -52.499999999999993 66.90000000000002 41.500000000000007 38.500000000000007 360900.00000000006 5.5000000000000009 343650.00000000006 -51349.999999999993 50.030679251945379 58.750000000000007 71.500000000000014 2.1000000000000005 9.3333333333333339 -2.5999999999999992 3050.0000000000005 12.500000000000002 121.50000000000001 30.761176819808082 11.500000000000002 3.2500000000000004
decision_type=2 2 2 8 8 2 10 8 8 8 8 8 10 10 8 2 2 8 2 2 10 8 10 8 10 2 2 10 2 2
left_child=1 28 7 -4 5 -5 -7 9 12 10 27 -12 -9 -14 20 16 25 -18 29 -20 21 24 -23 -11 -3 -16 -6 -2 -1 -17
right_child=2 14 3 4 26 6 -8 8 -10 23 11 -13 13 -15 15 18 17 -19 19 -21 -22 22 -24 -25 -26 -27 -28 -29 -30 -31
leaf_value=-0.37070659266163908 -0.0834472716368478 1.2790343964641746 -0.31135536206491071 1.5622029321193696 0.40737965178365515 0.014671905764511654 1.2125031696898598 -0.22004901741941774 0.083095920060635098 0.76944621726870543 1.6342958745930127 0.54762135080315855 1.489238347053528 0.41346030312199744 -1.0452735010445828 0.79937368154525767 0.7969201959412674 -0.050753318946180681 -0.20366403927526822 0.5634184451087525 -0.73190272737432416 0.05514348713939228 0.93631587865806765 0.051012652413116699 0.088459609448909765 -0.21417319602245369 -0.26181059461086992 0.78753729233374958 -0.12516682594243281 0.12398094670592873
leaf_weight=240 58 22 33 25 216 35 28 24 2517 36 34 44 25 62 21 30 29 1461 328 38 27 2071 21 232 22 797 36 26 3550 894
leaf_count=240 58 22 33 25 216 35 28 24 2517 36 34 44 25 62 21 30 29 1461 328 38 27 2071 21 232 22 797 36 26 3550 894
internal_value=5.76788e-10 -0.0568927 0.158374 0.380195 0.447316 0.83544 0.547041 0.131318 0.101498 0.313564 0.588256 1.0213 0.518778 0.722592 -0.00174798 -0.0428734 -0.105583 -0.034255 0.0693242 -0.124022 0.0666613 0.0767555 0.0639889 0.147519 0.683747 -0.23551 0.311781 0.186143 -0.140716 0.145909
internal_weight=12982 9551 3431 373 340 88 63 3058 2628 430 162 78 111 87 5761 3598 2308 1490 1290 366 2163 2136 2092 268 44 818 252 84 3790 924
internal_count=12982 9551 3431 373 340 88 63 3058 2628 430 162 78 111 87 5761 3598 2308 1490 1290 366 2163 2136 2092 268 44 818 252 84 3790 924
is_linear=0
shrinkage=0.05


Tree=27
num_leaves=31
num_cat=0
split_feature=92 0 30 69 180 75 21 103 90 84 97 122 66 120 126 71 67 123 73 78 129 86 144 120 92 21 62 66 82 112
split_gain=28407.9 10654.2 7888.31 7608.59 6961.98 7635.4 6941.76 9974.48 8243.96 7634.38 6844.92 11143.3 7655.85 6594.59 6163.15 6105.56 7366.15 5756.72 8181.69 5531.98 6228.35 10469.4 7584.92 5349.58 5326.49 5129.07 5465.18 4864.1 4926.8 4848.02
threshold=30.750000000000004 564950.00000000012 19.500000000000004 -42149.999999999993 9.5000000000000018 55.500000000000007 39.500000000000007 17.000000000000004 44.940621338540744 -7.4999999999999991 14.000000000000002 19.833333333333339 83.500000000000014 0.19500000029802325 -0.99999999999999989 26.500000000000004 123.50000000000001 1.0000000180025095e-35 46.833333333333336 29.732978026522339 5.166666666666667 180950.00000000003 -0.99999999999999989 0.18500000238418582 33.250000000000007 51.500000000000007 26.500000000000004 70.500000000000014 22.500000000000004 4.5000000000000009
decision_type=2 2 2 8 2 10 2 10 2 8 10 8 10 8 8 10 10 10 8 10 8 8 10 10 2 2 10 8 2 8
left_child=2 3 19 4 -2 -6 7 9 -9 -5 13 12 -12 -3 23 -15 -17 24 -19 20 21 -1 -23 -4 -8 26 -16 28 -27 -22
right_child=1 10 14 6 5 -7 17 8 -10 -11 11 -13 -14 15 25 16 -18 18 -20 -21 29 22 -24 -25 -26 27 -28 -29 -30 -31
leaf_value=1.0060820857683817 -0.26046672375364738 -0.65965986585413872 -0.28430096648988273 0.065753657966760998 0.33159502344736785 1.335527619293758 0.38185302367252588 1.3498972621831029 0.24747922988356771 -0.077255507244177249 0.4376391214629014 -0.27172908690713704 1.6546203110899247 -0.34525512514842882 -0.065910044551543479 0.21464213776914765 0.90580545140475766 0.91430417228312733 0.19070497060024674 -0.54789769148433609 -0.32572014569679153 0.57795987752980971 -0.11301757747952182 0.64923247098922732 0.022482863976916612 0.82283769789196204 0.62290890042124136 0.94169125377777085 -0.013537791863493964 -0.11266249364930403
leaf_weight=24 44 22 21 1634 193 21 113 22 74 2176 24 21 28 45 4096 645 41 42 559 91 535 43 520 57 1178 21 29 21 109 533
leaf_count=24 44 22 21 1634 193 21 113 22 74 2176 24 21 28 45 4096 645 41 42 559 91 535 43 520 57 1178 21 29 21 109 533
internal_value=2.24559e-10 0.0696348 -0.0785618 0.046659 0.312339 0.430112 0.0348368 -0.00323997 0.500117 -0.015923 0.238087 0.700362 1.09294 0.193271 -0.0425558 0.218941 0.255951 0.113446 0.241273 -0.16835 -0.147481 -0.0166455 -0.0602431 0.397897 0.0539382 -0.0505902 -0.0610674 0.235626 0.121569 -0.219391
internal_weight=12982 6882 6100 6056 258 214 5798 3906 96 3810 826 73 52 753 4354 731 686 1892 601 1746 1655 587 563 78 1291 4276 4125 151 130 1068
internal_count=12982 6882 6100 6056 258 214 5798 3906 96 3810 826 73 52 753 4354 731 686 1892 601 1746 1655 587 563 78 1291 4276 4125 151 130 1068
is_linear=0
shrinkage=0.05


Tree=28
num_leaves=31
num_cat=0
split_feature=91 91 111 161 63 52 158 112 177 149 179 69 11 86 86 53 90 92 92 70 73 69 28 83 43 136 69 81 92 91
split_gain=39986.6 15130.9 7522 7231.76 7642.51 7830.58 7453.77 7266.79 6811.6 8078.4 6648.65 6267.84 8248.89 6072.25 5915.52 8942.48 6915.92 7145.24 6677.11 8946.26 6308.16 5896.3 5683.18 5500.67 5465.1 5363.25 5629.29 5193.9 5445.47 5148.04
threshold=53.112044817927178 42.748267498267502 27.000000000000004 1.2000000000000004 6.5000000000000009 25.000000000000004 -3.0999999999999996 12.500000000000002 0.42800000309944158 0.47666667401790624 12.500000000000002 35650.000000000007 66.500000000000014 506550.00000000006 360900.00000000006 5.5000000000000009 50.030679251945379 58.750000000000007 30.750000000000004 -51349.999999999993 71.500000000000014 80100.000000000015 27.54999923706055 10.833333333333334 -6.4999999999999991 9.3333333333333339 -27949.999999999996 60.025000000000006 57.750000000000007 30.131130063965887
decision_type=2 2 10 8 10 2 10 10 10 10 2 10 10 8 8 2 2 2 2 8 10 10 8 10 2 10 8 10 2 2
left_child=1 24 3 4 8 6 -6 11 10 -10 -2 12 -5 -7 20 18 22 -18 23 -20 25 -13 -17 -16 -1 26 -3 -4 -29 -26
right_child=2 14 27 7 5 13 -8 -9 9 -11 -12 21 -14 -15 15 16 17 -19 19 -21 -22 -23 -24 -25 29 -27 -28 28 -30 -31
leaf_value=0.63820802750794792 0.8412773751550251 0.35518968236061838 0.19349242402240635 0.064177798456169444 1.1861584601842841 1.5638698510501696 0.26303234233469536 0.8478387560334899 -0.92469085491064829 0.03104602856867349 0.056665314996132143 -0.2398854401240354 0.33641041114674286 0.45830553461004186 -0.13004618576488836 0.15978617809281045 -0.1945415132633615 0.52971125384792683 0.95651612838973166 -0.03892522107440332 -0.69567645081767338 0.54152763332067821 -0.55141265089141911 -0.40124669699346127 -0.39134779721498492 0.83279335414585864 0.04216809298859675 1.4483855660259726 0.51851908564567573 -0.12155525184110201
leaf_weight=23 36 155 96 1867 23 23 444 31 33 67 108 228 327 27 834 895 328 38 23 1210 27 27 29 241 186 23 1958 20 74 3581
leaf_count=23 36 155 96 1867 23 23 444 31 33 67 108 228 327 27 834 895 328 38 23 1210 27 27 29 241 186 23 1958 20 74 3581
internal_value=4.01587e-10 -0.0525947 0.14641 0.128485 0.263315 0.372169 0.308497 0.0871115 0.0326685 -0.284347 0.252818 0.077482 0.104752 0.966865 -0.00155026 -0.0408342 0.0646024 -0.119346 -0.0997654 -0.0203566 0.0637959 -0.157148 0.137465 -0.190846 -0.130185 0.073396 0.0651299 0.452176 0.716363 -0.134877
internal_weight=12982 9551 3431 3241 761 517 467 2480 244 100 144 2449 2194 50 5761 3598 1290 366 2308 1233 2163 255 924 1075 3790 2136 2113 190 94 3767
internal_count=12982 9551 3431 3241 761 517 467 2480 244 100 144 2449 2194 50 5761 3598 1290 366 2308 1233 2163 255 924 1075 3790 2136 2113 190 94 3767
is_linear=0
shrinkage=0.05


Tree=29
num_leaves=31
num_cat=0
split_feature=91 91 91 53 92 126 79 175 69 120 63 60 70 84 80 5 88 26 150 7 130 158 72 60 88 5 2 63 121 4
split_gain=36325.9 10008.4 8214.03 7011.55 8793.42 7585.93 7492.58 6968.45 8414.56 7491.5 6762.46 6731.05 6491.44 6452.63 6365.4 8873.74 12040.9 7588.18 6287.39 5834.25 5451.33 5267.13 4985.86 4964.63 6666.69 5769.37 5465.85 6688.7 5440.92 5453.03
threshold=46.577682186234824 66.091282051282064 36.861111111111121 5.5000000000000009 31.750000000000004 -0.99999999999999989 -29499.999999999996 73.90000000000002 -23049.999999999996 0.40500000119209295 17.500000000000004 25.500000000000004 47650.000000000007 13.500000000000002 -22.833333333333325 79.500000000000014 7995.9935897435907 69.599998474121108 15.300000000000002 45850.000000000007 -2.1666666666666665 -2.0999999999999996 52.500000000000007 32.500000000000007 10557.634032634034 81.500000000000014 61.500000000000007 16.500000000000004 0.88499999046325695 0.78499999642372142
decision_type=2 2 2 2 2 8 8 8 8 10 10 10 10 10 8 2 2 8 10 2 8 10 10 8 2 2 2 8 10 10
left_child=2 3 -1 4 5 19 22 -3 11 10 -10 -9 -7 -11 15 21 -17 20 -8 -2 -16 -5 -6 25 26 28 -25 -28 29 -4
right_child=1 7 23 14 6 12 18 8 9 13 -12 -13 -14 -15 17 16 -18 -19 -20 -21 -22 -23 -24 24 -26 -27 27 -29 -30 -31
leaf_value=-0.20451260913825045 0.89369209382463899 1.2176513144915755 -0.077716764227768409 0.70436152815818787 0.29914902371282759 -0.12881607898958791 0.089634792469229396 1.4218895918241254 0.27629466182595003 1.1994499243538956 -0.33349875597617568 0.24369733550331812 0.77997800946235663 0.13531255477241108 -0.046226125461608175 1.2759984909271709 0.27336868504425149 0.85202153623104104 -0.17206347013201609 -0.15128212015737186 0.14086859672950586 -0.22698370140223278 1.0855578422546388 -0.026633512924711014 0.58236405920380585 -0.46715406176323698 1.1036255136780118 0.13876453328241664 -0.53968616281786275 0.27469927050437021
leaf_weight=1143 34 22 3835 20 104 1121 2016 27 109 29 78 22 20 28 500 49 77 34 259 22 1759 63 25 1158 52 96 23 82 62 113
leaf_count=1143 34 22 3835 20 104 1121 2016 27 109 29 78 22 20 28 500 49 77 34 259 22 1759 63 25 1158 52 96 23 82 62 113
internal_value=-9.06149e-11 0.0845847 -0.0827033 0.0703995 0.0257272 -0.0850008 0.080861 0.359418 0.294977 0.174902 0.0219423 0.892905 -0.112886 0.676716 0.134694 0.398854 0.66328 0.110616 0.0598415 0.483167 0.0994576 -0.00256316 0.451554 -0.0570202 0.0275311 -0.0840989 0.00468763 0.350115 -0.0749285 -0.0676299
internal_weight=12982 6418 6564 6103 3601 1197 2404 315 293 244 187 49 1141 57 2502 209 126 2293 2275 56 2259 83 129 5421 1315 4106 1263 105 4010 3948
internal_count=12982 6418 6564 6103 3601 1197 2404 315 293 244 187 49 1141 57 2502 209 126 2293 2275 56 2259 83 129 5421 1315 4106 1263 105 4010 3948
is_linear=0
shrinkage=0.05


Tree=30
num_leaves=31
num_cat=0
split_feature=91 91 6 115 14 13 148 111 10 84 44 64 43 97 76 90 30 27 4 19 168 68 176 52 150 72 84 31 180 120
split_gain=33319.6 12522 6885.52 7588.41 10494 6742.7 7599.47 6629.49 6324.75 6017.42 6107.56 6093.16 5880.97 5441.12 5322.69 4950.26 5970.98 4819.79 6946.28 9948.93 5262.83 7652.1 4736.37 4681.22 4213.59 4091.97 4063.2 4004.82 6728.24 4685.22
threshold=53.112044817927178 42.299853801169597 0.24499999731779101 -1.0000000180025095e-35 78.500000000000014 58.500000000000007 0.26333333551883703 27.000000000000004 48.500000000000007 -60.499999999999993 23.000000000000004 -2.4999999999999996 -6.4999999999999991 1.0000000180025095e-35 66.100000000000009 48.205732650171463 22.500000000000004 54.149999618530281 0.60500001907348644 0.22500000149011615 2.3000000000000003 19.500000000000004 0.39900000393390661 15.000000000000002 11.9 10.500000000000002 52.500000000000007 23.500000000000004 12.500000000000002 0.33500000834465032
decision_type=2 2 2 8 10 8 8 10 10 8 2 8 2 8 8 2 2 10 8 2 8 10 10 2 8 8 10 2 2 10
left_child=1 12 13 4 -4 6 -3 9 -9 11 -11 -5 -1 -2 -10 16 -8 20 19 -19 21 -7 -22 27 -20 -25 -17 29 -29 -14
right_child=2 5 3 7 -6 17 15 8 14 10 -12 -13 23 -15 -16 26 -18 18 24 -21 22 -23 -24 25 -26 -27 -28 28 -30 -31
leaf_value=0.72752557873725898 -0.44625780574100865 -0.95512345852675262 -0.047069657742977146 0.52769181142960286 1.5036957380672298 1.2317135637998582 -0.19772889476973152 1.2253850890831515 -0.032388606015592812 0.084964911572872628 0.96204584836959839 0.14805927849129627 -0.23761994831535782 0.39287579581141474 0.5550639790050762 -0.18771746296925765 0.14252534026144356 0.80982670072270069 0.11691072106361389 0.082171957524932504 -0.020371581203490498 0.15047792236838076 0.13191939986739501 0.57781351735958697 -0.84380621739796224 -0.057948341486821146 -0.76611988725084246 0.47703685859037992 -0.19118069037795068 -0.074045348745050407
leaf_weight=20 85 27 20 168 24 20 225 22 64 2621 20 285 1501 25 97 380 302 76 25 123 4375 90 578 26 21 953 33 62 96 618
leaf_count=20 85 27 20 168 24 20 225 22 64 2621 20 285 1501 25 97 380 302 76 25 123 4375 90 578 26 21 953 33 62 96 618
internal_value=-3.22716e-11 -0.0480104 0.133648 0.146539 0.798802 -0.00664405 -0.128076 0.137781 0.430201 0.120486 0.0916069 0.28885 -0.127245 -0.255546 0.321542 -0.10432 -0.00274449 0.0154781 0.232069 0.36007 0.00499724 0.347066 -0.00259969 -0.132496 -0.321677 -0.041064 -0.233934 -0.171807 0.0710313 -0.189914
internal_weight=12982 9551 3431 3321 44 6275 967 3277 183 3094 2641 453 3276 110 161 940 527 5308 245 199 5063 110 4953 3256 46 979 413 2277 158 2119
internal_count=12982 9551 3431 3321 44 6275 967 3277 183 3094 2641 453 3276 110 161 940 527 5308 245 199 5063 110 4953 3256 46 979 413 2277 158 2119
is_linear=0
shrinkage=0.05


Tree=31
num_leaves=31
num_cat=0
split_feature=92 39 21 167 87 83 83 9 79 148 21 180 77 145 74 79 82 73 92 67 84 120 86 9 81 3 121 60 102 177
split_gain=19400.3 9673.72 8634.61 7990.46 8085 7858.1 7208.13 8492.85 6765.89 7625.9 6724.04 6572.35 9231.73 8332.03 6633.95 6369.18 6282 11331.3 6186.12 6002.19 5725.19 5436.84 9197.51 5308.92 4978.58 5263.68 5497.63 5152.85 4717.11 4432.19
threshold=30.750000000000004 -1.0000000180025095e-35 50.500000000000007 18.200000000000003 72650.000000000015 -9.4999999999999982 -45.833333333333321 -55149.999999999993 35716.666666666679 0.33500000834465032 11.500000000000002 14.500000000000002 16.289055630494151 -0.99999999999999989 57.300000000000004 -26083.333333333332 75.500000000000014 65.500000000000014 37.750000000000007 95.500000000000014 44.500000000000007 0.38499999046325689 298850.00000000006 66950.000000000015 37.675438596491233 1.5000000000000002 0.88499999046325695 27.500000000000004 -2.4999999999999996 0.63499999046325695
decision_type=2 2 2 10 8 8 10 2 10 10 2 2 10 8 8 10 2 8 2 10 8 8 8 2 10 2 10 8 10 10
left_child=10 8 3 4 23 -6 7 -5 11 -10 -1 12 14 -14 -2 -13 21 -18 -8 24 -19 22 -4 -3 27 28 -27 -12 -26 -29
right_child=1 2 16 6 5 -7 18 -9 9 -11 19 15 13 -15 -16 -17 17 20 -20 -21 -22 -23 -24 -25 25 26 -28 29 -30 -31
leaf_value=-0.31223000028797432 0.81911894026256749 0.032261288915209123 0.72810589863408004 -0.14710493924156312 0.083776541301985252 -0.17560885721299235 0.45482328329573979 0.84274269000420154 0.091334947036660244 1.2773456926598694 -0.14629720774543237 0.54010901519407828 0.47594967266687987 1.4950358744020817 -0.19935611739490572 -0.1062638140167739 1.5378021416339009 0.027935366097249482 0.05476458996393771 0.77053607864813367 0.68755981249028242 0.25258639884247847 -0.20249871906396508 0.81164286346598102 0.23134854538021266 0.025883482306383217 -0.73469445519149312 -0.024327466375364069 -0.2801018950375882 0.7272126352041961
leaf_weight=263 21 3199 31 31 403 1060 110 72 23 33 2051 48 78 27 67 185 22 76 795 22 58 336 185 22 54 2366 24 1027 273 20
leaf_count=263 21 3199 31 31 403 1060 110 72 23 33 2051 48 78 27 67 185 22 76 795 22 58 336 185 22 54 2366 24 1027 273 20
internal_value=-1.9732e-11 0.0575454 0.0412771 0.0207945 -0.00668733 -0.104158 0.148498 0.544827 0.273556 0.790234 -0.0649226 0.205636 0.421423 0.738 0.0436891 0.0268945 0.205948 0.48611 0.103391 -0.0537795 0.313444 0.126772 -0.0689397 0.0375846 -0.0568982 -0.00749626 0.0182459 -0.100225 -0.195642 -0.0099714
internal_weight=12982 6882 6400 5692 4684 1463 1008 103 482 56 6100 426 193 105 88 233 708 156 905 5837 134 552 216 3221 5815 2717 2390 3098 327 1047
internal_count=12982 6882 6400 5692 4684 1463 1008 103 482 56 6100 426 193 105 88 233 708 156 905 5837 134 552 216 3221 5815 2717 2390 3098 327 1047
is_linear=0
shrinkage=0.05


Tree=32
num_leaves=31
num_cat=0
split_feature=91 91 63 5 112 5 92 69 69 170 3 173 81 0 90 129 91 78 42 86 88 157 168 140 88 162 78 87 29 90
split_gain=28527.1 9590.85 8632.61 9393.83 8547.03 7322.12 8636.89 7044.51 6475.93 6307.32 5952.44 6624.48 7100.19 6589.73 6564.59 5972.06 5555.29 4470.92 8375.47 7172.95 5622.55 5065.03 5352.67 5004.71 4926.63 4509.25 7285.19 3686.85 3299.53 3516.77
threshold=44.877691511387169 54.654328893442631 6.5000000000000009 67.500000000000014 11.500000000000002 73.500000000000014 11.750000000000002 37650.000000000007 8850.0000000000018 1.0000000180025095e-35 -20.499999999999996 -1.7999999999999998 69.050000000000011 192350.00000000003 43.908788293517667 16.500000000000004 33.741935483870975 27.590759307764301 16.500000000000004 425900.00000000006 4018.6688311688317 3.1000000000000005 5.1000000000000005 3.8333333333333335 10107.34006734007 0.6000000000000002 39.129272595781693 -6049.9999999999991 49.500000000000007 50.154059854186272
decision_type=2 2 10 2 10 2 2 10 10 10 2 10 10 2 2 10 2 8 2 10 2 8 10 10 2 10 10 8 10 2
left_child=16 10 5 8 7 -3 -7 -5 -4 -8 28 13 14 -12 -13 -15 -1 19 25 21 -20 23 -23 -18 -22 26 -19 -27 29 -2
right_child=1 2 3 4 -6 6 9 -9 -10 -11 11 12 -14 15 -16 -17 17 18 20 -21 24 22 -24 -25 -26 27 -28 -29 -30 -31
leaf_value=-0.26356438254453962 -0.34743833297385424 -0.36851304384677308 0.35444176738912408 0.21148807217250998 0.98537326418992244 0.99808497329552981 -0.024942406599289771 -0.11237107422495388 1.5975798112154007 0.60754564820333978 -0.34856116800696002 0.20094677278425843 0.68790727763464954 0.074443557853037509 -0.086266912778427046 0.3937644354466881 0.40672171516683853 -0.16220955142278126 0.9047861963510514 -0.2700820449877912 -0.053499773460807226 -0.082741461612501843 0.093479371342926568 0.02340092045731015 0.61374040850571232 0.0078997772932052606 0.36105051913123204 -0.80263473467623947 -0.85159837549382988 0.24680282689411853
leaf_weight=416 93 115 22 1389 33 24 473 191 20 43 88 226 33 2976 1662 154 137 1850 24 283 132 1549 597 225 35 20 69 47 22 34
leaf_count=416 93 115 22 1389 33 24 473 191 20 43 88 226 33 2976 1662 154 137 1850 24 283 132 1549 597 225 35 20 69 47 22 34
internal_value=2.58122e-10 0.0623923 0.147386 0.208194 0.188972 -0.00625688 0.0708903 0.172338 0.946412 0.0277649 0.0252636 0.0342965 -0.0391779 0.0781574 -0.0518865 0.0901546 -0.0880491 -0.0733522 -0.127059 -0.0314606 0.189182 -0.00453479 -0.0337182 0.16847 0.086341 -0.157473 -0.143395 -0.560684 -0.286279 -0.18835
internal_weight=12982 7598 2310 1655 1613 655 540 1580 42 516 5288 5139 1921 3218 1888 3130 5384 4968 2177 2791 191 2508 2146 362 167 1986 1919 67 149 127
internal_count=12982 7598 2310 1655 1613 655 540 1580 42 516 5288 5139 1921 3218 1888 3130 5384 4968 2177 2791 191 2508 2146 362 167 1986 1919 67 149 127
is_linear=0
shrinkage=0.05


Tree=33
num_leaves=31
num_cat=0
split_feature=91 91 121 44 78 149 53 3 80 111 155 79 84 80 33 175 145 70 90 61 157 27 111 10 77 80 6 20 102 157
split_gain=25999.1 8525.66 7557.41 7374.85 9479.78 6220.49 8148.2 8451.59 8102.86 6050.16 6164.23 5714.71 6003.78 5180.61 5131.74 5081.31 5061.76 5046.98 8043.71 5329.52 5044.98 5039.05 4706.67 4511.3 5644.52 6015.9 4745.75 4630.08 3801.4 3643.39
threshold=51.036646897406399 40.271541950113381 0.5249999761581422 9.0000000000000018 12.946041290044265 0.62333336472511303 5.5000000000000009 22.500000000000004 6.0000000000000027 27.000000000000004 1.0000000180025095e-35 -17049.999999999996 -82.499999999999986 -40.16666666666665 5.5000000000000009 81.90000000000002 -2.3333333333333326 7450.0000000000009 50.030679251945379 1.5000000000000002 5.1000000000000005 61.250000000000007 17.000000000000004 83.500000000000014 15.307950004273385 -3.6666666666666692 0.64967548847198497 0.43500000238418585 -1.4999999999999998 15.300000000000002
decision_type=2 2 8 2 8 10 2 2 10 10 10 10 10 8 2 10 8 8 2 10 10 8 10 10 10 8 2 2 10 10
left_child=1 29 9 4 -4 6 22 -8 -7 10 13 16 -13 28 20 23 -6 19 -19 -16 -11 -15 -5 24 27 -26 -25 -3 -2 -1
right_child=2 15 3 5 11 8 7 -9 -10 14 -12 12 -14 21 17 -17 -18 18 -20 -21 -22 -23 -24 26 25 -27 -28 -29 -30 -31
leaf_value=-0.12527739687942394 1.0003049144787448 -0.10874480271799875 0.73994773664709301 -0.030323578080251101 0.41190612000046356 -0.031222359033731314 1.0933159893558873 0.094848589952201107 1.1205638239512572 0.34548788819341891 0.95103317119858488 -0.96172365709873187 -0.20314188853610218 0.11648095706330255 0.74982548588659714 -0.53465808009107907 -0.069136976775330802 0.4964177074639694 1.6975099536031486 0.021847369762567376 -0.67307810902595522 -0.19163096319053241 -0.78919289360443756 0.42811870972315474 0.16289302528907901 -0.0025479764120694345 -0.37576742477153674 0.011995653027708653 0.16880483787368847 -0.4895128401652189
leaf_weight=2080 28 1843 33 84 66 26 31 67 37 31 22 28 381 2928 41 48 319 46 20 65 20 139 27 21 735 2177 146 1395 27 71
leaf_count=2080 28 1843 33 84 66 26 31 67 37 31 22 28 381 2928 41 48 319 46 20 65 20 139 27 21 735 2177 146 1395 27 71
internal_value=-1.48577e-10 -0.0512413 0.0977095 -0.016137 -0.0904183 0.209711 0.0784319 0.41069 0.645223 0.134869 0.117019 -0.12493 -0.255074 0.111142 0.386533 -0.0221584 0.0133276 0.517141 0.860385 0.303424 -0.0539498 0.102517 -0.214913 -0.0182642 -0.0113014 0.03921 -0.27468 -0.0567272 0.592114 -0.1373
internal_weight=12982 8516 4466 1099 827 272 209 98 63 3367 3144 794 409 3122 223 6365 385 172 66 106 51 3067 111 6317 6150 2912 167 3238 55 2151
internal_count=12982 8516 4466 1099 827 272 209 98 63 3367 3144 794 409 3122 223 6365 385 172 66 106 51 3067 111 6317 6150 2912 167 3238 55 2151
is_linear=0
shrinkage=0.05


Tree=34
num_leaves=31
num_cat=0
split_feature=91 91 71 5 177 81 68 87 173 144 148 158 111 149 25 112 83 101 171 179 102 52 14 176 77 173 102 83 64 43
