tree
version=v4
num_class=1
num_tree_per_iteration=1
label_index=0
max_feature_idx=180
objective=regression
feature_names=Column_0 Column_1 Column_2 Column_3 Column_4 Column_5 Column_6 Column_7 Column_8 Column_9 Column_10 Column_11 Column_12 Column_13 Column_14 Column_15 Column_16 Column_17 Column_18 Column_19 Column_20 Column_21 Column_22 Column_23 Column_24 Column_25 Column_26 Column_27 Column_28 Column_29 Column_30 Column_31 Column_32 Column_33 Column_34 Column_35 Column_36 Column_37 Column_38 Column_39 Column_40 Column_41 Column_42 Column_43 Column_44 Column_45 Column_46 Column_47 Column_48 Column_49 Column_50 Column_51 Column_52 Column_53 Column_54 Column_55 Column_56 Column_57 Column_58 Column_59 Column_60 Column_61 Column_62 Column_63 Column_64 Column_65 Column_66 Column_67 Column_68 Column_69 Column_70 Column_71 Column_72 Column_73 Column_74 Column_75 Column_76 Column_77 Column_78 Column_79 Column_80 Column_81 Column_82 Column_83 Column_84 Column_85 Column_86 Column_87 Column_88 Column_89 Column_90 Column_91 Column_92 Column_93 Column_94 Column_95 Column_96 Column_97 Column_98 Column_99 Column_100 Column_101 Column_102 Column_103 Column_104 Column_105 Column_106 Column_107 Column_108 Column_109 Column_110 Column_111 Column_112 Column_113 Column_114 Column_115 Column_116 Column_117 Column_118 Column_119 Column_120 Column_121 Column_122 Column_123 Column_124 Column_125 Column_126 Column_127 Column_128 Column_129 Column_130 Column_131 Column_132 Column_133 Column_134 Column_135 Column_136 Column_137 Column_138 Column_139 Column_140 Column_141 Column_142 Column_143 Column_144 Column_145 Column_146 Column_147 Column_148 Column_149 Column_150 Column_151 Column_152 Column_153 Column_154 Column_155 Column_156 Column_157 Column_158 Column_159 Column_160 Column_161 Column_162 Column_163 Column_164 Column_165 Column_166 Column_167 Column_168 Column_169 Column_170 Column_171 Column_172 Column_173 Column_174 Column_175 Column_176 Column_177 Column_178 Column_179 Column_180
feature_infos=[113800:1079700] [5:90] [3:180] [-130:252] [0:1.2999999523162842] [6:89] [-0.5:3.6700000762939453] [-264100:455200] [0:23] [-95100:144600] [-6:208] [-3:174] [0:143] [0:85] [0:83] [0:0] [0:0] [0:0] [0:0] [-0.10999999940395355:1.2999999523162842] [-0.10999999940395355:1.7000000476837158] [-1:74] [0:0] [0:0] [0:0] [0:100] [0:300] [0:100] [0:100] [0:300] [-1:56] [-6:83] [-6:118] [0:64] [-18:0] [0:51] [0:60] [0:20] [0:40] [-10:0] [0:15] [-5:0] [0:52] [-12:0] [0:26] [0:36] [0:20] [0:6] [0:40] [0:56] [0:20] none [0:28] [0:14] [0:9] [0:10] [-9:0] [-8:0] [-14:0] [-8:0] [-1:56] [-6:83] [-6:118] [0:52] [-18:0] none [-12:225] [-12:225] [-5:225] [-95100:144600] [-95100:144600] [-12:225] [-12:225] [-3:176] [7.4000000000000004:144.40000000000001] [-3:174] [7.4000000000000004:143.19999999999999] [0.57735026918952781:90.334563337259425] [3.5071355833500362:75.24293986813646] [-73933.333333333328:110666.66666666667] [-82:85.666666666666686] [1:180] [-195:262] [-119.66666666666667:149.66666666666666] [-195:262] [0:3] [113800:841000] [-262500:431300] [1264.4444444444443:142433.33333333334] none [41.361842105263158:56.75] [21:79.094674556213022] [1:27] [1:27] [0:51] [0:60] [0:20] [0:40] [-10:0] [0:10] [-5:0] [0:51] [-12:0] [0:24] [0:36] [0:20] [0:6] [0:40] [0:56] [0:20] [0:8] [0:28] [0:14] [0:9] [0:10] [-9:0] [-8:0] [-14:0] [-8:0] [0:90] [-0.10999999940395355:2] [0:1.2999999523162842] [0:28.333333333333332] [0:36] [0:16] [0:34.666666666666664] [-6:0] [0:6.666666666666667] [-2.3333333333333335:0] [0:43.666666666666664] [-8.3333333333333339:0] [0:16.666666666666668] [0:20] [0:14.666666666666666] [0:2.6666666666666665] [0:20] [0:29.333333333333332] [0:6.666666666666667] [0:5.333333333333333] [0:20] [0:9.6666666666666661] [0:4] [0:3.3333333333333335] [-5:0] [-5.333333333333333:0] [-9.3333333333333339:0] [-5.333333333333333:0] [7.666666666666667:85] [0:1] [0.0066666663624346256:1.1233333349227905] [0:23.800000000000001] [0:31.199999999999999] [0:11.199999999999999] [0:28.800000000000001] [-5.2000000000000002:0] [0:5] [-1.3999999999999999:0] [0.40000000000000002:39.200000000000003] [-6.7999999999999998:0] [0:11.6] [0:14.4] [0:10.4] [0:2] [0:16] [0:22.399999999999999] [0:6] [0:3.2000000000000002] [0:19.600000000000001] [0:8.5999999999999996] [0:2.3999999999999999] [0:3] [-3.6000000000000001:0] [-5.2000000000000002:0] [-8.4000000000000004:0] [-3.2000000000000002:0] [14.800000000000001:84.200000000000003] [0:1] [0.051999997347593307:1.031999945640564] none [7:23] [7:23]
tree_sizes=2665 2737 2744 2731 2740 2747 2728 2730 2725 2727 2747 2771 2758 2753 2759 2738 2761 2767 2772 2732 2766 2757 2767 2769 2768 2764 2763 2768

Tree=0
num_leaves=31
num_cat=0
split_feature=91 1 0 91 91 69 129 152 0 5 38 111 87 2 27 13 72 19 175 79 86 72 3 21 149 122 145 107 125 121
split_gain=401619 77578.3 72705.1 33676.3 28986.8 23437.2 13592.3 13688.6 12736.9 11881.7 11369.9 8804.86 10246.1 8608.93 7565.42 7548.93 7183.24 7172.14 8603.73 6662.73 6618.51 5794.48 5679.25 5615.89 5294.99 5233.06 5253.87 5140.44 4755.02 4605.4
threshold=52.80071206052515 61.500000000000007 711800.00000000012 64.361418047882154 38.699014011416715 17450.000000000004 12.833333333333334 1.0000000180025095e-35 425950.00000000006 80.500000000000014 22.000000000000004 11.000000000000002 115550.00000000001 41.500000000000007 6.7500000000000009 61.500000000000007 83.500000000000014 0.30500000715255743 78.300000000000026 2550.0000000000005 266700.00000000006 88.500000000000014 56.500000000000007 20.500000000000004 0.4850000143051148 8.5000000000000018 -3.6666666666666665 1.0000000180025095e-35 10.000000000000002 0.39499999582767492
decision_type=2 2 2 2 2 8 10 10 2 2 2 10 8 2 8 10 10 2 8 8 10 10 2 2 8 10 8 10 10 8
left_child=1 15 3 11 29 10 8 14 -5 -9 16 17 -13 25 -8 23 -4 18 -2 -19 28 -7 -10 -1 -17 26 -6 -22 -15 -3
right_child=2 4 5 6 13 21 7 9 22 -11 -12 12 -14 20 -16 24 -18 19 -20 -21 27 -23 -24 -25 -26 -27 -28 -29 -30 -31
leaf_value=48.74106088178516 50.886577097847969 49.153525000952783 51.386577106465808 51.44173583876362 50.302594425379496 50.488958069944417 51.288958045291579 51.584653413235415 49.994315204593221 50.427419607078654 53.450321630769324 51.900862799747976 50.338958072381978 49.718450254775988 50.595397459800097 49.084958073636514 52.640958035370332 50.433785654113784 50.380063833140227 49.916196867741668 49.991438225470986 51.557291381021962 50.611931032582525 49.232083073093555 50.176458071133119 50.341988363294604 49.650335938577818 50.323168586706352 50.518958067109807 49.523021814047581
leaf_weight=214 105 127 21 36 33 22 56 151 56 26 22 21 21 256 132 25 25 116 416 134 504 30 111 80 20 33 479 152 20 251
leaf_count=214 105 127 21 36 33 22 56 151 56 26 22 21 21 256 132 25 25 116 416 134 504 30 111 80 20 33 479 152 20 251
internal_value=50.0936 49.6625 50.7239 50.6213 49.7896 51.9044 50.9167 51.0991 50.5887 51.4147 52.5154 50.4149 51.1199 49.8896 50.802 48.967 52.0683 50.3765 50.4821 50.1564 49.9819 51.1053 50.4048 48.8747 49.5701 49.7317 49.6924 50.0683 49.7765 49.3989
internal_weight=3695 2194 1501 1381 1855 120 568 365 203 177 68 813 42 1477 188 339 46 771 521 250 932 52 167 294 45 545 512 656 276 378
internal_count=3695 2194 1501 1381 1855 120 568 365 203 177 68 813 42 1477 188 339 46 771 521 250 932 52 167 294 45 545 512 656 276 378
is_linear=0
shrinkage=1


Tree=1
num_leaves=31
num_cat=0
split_feature=91 1 91 91 91 37 152 9 180 79 122 130 109 81 111 71 19 9 3 13 77 27 87 66 26 62 66 21 10 121
split_gain=362461 70014.5 64051.4 26160.6 24391.5 15537.6 12474.6 10602.7 10150 18438.4 9648.87 8092.87 9131.1 8045.19 7751.26 10973.4 7168.31 8617.99 7056.57 6812.91 6613.64 6565.25 5805.49 5450.85 6222.32 5421.29 5248.4 5068.34 4959.66 4156.37
threshold=52.80071206052515 61.500000000000007 72.454390451832921 38.699014011416715 64.361418047882154 1.0000000180025095e-35 2.8000000000000003 -32849.999999999993 17.500000000000004 5816.666666666667 1.0000000180025095e-35 -0.83333333333333315 1.0000000180025095e-35 55.183333333333344 11.000000000000002 44.500000000000007 0.30500000715255743 53300.000000000007 84.500000000000014 61.500000000000007 18.538240028537256 5.4500000476837167 -45449.999999999993 38.500000000000007 63.049999237060554 47.500000000000007 89.500000000000014 20.500000000000004 31.500000000000004 0.39499999582767492
decision_type=2 2 2 2 2 2 10 2 2 8 10 8 10 10 10 10 2 2 2 10 10 10 8 10 8 10 8 2 10 8
left_child=1 19 4 29 14 7 11 -4 9 -7 -8 12 -6 25 16 -16 17 -2 -13 27 -21 -9 -18 -15 -25 28 -23 -1 -5 -3
right_child=2 3 5 13 6 8 10 21 -10 -11 -12 18 -14 23 15 -17 22 -19 -20 20 -22 26 -24 24 -26 -27 -28 -29 -30 -31
leaf_value=-1.2849502576497671 0.33914333730348234 -0.89310932530192888 2.1161901050806047 -0.42639971529895615 0.85692349234453202 2.4417109923064708 2.1836604858636859 1.4745058944592111 2.8932237575451536 0.50997885408855625 0.8896887860753957 -0.034432897603873053 -0.24535827279090883 0.66379013928500097 1.8225996849313379 0.20437242470004341 0.49707263769774601 1.3287055562371792 0.75760466000255278 -1.0902239669924199 0.12238619706847452 0.087973973539567762 -0.073058493324008197 0.066480756079816683 -0.8035415684743582 0.49768118001520634 1.1117256476765587 -0.81847913054749366 -0.19889176166403266 -0.54208734016494453
leaf_weight=214 507 127 20 330 310 30 25 26 24 21 34 66 20 33 20 22 58 23 49 23 22 31 194 193 23 24 21 80 874 251
leaf_count=214 507 127 20 330 310 30 25 26 24 21 34 66 20 33 20 22 58 23 49 23 22 31 194 193 23 24 21 80 874 251
internal_value=3.74356e-11 -0.409605 0.598717 -0.288859 0.480829 1.50366 0.754822 1.08913 2.04531 1.64629 1.43798 0.664245 0.790119 -0.193869 0.313241 0.974957 0.277702 0.382087 0.303044 -1.07033 -0.497392 0.825777 0.0581622 0.0652787 -0.0261605 -0.246416 0.501412 -1.15802 -0.261249 -0.660023
internal_weight=3695 2194 1501 1855 1328 173 504 98 75 51 59 445 330 1477 824 42 782 530 115 339 45 78 252 249 216 1228 52 294 1204 378
internal_count=3695 2194 1501 1855 1328 173 504 98 75 51 59 445 330 1477 824 42 782 530 115 339 45 78 252 249 216 1228 52 294 1204 378
is_linear=0
shrinkage=0.05


Tree=2
num_leaves=31
num_cat=0
split_feature=91 91 2 91 91 64 86 121 77 161 5 73 69 83 120 120 19 92 78 91 148 176 53 28 14 75 86 145 161 157
split_gain=327121 57806.4 44223.3 22013.3 16205.6 15630.8 13025.3 11654.1 11495 14475.3 10168.8 9360.32 8891.84 8140.2 7584.49 7365.39 6590.1 6646.15 7668.75 6257.39 6209.12 11245.2 6467.74 6016.77 7110.75 7317.58 5829.97 5828.32 5737.68 5071.89
threshold=52.80071206052515 72.454390451832921 36.500000000000007 64.361418047882154 39.313272093759906 -3.4999999999999996 622200.00000000012 0.27500000596046453 22.605309110914639 3.6000000000000005 69.500000000000014 81.500000000000014 18850.000000000004 34.166666666666679 0.17500000447034839 0.32500000298023229 0.30500000715255743 18.500000000000004 24.979991672824053 42.388939393939403 0.21666666865348819 0.27100001275539404 1.5000000000000002 6.8999998569488534 79.500000000000014 38.166666666666679 448650.00000000006 -2.9999999999999996 1.2000000000000004 13.700000000000001
decision_type=2 2 2 2 2 8 8 8 10 10 2 8 10 10 10 10 2 2 10 2 10 10 2 10 8 8 10 8 8 10
left_child=2 3 5 16 -4 14 29 -8 20 11 13 -10 15 -7 -1 -9 17 18 -2 -16 22 -22 -5 26 -25 -26 -6 -18 -28 -3
right_child=1 6 4 8 23 10 7 12 9 -11 -12 -13 -14 -15 19 -17 27 -19 -20 -21 21 -23 -24 24 25 -27 28 -29 -30 -31
leaf_value=-0.74289962031223167 0.30336524164995032 0.2565005405495564 -0.61206470687601555 -0.30659687487702625 -0.2995281187006345 -1.1232870425862165 2.8305959939956669 1.300079232409145 0.50885681107640268 2.0374115604907277 -0.61341201245845101 1.1772448929995301 0.79010531847675647 -0.077601026743650436 -0.32490027107555292 2.3564731163734738 0.51728512315894482 -0.27878478327218226 0.71057653243399477 0.5072725946838792 1.2539492774626304 0.33955433746799829 0.47132907498213977 -0.29854412015887999 -0.47990887734023008 0.21674761281918889 -0.40771054267883305 -0.026843784053420795 0.38633896634555787 1.2117785341811904
leaf_weight=54 337 24 243 38 705 268 20 33 110 28 247 100 30 20 58 33 64 34 176 37 58 80 90 155 44 263 35 213 65 33
leaf_count=54 337 24 243 38 705 268 20 33 110 28 247 100 30 20 58 33 64 34 176 37 58 80 90 155 44 263 35 213 65 33
internal_value=-1.40482e-09 0.568781 -0.389125 0.456788 -0.238041 -0.722657 1.42847 1.7326 0.717081 0.969522 -0.848796 0.827137 1.50385 -1.05067 -0.269743 1.82828 0.297579 0.398203 0.443071 -0.000790839 0.491212 0.723865 0.240382 -0.166307 -0.0224799 0.116901 -0.248851 0.0988755 0.108422 0.809556
internal_weight=3695 1501 2194 1328 1510 684 173 116 504 238 535 210 96 288 149 66 824 547 513 95 266 138 128 1267 462 307 805 277 100 57
internal_count=3695 1501 2194 1328 1510 684 173 116 504 238 535 210 96 288 149 66 824 547 513 95 266 138 128 1267 462 307 805 277 100 57
is_linear=0
shrinkage=0.05


Tree=3
num_leaves=31
num_cat=0
split_feature=91 1 91 91 91 83 144 4 152 71 71 69 81 109 130 175 64 78 102 108 42 84 32 29 75 125 119 27 11 63
split_gain=295227 58604.9 52170.2 21437.3 19867 12074.5 14230.8 12486.9 10712.7 13509.8 7282.58 7255.7 6775.81 6576.64 8252.29 6260.38 8520.14 7909.61 7702.62 7328.97 6382.19 5534.57 5156.5 5123.02 5136.87 5046.68 4958.67 4702.83 4553.36 3887.31
threshold=52.80071206052515 61.500000000000007 72.454390451832921 38.699014011416715 64.361418047882154 -21.833333333333332 -0.99999999999999989 0.41499999165534979 2.0000000000000004 112.50000000000001 12.500000000000002 9250.0000000000018 55.183333333333344 1.0000000180025095e-35 -0.83333333333333315 79.90000000000002 -1.4999999999999998 11.985398900658168 -4.4999999999999991 12.000000000000002 11.500000000000002 5.5000000000000009 25.500000000000004 93.500000000000014 51.500000000000007 7.3333333333333348 24.500000000000004 7.4500000476837167 26.500000000000004 8.5000000000000018
decision_type=2 2 2 2 2 8 8 10 10 8 8 10 10 10 8 8 8 8 10 8 2 8 2 8 8 10 10 10 10 10
left_child=1 23 4 -3 15 6 -4 21 13 11 -5 -10 25 14 -6 18 17 -17 -2 -18 -20 -7 -14 24 -1 -12 -26 -8 -25 -23
right_child=2 3 5 10 8 7 27 -9 9 -11 12 -13 22 -15 -16 16 19 -19 20 -21 -22 29 -24 28 26 -27 -28 -29 -30 -31
leaf_value=-0.94353128414346576 1.1916625138691495 -0.59518896735140259 0.89454153742302545 -1.0761160654100506 0.75843727150075968 2.1705224235852558 3.0199018630385401 0.4373063856735826 1.2775999502967235 2.3011990588903428 -0.24134977951503683 0.34396171295329148 0.24597661934593426 -0.27669637690890919 0.23836253618575493 -0.65797340537731852 0.69241982463747265 0.14659141720682745 1.0775103939431054 -0.11723171174526215 0.25768316949789344 1.6808875608444216 -0.23540861613610212 -1.3753917668629621 -0.84062198888171802 0.10685002461723658 0.24718285925686359 1.935601975917816 -0.70050668933174831 0.7177404428070242
leaf_weight=161 35 378 22 22 272 21 20 48 46 20 1094 38 161 22 106 33 125 411 28 36 156 20 85 103 22 115 20 20 33 22
leaf_count=161 35 378 22 22 272 21 20 48 46 20 1094 38 161 22 106 33 125 411 28 36 156 20 85 103 22 115 20 20 33 22
internal_value=-6.52827e-10 -0.369669 0.540342 -0.259198 0.433948 1.35705 1.91597 1.04486 0.681227 1.13331 -0.17321 0.85524 -0.159558 0.563685 0.612596 0.2827 0.199782 0.0867927 0.511767 0.51138 0.382439 1.50776 0.0796443 -0.974161 -0.815067 -0.208229 -0.32262 2.47775 -1.21163 1.17638
internal_weight=3695 2194 1501 1855 1328 173 62 111 504 104 1477 84 1455 400 378 824 605 444 219 161 184 63 246 339 203 1209 42 40 136 42
internal_count=3695 2194 1501 1855 1328 173 62 111 504 104 1477 84 1455 400 378 824 605 444 219 161 184 63 246 339 203 1209 42 40 136 42
is_linear=0
shrinkage=0.05


Tree=4
num_leaves=31
num_cat=0
split_feature=91 1 0 91 91 144 157 38 153 27 64 86 84 111 71 71 70 81 48 32 14 87 79 96 62 93 63 91 79 32
split_gain=266442 52891 51136.3 20228.8 19347.2 12711.8 12265.7 9056.63 12586.4 10786.4 12946.1 9126.07 7516.42 6978.71 9814.36 6572.53 6547.97 6115.17 5918.7 6623.51 5511.01 5334.09 5288.1 4648.96 4594.91 4094.72 3880.05 3854.08 5389.75 3720.03
threshold=52.80071206052515 61.500000000000007 697350.00000000012 64.361418047882154 38.699014011416715 -0.99999999999999989 17.700000000000006 1.0000000180025095e-35 5.2000000000000002 12.050000190734865 -5.4999999999999991 538600.00000000012 -59.499999999999993 11.000000000000002 44.500000000000007 12.500000000000002 6350.0000000000009 55.183333333333344 1.0000000180025095e-35 6.5000000000000009 77.500000000000014 20550.000000000004 27716.666666666668 1.0000000180025095e-35 47.500000000000007 10.250000000000002 1.5000000000000002 37.932236842105276 -449.99999999999994 35.500000000000007
decision_type=2 2 2 2 2 8 10 2 8 8 10 10 8 10 10 8 8 10 2 2 10 8 8 10 10 2 10 2 8 2
left_child=1 23 3 13 25 -4 12 8 11 10 -9 -5 -7 18 -15 -6 -11 24 21 -20 -10 -2 -19 26 -17 -3 -1 -28 -29 -14
right_child=2 4 5 7 15 6 -8 9 20 16 -12 -13 29 14 -16 17 -18 22 19 -21 -22 -23 -24 -25 -26 -27 27 28 -30 -31
leaf_value=-1.1608455834958036 0.42791857881362261 -0.66547138576220344 0.60331614446459403 0.33263146955519918 -1.0223102719946342 2.1471212057840257 2.5607378627023394 2.0893712850411736 0.25389796789433505 0.82276625814537219 0.91407577339733881 1.0725188347286192 0.62645786062434872 1.6927709168195726 0.1623907587744973 -0.21168967148391254 0.14149692222989838 0.21313172806422789 -0.52107422836124895 0.15893516567476251 -0.5402174546833961 0.11639256855731855 -0.31526716207154099 -0.3616182850617351 0.48711703891555475 -0.29472800757662926 -1.0449590757300582 -0.87860180952332245 0.018776211032161007 1.5261522126197815
leaf_weight=156 358 276 33 80 22 21 31 30 74 90 107 87 27 20 22 1185 58 182 48 141 31 223 64 33 24 102 79 44 27 20
leaf_count=156 358 276 33 80 22 21 31 30 74 90 107 87 27 20 22 1185 58 182 48 141 31 223 64 33 24 102 79 44 27 20
internal_value=-1.54453e-09 -0.351185 0.513325 0.422704 -0.246238 1.45318 1.73646 0.654766 0.448387 0.85173 1.17144 0.718082 1.36069 0.263518 0.891143 -0.164549 0.555782 -0.15158 0.229284 -0.0137656 0.0194448 0.308348 0.0756621 -0.925453 -0.197818 -0.56543 -0.986259 -0.804689 -0.537345 1.00931
internal_weight=3695 2194 1501 1369 1855 132 99 557 272 285 137 167 68 812 42 1477 148 1455 770 189 105 581 246 339 1209 378 306 150 71 47
internal_count=3695 2194 1501 1369 1855 132 99 557 272 285 137 167 68 812 42 1477 148 1455 770 189 105 581 246 339 1209 378 306 150 71 47
is_linear=0
shrinkage=0.05


Tree=5
num_leaves=31
num_cat=0
split_feature=91 1 91 91 37 70 10 116 2 180 79 68 9 3 164 70 27 71 66 157 50 13 91 88 150 31 88 4 156 21
split_gain=240898 52414.8 36314.9 21509.4 11861.9 10138.8 9970.18 9939.46 9501.06 8993.85 15679 8548.17 8468.65 9470.01 8629.9 8348.51 7469.94 6951.75 6273.2 7291.92 6530.81 6193.96 6635.1 5649.9 4995.02 5725.82 4915.42 4281.89 5408.71 4087.85
threshold=55.118700667881001 61.500000000000007 72.454390451832921 40.546296296296305 1.0000000180025095e-35 -1849.9999999999998 98.500000000000014 -1.0000000180025095e-35 38.500000000000007 17.500000000000004 5816.666666666667 109.50000000000001 67800.000000000015 84.500000000000014 7.2000000000000011 25950.000000000004 4.2500000000000009 62.500000000000007 66.500000000000014 12.300000000000002 1.0000000180025095e-35 61.500000000000007 42.595806451612908 6133.666666666667 1.0000000180025095e-35 5.5000000000000009 9850.7812500000018 0.31499999761581426 -1.0000000180025095e-35 20.500000000000004
decision_type=2 2 2 2 2 8 10 10 2 2 8 8 2 2 10 10 10 8 10 8 2 10 2 2 10 2 2 10 8 2
left_child=1 21 5 24 11 6 7 17 27 10 -6 16 13 14 -7 -15 -4 -2 20 -20 -10 29 -23 -9 25 -3 -26 -5 -29 -1
right_child=2 3 4 8 9 12 -8 23 18 -11 -12 -13 -14 15 -16 -17 -18 -19 19 -21 -22 22 -24 -25 26 -27 -28 28 -30 -31
leaf_value=-1.0590079574546685 1.5451524447750402 -0.70909701472860276 1.3990749806165697 -0.60173362968576571 2.0614154132207236 0.032439360246762965 1.6176341567039492 -0.16042053798834485 -0.13117685641446333 2.5016952782869342 0.28008446977252055 1.6253238150367029 1.3243713549205236 0.7277387383393944 0.61322908375412233 0.14948700119006006 0.25893625205053999 0.70385198497392043 -0.56067368383369132 0.25215271502525444 0.55526208082834883 -0.84015903296294037 0.36140166983008387 0.51280795407224578 -0.36472669804225799 -0.26836490473773295 0.46722352125427941 0.50678798588721652 -0.29770555362562862 -0.64301842931244113
leaf_weight=218 37 259 20 107 30 319 25 36 924 24 21 27 21 182 80 95 51 73 31 251 36 27 20 232 92 103 22 23 228 81
leaf_count=218 37 259 20 107 30 319 25 36 924 24 21 27 21 182 80 95 51 73 31 251 36 27 20 232 92 103 22 23 228 81
internal_value=-1.78314e-09 -0.292689 0.556868 -0.19773 1.23027 0.450961 0.650593 0.586635 -0.109947 1.70353 1.32793 0.868071 0.335535 0.304817 0.148888 0.529421 0.580102 0.986835 -0.0445318 0.162799 -0.105435 -0.862441 -0.328857 0.422374 -0.492802 -0.583695 -0.204175 -0.336889 -0.223987 -0.946315
internal_weight=3695 2422 1273 2076 173 1100 403 378 1600 75 51 98 697 676 399 277 71 110 1242 282 960 346 47 268 476 362 114 358 251 299
internal_count=3695 2422 1273 2076 173 1100 403 378 1600 75 51 98 697 676 399 277 71 110 1242 282 960 346 47 268 476 362 114 358 251 299
is_linear=0
shrinkage=0.05


Tree=6
num_leaves=31
num_cat=0
split_feature=91 0 119 91 91 69 38 71 64 11 77 78 7 111 71 75 38 80 177 58 145 139 116 88 93 0 43 124 28 53
split_gain=218285 42453.6 30765.4 19142.2 16722.9 14784 12183.5 11023.5 8188.31 10055.6 7656.76 7418.81 6467.34 6287.43 8927.45 6109.16 11305 6079.92 5735.38 5667.85 5576.92 6350.08 4793.19 4189.91 3607.79 3365.52 2850.21 2446.91 2236.07 1668.97
threshold=52.80071206052515 697350.00000000012 52.500000000000007 39.313272093759906 64.361418047882154 17450.000000000004 22.000000000000004 12.500000000000002 -7.4999999999999991 41.500000000000007 23.629078131263046 49.040791614772139 -87049.999999999985 11.000000000000002 44.500000000000007 37.833333333333336 6.0000000000000009 11.666666666666671 0.21900000423192981 -2.9999999999999996 -4.9999999999999991 2.3333333333333335 -1.0000000180025095e-35 13717.857142857143 7.7500000000000009 192050.00000000003 -2.4999999999999996 1.0000000180025095e-35 16.050000190734867 1.5000000000000002
decision_type=2 2 8 2 2 8 2 8 8 8 10 8 2 10 10 10 2 10 8 2 8 8 10 2 2 2 2 10 10 2
left_child=2 4 19 18 13 6 10 -5 -6 22 -3 -7 -11 20 -15 16 -9 -17 -4 -1 -2 -22 -10 25 27 -20 -26 28 -21 -28
right_child=1 5 3 7 8 11 -8 15 9 12 -12 -13 -14 14 -16 17 -18 -19 23 24 21 -23 -24 -25 26 -27 29 -29 -30 -31
leaf_value=-0.088937092781066901 0.93939071369171145 0.7279275274276733 -1.3531402235939389 -0.98235490828752514 1.4964876634379229 0.24483639159623316 2.7404935019171757 -0.35851091184342904 0.38403288594209684 1.1062877531756055 1.9422734132519477 1.4075460306976153 0.56986608813324613 1.5975993168354035 0.13800558285279707 0.022045215047646397 0.33033317320377514 -0.26001387229908313 -0.7338899541060242 -1.1341732261874151 0.63347472542098593 0.13316737557920041 -0.35779056086352001 -1.1919632639203754 -0.094894497502933856 -0.38107354269757393 -1.11418217590877 -0.55756628523979879 -0.56923428356647487 -0.49766293232855596
leaf_weight=25 25 25 21 40 24 34 23 480 51 66 27 23 378 20 22 642 68 272 89 141 70 675 38 21 22 281 21 28 20 23
leaf_count=25 25 25 21 40 24 34 23 480 51 66 27 23 378 20 22 642 68 272 89 141 70 675 38 21 22 281 21 28 20 23
internal_value=5.34395e-10 0.464625 -0.317868 -0.246255 0.382055 1.32098 1.78228 -0.16344 0.593052 0.552371 1.35845 0.714 0.649604 0.23732 0.83305 -0.141035 -0.273034 -0.0618936 -0.548168 -0.807393 0.204826 0.180176 0.0672993 -0.504934 -0.87783 -0.46594 -0.559572 -0.988968 -1.06399 -0.791911
internal_weight=3695 1501 2194 1914 1369 132 75 1502 557 533 52 57 444 812 42 1462 548 914 412 280 770 745 89 391 255 370 66 189 161 44
internal_count=3695 1501 2194 1914 1369 132 75 1502 557 533 52 57 444 812 42 1462 548 914 412 280 770 745 89 391 255 370 66 189 161 44
is_linear=0
shrinkage=0.05


Tree=7
num_leaves=31
num_cat=0
split_feature=92 0 1 86 2 69 157 125 86 71 58 66 71 63 3 6 145 154 77 77 70 180 28 167 140 71 167 111 70 120
split_gain=142096 48663.5 39072.6 22623.2 18667.9 12484.5 12034 10282.9 10126.2 10132.1 9638.6 8061.21 7733.69 9810.27 6814.66 6419.65 8738.36 6966.46 6497.86 6213.09 6007.92 6417.24 5993.68 9402.24 6508.55 5594.21 5378.58 5371.83 6253.52 5242.85
threshold=9.5000000000000018 697350.00000000012 50.500000000000007 436300.00000000006 52.500000000000007 17450.000000000004 17.500000000000004 22.000000000000004 436300.00000000006 44.500000000000007 -4.9999999999999991 88.500000000000014 101.50000000000001 12.500000000000002 90.500000000000014 0.31125000119209295 -3.6666666666666665 -1.7999999999999998 12.556510739129784 26.07041432712181 6150.0000000000009 15.500000000000002 14.84999990463257 3.8000000000000003 1.5000000000000002 73.500000000000014 4.6000000000000005 9.0000000000000018 14950.000000000002 0.23499999940395358
decision_type=2 2 2 10 2 8 10 8 10 10 2 8 8 10 2 2 8 8 10 8 8 2 8 8 10 10 8 8 8 8
left_child=2 3 -1 22 15 6 19 12 20 -10 -9 -7 13 -5 -14 -4 18 -18 -17 -3 21 -6 27 24 -24 -12 -25 28 -2 -22
right_child=1 5 4 7 8 11 -8 10 9 -11 25 -13 14 -15 -16 16 17 -19 -20 -21 29 -23 23 26 -26 -27 -28 -29 -30 -31
leaf_value=-0.84353408023383314 0.016134373672927419 0.57847045822577037 -0.5039543280600618 0.51663366975568825 -0.051949567913457201 -0.12819213509559632 2.5325060285054724 1.0809476223729906 1.5272910928726198 0.15373382249782827 0.095348154896393769 1.123789060778088 0.92121054002479341 0.030226860900348342 0.11555237323045731 0.92560664598758413 0.37262978983111683 -0.3017733091851873 -0.048912337265908719 1.7201555942113584 -0.8970701689521472 0.78361724108457576 0.17579717921353655 -0.42831486354513865 1.331612295528938 -0.61739379201616562 0.19682172163624631 0.2324187337225225 -0.39239355559290956 -0.050694186492012697
leaf_weight=292 228 22 274 426 54 20 26 21 25 29 129 36 146 137 32 26 40 897 50 26 24 40 21 41 29 35 214 119 159 77
leaf_count=292 228 22 274 426 54 20 26 21 25 29 129 36 146 137 32 26 40 897 50 26 24 40 21 41 29 35 214 119 159 77
internal_value=-7.3884e-10 0.30681 -0.313356 0.236975 -0.212566 1.23991 1.66616 0.405845 0.183722 0.78964 0.0723839 0.676653 0.489098 0.398272 0.776373 -0.289238 -0.23116 -0.272983 0.284476 1.19688 0.0159296 0.303611 0.0441595 0.219237 0.84617 -0.0567614 0.0963096 -0.0613718 -0.15171 -0.251813
internal_weight=3695 1867 1828 1737 1536 130 74 926 249 54 185 56 741 563 178 1287 1013 937 76 48 195 94 811 305 50 164 255 506 387 101
internal_count=3695 1867 1828 1737 1536 130 74 926 249 54 185 56 741 563 178 1287 1013 937 76 48 195 94 811 305 50 164 255 506 387 101
is_linear=0
shrinkage=0.05


Tree=8
num_leaves=31
num_cat=0
split_feature=91 75 0 5 69 38 91 129 0 27 76 38 32 78 91 28 25 12 4 67 38 92 72 145 66 68 3 77 69 71
split_gain=182146 32238.9 29933.5 16219.8 13761.5 10357.2 9747.56 9350.81 10662.3 10487.6 10118 7916.76 7621.52 7550.99 7392.15 7836 8308.77 7229.76 9266.49 12058.7 6960.86 6072.6 5973.45 5958.34 5790.5 5761.35 5650.68 5571.47 6043.9 5197.57
threshold=55.118700667881001 37.833333333333336 711800.00000000012 73.500000000000014 17450.000000000004 6.0000000000000009 64.361418047882154 12.833333333333334 425950.00000000006 6.7500000000000009 60.100000000000009 22.000000000000004 20.500000000000004 49.040791614772139 45.041095890410965 13.400000095367433 78.200000762939467 66.500000000000014 0.43500000238418585 64.500000000000014 10.000000000000002 9.5000000000000018 65.500000000000014 -2.3333333333333326 83.500000000000014 75.500000000000014 32.500000000000007 9.7125348562223266 -7349.9999999999991 12.500000000000002
decision_type=2 10 2 2 8 2 2 10 2 8 8 2 2 8 2 10 10 10 10 10 2 2 8 10 10 8 2 10 10 10
left_child=1 3 6 12 11 -5 17 8 -8 10 -9 24 29 -6 15 -3 21 18 26 -20 -11 -17 25 -7 -4 -16 -2 -24 -29 -1
right_child=2 14 4 5 13 23 7 9 -10 20 -12 -13 -14 -15 22 16 -18 -19 19 -21 -22 -23 27 -25 -26 -27 -28 28 -30 -31
leaf_value=-0.96023477554547076 -0.27039524830999923 -0.28895538139927934 0.71882618041265589 -0.37904299408499115 0.086891994933629868 0.39137291938066482 1.0619787939306764 0.48005168007479776 0.11326718819355537 0.30513224157424562 1.419360507892657 2.4841167287393051 0.20957441113211892 1.3000311835304552 -0.013990782699047848 -0.28240631806223021 1.0294124909809657 -0.16065187068266232 0.34544540404322305 1.1917635371039312 0.86065296298513827 0.34768603800330311 -0.41201246023178106 -0.48699396871603451 1.84505717086792 -0.63160359879257166 0.26922642241864769 0.64410106054941818 0.12804654640077648 -0.59111936793258768
leaf_weight=165 61 511 21 649 29 75 36 45 167 151 79 22 22 23 177 95 21 86 141 60 90 64 35 26 25 48 237 75 233 226
leaf_count=165 61 511 21 649 29 75 36 45 167 151 79 22 22 23 177 95 21 86 141 60 90 64 35 26 25 48 237 75 233 226
internal_value=-1.09245e-09 -0.254507 0.484223 -0.444307 1.23577 -0.305744 0.406004 0.553543 0.281512 0.704837 1.07848 1.70401 -0.695935 0.623473 -0.0791792 -0.189023 0.094672 0.262752 0.335724 0.598078 0.512588 -0.0287842 0.0544518 0.165259 1.33091 -0.145748 0.158767 0.185778 0.253709 -0.746884
internal_weight=3695 2422 1273 1163 120 750 1153 568 203 365 124 68 413 52 1259 691 180 585 499 201 241 159 568 101 46 225 298 343 308 391
internal_count=3695 2422 1273 1163 120 750 1153 568 203 365 124 68 413 52 1259 691 180 585 499 201 241 159 568 101 46 225 298 343 308 391
is_linear=0
shrinkage=0.05


Tree=9
num_leaves=31
num_cat=0
split_feature=91 0 119 91 91 69 157 71 66 64 11 87 77 111 87 97 67 124 48 32 58 177 116 76 160 167 74 28 9 64
split_gain=164777 31002 23426.8 15433.3 12609.3 10911 10134.2 9576.21 7166.32 7159.48 8142.89 6629.09 6433.97 5776.81 8761.95 5271.54 8426.5 5680.29 5107.17 5539.72 4830.74 4642.39 4397.3 4288.93 3801.45 3653.59 3392.03 2986.96 2474.22 2569.67
threshold=52.80071206052515 697350.00000000012 52.500000000000007 38.260904255319154 64.361418047882154 17450.000000000004 17.700000000000006 12.500000000000002 88.500000000000014 -7.4999999999999991 41.500000000000007 -86349.999999999985 26.888659319497496 11.000000000000002 115550.00000000001 10.000000000000002 30.500000000000004 4.666666666666667 1.0000000180025095e-35 11.500000000000002 -2.9999999999999996 0.21900000423192981 -1.0000000180025095e-35 60.100000000000009 1.8 3.0000000000000004 44.900000000000006 27.94999980926514 16250.000000000002 -2.4999999999999996
decision_type=2 2 8 2 2 8 10 8 8 8 8 8 8 10 8 10 10 10 2 2 2 8 10 8 8 8 8 10 2 8
left_child=2 4 20 21 13 6 12 -5 -7 -6 22 -12 -3 18 -15 17 -17 -9 23 -20 -1 -4 -11 -2 26 -26 -23 28 29 -22
right_child=1 5 3 7 9 8 -8 15 -10 10 11 -13 -14 14 -16 16 -18 -19 19 -21 27 24 -24 -25 25 -27 -28 -29 -30 -31
leaf_value=-0.040062525629997257 0.38676303565088244 0.58906240371557383 -1.2454780111648143 -0.88012407207211796 1.3611126904686293 -0.14851419150829315 2.4056945627150328 -0.17013361032862778 1.0262200891568856 0.34516237688561285 1.0365653044311329 0.48650980429821894 1.7014030559704854 1.5006501243228005 0.05628897973469326 0.71915242982947314 -0.082566682262378829 0.57616679032261553 -0.43690367060443092 0.13965989294953235 -0.45630823205555643 0.34562674686312678 -0.36536530720952309 0.11505507232268491 -0.96484695164994771 -0.46772395719439441 -0.37990690725190301 -0.22487799084704854 -0.33003826504168304 -0.94958503868305277
leaf_weight=25 288 26 20 43 24 20 23 1317 37 51 64 380 26 21 21 46 114 26 62 127 31 24 38 293 44 231 49 23 23 178
leaf_count=25 288 26 20 43 24 20 23 1317 37 51 64 380 26 21 21 46 114 26 62 127 31 24 38 293 44 231 49 23 23 178
internal_value=-8.48331e-10 0.403682 -0.276174 -0.213683 0.333122 1.13548 1.53177 -0.144413 0.614033 0.516338 0.478299 0.565797 1.14523 0.207443 0.77847 -0.123365 0.147928 -0.155686 0.176296 -0.0494774 -0.703344 -0.504694 0.041791 0.24974 -0.46212 -0.547264 -0.141375 -0.768372 -0.822252 -0.87642
internal_weight=3695 1501 2194 1914 1369 132 75 1546 57 557 533 444 52 812 42 1503 160 1343 770 189 280 368 89 581 348 275 73 255 232 209
internal_count=3695 1501 2194 1914 1369 132 75 1546 57 557 533 444 52 812 42 1503 160 1343 770 189 280 368 89 581 348 275 73 255 232 209
is_linear=0
shrinkage=0.05


Tree=10
num_leaves=31
num_cat=0
split_feature=91 1 0 91 69 61 91 129 0 152 77 69 12 4 81 45 78 145 111 0 62 91 0 71 176 91 42 121 78 101
split_gain=149072 33483 24349.7 14120.4 11335.2 7870.22 7212.06 7637.72 9871.03 7785.93 7186.71 11719.8 6904.48 8518.28 6845.53 6821.77 6786.68 5512.19 5655.59 4393.08 4353.95 4550.08 4275.83 4090.23 5893.38 4795.32 4070.69 3996.71 3525.39 3077.7
threshold=55.118700667881001 61.500000000000007 711800.00000000012 40.546296296296305 17450.000000000004 -1.0000000180025095e-35 64.361418047882154 12.833333333333334 425950.00000000006 1.0000000180025095e-35 19.519221295943144 -11349.999999999998 66.500000000000014 0.43500000238418585 55.183333333333344 1.0000000180025095e-35 49.040791614772139 -2.9999999999999996 9.0000000000000018 384750.00000000006 7.5000000000000009 41.686507936507944 196850.00000000003 21.500000000000004 0.25899998843669897 41.309523809523817 15.500000000000002 0.21499999612569812 16.689815574353432 19.500000000000004
decision_type=2 2 2 2 8 8 2 10 2 8 10 10 10 10 10 2 8 8 10 2 10 2 2 8 8 2 2 8 8 10
left_child=1 20 5 22 10 -2 12 8 -8 -9 -4 -12 13 -7 23 -14 -6 19 -19 -16 26 -22 -3 24 -5 -25 -1 -24 -29 -28
right_child=2 3 4 14 16 6 7 9 -10 -11 11 -13 15 -15 17 -17 -18 18 -20 -21 21 -23 27 25 -26 -27 29 28 -30 -31
leaf_value=-0.8806054965335699 1.2634759187698366 -0.67859930876389296 0.74453579131513836 -0.93564501177323489 0.051490425138637941 0.1259630384310117 0.98061867372857214 0.31905841403914725 0.066808392215858811 0.80072661175575444 1.2123461358249188 2.7970810031890871 0.18603127011839227 0.5521589890748072 1.0090590276888438 -0.72792633610112334 1.2015950042268504 -0.081213813363122542 0.48157428839667277 0.13101970643961225 -0.75585700499600383 0.10885262116789818 -0.65821674915327544 0.53428972714713641 -0.12891075132148608 -0.1281088476623817 -0.23175649625413561 0.027942988242995875 -0.34625044287463957 -0.91838646965722237
leaf_weight=210 24 103 20 38 29 294 36 136 165 219 28 20 49 195 28 35 23 237 55 29 29 32 69 28 56 1129 51 89 215 24
leaf_count=210 24 103 20 38 29 294 36 136 165 219 28 20 49 195 28 35 23 237 55 29 29 32 69 28 56 1129 51 89 215 24
internal_value=-9.82444e-10 -0.230244 0.43806 -0.154348 1.1159 0.367513 0.348467 0.476757 0.230476 0.6162 1.54085 1.87265 0.223983 0.295918 -0.0832226 -0.194784 0.560191 0.112585 0.0247908 0.562337 -0.68562 -0.302239 -0.393424 -0.137848 -0.455037 -0.112078 -0.767677 -0.314675 -0.2367 -0.451478
internal_weight=3695 2422 1273 2076 120 1153 1129 556 201 355 68 48 573 489 1600 84 52 349 292 57 346 61 476 1251 94 1157 285 373 304 75
internal_count=3695 2422 1273 2076 120 1153 1129 556 201 355 68 48 573 489 1600 84 52 349 292 57 346 61 476 1251 94 1157 285 373 304 75
is_linear=0
shrinkage=0.05


Tree=11
num_leaves=31
num_cat=0
split_feature=91 1 91 91 78 160 99 0 149 78 87 131 72 69 28 38 176 124 77 180 84 155 4 81 153 19 76 38 171 13
split_gain=134692 27662.2 25374.3 10783.3 9437.52 9818.88 9892.35 8994.16 9412.43 7602.42 7355.72 7107.64 6566.04 6496.7 5991.27 6031.31 5690.28 7939.18 5976.72 5388.2 5211.99 4999.77 4633.87 4343.25 4491.39 3945.42 3769.17 3557.39 3612.14 3444.93
threshold=52.80071206052515 61.500000000000007 72.454390451832921 36.839381720430119 24.979991672824053 3.0000000000000004 1.0000000180025095e-35 646050.00000000012 0.24166667461395266 27.22315092024018 44800.000000000007 7.666666666666667 53.500000000000007 40950.000000000007 30.399999618530277 6.0000000000000009 0.23000000417232516 1.0000000180025095e-35 26.07041432712181 11.500000000000002 1.0000000180025095e-35 1.0000000180025095e-35 0.76499998569488536 55.183333333333344 13.200000000000001 0.37500000000000006 47.70000000000001 6.0000000000000009 -1.0000000180025095e-35 61.500000000000007
decision_type=2 2 2 2 10 8 10 2 10 10 8 10 8 10 10 2 8 10 10 2 10 8 8 10 10 2 10 2 10 10
left_child=1 29 4 27 12 9 13 20 -9 -6 -10 -11 14 -7 15 -2 18 -18 -14 22 -4 -12 26 24 -21 -25 -5 28 -3 -1
right_child=2 3 7 19 5 6 -8 8 10 11 21 -13 16 -15 -16 -17 17 -19 -20 23 -22 -23 -24 25 -26 -27 -28 -29 -30 -31
leaf_value=-0.72735597735910751 -0.11424891170919747 -0.59568387434464887 0.97100622629125921 -0.40121777250390989 1.4732790927733146 0.31300028473455854 1.2897687348334685 2.1149517779548961 1.7591617924826488 0.45220574750335979 1.0959802610533578 1.3627416830796462 -0.17810744461286995 -0.36214568980392958 -0.66177029372192919 0.43859894920039821 0.22671782291044218 0.67515247983871207 0.72976860661398291 -0.11932751673206105 0.14653823037699956 0.101062385543533 0.40024343359470366 0.063197854910283652 0.6382801201939583 0.70357018441989505 -0.091998754208590716 -0.085546686960892251 0.038704788208007816 -0.25759136746327083
leaf_weight=294 148 219 36 299 31 235 23 24 21 122 28 26 103 42 32 74 329 141 22 895 41 23 25 141 20 29 147 55 25 45
leaf_count=294 148 219 36 299 31 235 23 24 21 122 28 26 103 42 32 74 329 141 22 895 41 23 25 141 20 29 147 55 25 45
internal_value=-8.16615e-10 -0.249693 0.364974 -0.173796 0.290775 0.468229 0.293365 0.934552 1.25743 0.761296 0.971587 0.612165 0.190656 0.210632 -0.0221621 0.0700337 0.281507 0.361248 -0.0183213 -0.120951 0.532004 0.647292 -0.26217 -0.059648 -0.102768 0.172438 -0.2993 -0.448803 -0.530685 -0.664998
internal_weight=3695 2194 1501 1855 1328 479 300 173 96 179 72 148 849 277 254 222 595 470 125 1556 77 51 471 1085 915 170 446 299 244 339
internal_count=3695 2194 1501 1855 1328 479 300 173 96 179 72 148 849 277 254 222 595 470 125 1556 77 51 471 1085 915 170 446 299 244 339
is_linear=0
shrinkage=0.05


Tree=12
num_leaves=31
num_cat=0
split_feature=91 1 0 91 144 69 35 91 152 70 76 102 130 177 108 148 66 158 148 148 28 30 38 25 130 101 77 91 29 150
split_gain=122171 27211.1 20003.1 11630 10198.5 9269.84 7046.65 8022.11 10638.4 6996.52 7294.94 6895.25 7894.09 6789.14 6716.62 6646.77 5638.18 7145.5 5700.48 5585.07 5448.21 6419.79 6120.76 5095.17 4664.12 4399.29 3863.03 5849.93 3687.53 3661.9
threshold=55.118700667881001 61.500000000000007 711800.00000000012 40.546296296296305 -0.99999999999999989 11550.000000000002 1.0000000180025095e-35 65.028084714548825 2.8000000000000003 1750.0000000000002 74.500000000000014 -4.4999999999999991 -3.1666666666666665 0.50099998712539684 12.000000000000002 0.30333332717418676 66.500000000000014 -3.2999999999999994 0.21166665852069858 0.33166667819023138 9.5500001907348651 13.500000000000002 6.0000000000000009 55.949998855590827 -3.8333333333333326 14.500000000000002 19.485029484505919 41.794530220297503 93.500000000000014 1.0000000180025095e-35
decision_type=2 2 2 2 8 8 2 2 10 8 8 8 8 10 10 10 10 8 8 8 10 2 2 8 8 10 10 2 10 10
left_child=1 26 6 29 -4 15 7 11 13 10 25 12 -2 -9 -11 -6 20 23 -19 -12 22 -22 -5 -18 -13 -8 28 -28 -1 -3
right_child=2 3 4 16 5 -7 9 8 -10 14 19 24 -14 -15 -16 -17 17 18 -20 -21 21 -23 -24 -25 -26 -27 27 -29 -30 -31
leaf_value=-0.55670777096878743 1.0005902770788424 -0.43481400847455581 0.19441608704369645 -0.25474714705152057 1.1960499006289023 0.71386282545764279 0.53233321175910531 0.60554040775944795 1.5321694023774139 -0.3864638609545572 1.5019590950012207 -0.39295166557033862 0.025973657927205487 -0.11140183295662467 0.49909882891391011 2.3527330693991289 0.16710078768108205 -0.58646217720473515 0.10918965286490592 0.33447339563142686 -0.57388045242646846 0.082986563110626549 0.09967673029877297 1.2195480437382409 0.25115964591649642 -0.13219310686443791 -0.75353132588298699 0.11277361188083888 -0.93483114634399067 -0.10986151631202615
leaf_weight=160 63 362 29 711 27 41 40 252 28 91 20 30 31 38 28 23 23 34 220 21 41 401 147 23 445 66 38 40 108 114
leaf_count=160 63 362 29 711 27 41 40 252 28 91 20 30 31 38 28 23 23 34 220 21 41 401 147 23 445 66 38 40 108 114
internal_value=-2.03832e-10 -0.208437 0.396571 -0.140017 1.01094 1.27115 0.332629 0.40032 0.601458 0.106911 0.337631 0.287908 0.679174 0.511596 -0.178096 1.72812 -0.0754683 0.119916 0.0160709 0.903979 -0.120557 0.0220555 -0.194024 0.693324 0.210479 0.118572 -0.618954 -0.309272 -0.709086 -0.356989
internal_weight=3695 2422 1273 2076 120 91 1153 887 318 266 147 569 94 290 119 50 1600 300 254 41 1300 442 858 46 475 106 346 78 268 476
internal_count=3695 2422 1273 2076 120 91 1153 887 318 266 147 569 94 290 119 50 1600 300 254 41 1300 442 858 46 475 106 346 78 268 476
is_linear=0
shrinkage=0.05


Tree=13
num_leaves=31
num_cat=0
split_feature=91 1 0 91 69 91 64 168 6 120 129 38 153 27 72 20 163 4 111 86 38 62 91 42 38 38 171 71 148 62
split_gain=110260 24558 18146.2 10564.7 9012.85 7434.25 8516.18 6490.81 6393.13 7159.37 7057.45 6294.98 10033.9 9873.85 5837.7 6875.93 5685.08 5441 5351.2 5097.53 5072.02 3640.57 3850.44 3685.84 3594.48 3207.27 3129.09 2984.86 2827.86 2719.88
threshold=55.118700667881001 61.500000000000007 739250.00000000012 36.839381720430119 17450.000000000004 64.361418047882154 -7.4999999999999991 2.9000000000000004 0.78041097521781932 0.24499999731779101 13.16666666666667 1.0000000180025095e-35 5.2000000000000002 4.8500001430511483 66.500000000000014 0.13499999791383746 3.0000000000000004 0.79500001668930065 1.0000000180025095e-35 362250.00000000006 22.000000000000004 7.5000000000000009 41.686507936507944 15.500000000000002 10.000000000000002 6.0000000000000009 -1.0000000180025095e-35 27.500000000000004 0.35000000894069677 10.500000000000002
decision_type=2 2 2 2 8 2 8 10 2 8 8 2 8 8 8 2 10 10 10 10 2 10 2 2 2 2 10 10 8 10
left_child=1 21 5 25 20 7 -7 8 9 -2 -10 12 -8 -13 15 -5 -9 -17 24 -20 -4 23 -23 -1 -16 26 -3 -25 -6 -27
right_child=2 3 4 14 28 6 11 16 10 -11 -12 13 -14 -15 18 17 -18 -19 19 -21 -22 22 -24 27 -26 29 -28 -29 -30 -31
leaf_value=-0.77049850235914907 0.67982406303700482 -0.54623630206062368 1.0644215075408712 -1.0965731094032527 0.044104343429207805 1.3334536382785211 0.47168896721619546 0.20807844343639556 0.7082899938930165 0.19955647629086337 -0.085451787283291697 1.1995752896602248 -0.16107671354888101 0.43460532848677436 -0.32112527775566985 -0.17938266751962126 -0.92978723204654201 0.61743891990997579 -0.023304277907798789 0.26645883817208532 2.0387464317408477 -0.65472526763533734 0.14073026228725213 -0.1391180495619774 0.28220124285796594 0.24630384829736529 0.044212337017059331 -0.80824353447556507 0.88491683200001714 -0.46268610805273058
leaf_weight=210 126 219 34 20 20 26 165 21 33 202 185 51 101 244 166 818 23 22 505 217 22 29 32 50 29 31 25 25 20 24
leaf_count=210 126 219 34 20 20 26 165 21 33 202 185 51 101 244 166 818 23 22 505 217 22 29 32 50 29 31 25 25 20 24
internal_value=6.36664e-10 -0.198015 0.376742 -0.133017 1.03774 0.322829 0.448811 0.197488 0.244566 0.38405 0.0347018 0.407811 0.231428 0.566854 -0.0867489 -0.180329 -0.386715 -0.158514 0.00101412 0.0637852 1.44719 -0.588007 -0.237437 -0.663041 -0.2314 -0.407992 -0.48574 -0.36216 0.464511 -0.0630736
internal_weight=3695 2422 1273 2076 96 1177 587 590 546 328 218 561 266 295 1777 860 44 840 917 722 56 346 61 285 195 299 244 75 40 55
internal_count=3695 2422 1273 2076 96 1177 587 590 546 328 218 561 266 295 1777 860 44 840 917 722 56 346 61 285 195 299 244 75 40 55
is_linear=0
shrinkage=0.05


Tree=14
num_leaves=31
num_cat=0
split_feature=86 2 81 152 0 73 64 79 104 176 19 111 38 14 149 28 81 78 93 111 111 1 85 33 20 42 111 134 102 30
split_gain=73054.3 26473 19320.7 14117.2 10864.1 10847.2 9463.17 9263.02 8885.15 8166.1 6730.79 8670.82 6692.03 7934.76 7421.24 6639.23 6592.63 5832.42 5489.93 7029.32 6614.91 5467.59 5369.55 5305.79 5664.43 4924.03 6586.2 5904.85 4653.15 8598.77
threshold=428100.00000000006 37.500000000000007 61.091666666666676 2.8000000000000003 711800.00000000012 53.833333333333336 -3.4999999999999996 6783.3333333333348 9.0000000000000018 0.32899999618530279 0.15500000119209292 3.0000000000000004 1.0000000180025095e-35 80.500000000000014 0.34833332896232611 6.8999998569488534 51.912878787878789 18.567444578807613 12.750000000000002 1.0000000180025095e-35 5.0000000000000009 28.500000000000004 2.5000000000000004 16.500000000000004 0.43500000238418585 14.500000000000002 9.0000000000000018 1.0000000180025095e-35 -2.4999999999999996 13.500000000000002
decision_type=10 2 10 10 2 10 8 8 10 10 2 10 2 8 8 10 8 8 2 8 10 2 10 2 2 2 10 8 8 2
left_child=1 5 12 7 15 6 -1 10 9 -5 -4 -12 14 18 17 16 -3 -2 20 -20 -14 -8 -18 -16 -25 27 -27 -9 -17 -30
right_child=2 4 3 8 -6 -7 21 25 -10 -11 11 -13 13 -15 23 28 22 -19 19 -21 -22 -23 -24 24 -26 26 -28 -29 29 -31
leaf_value=-0.1070184851294024 1.1839459538459778 -0.24544152569920794 1.377410984092525 1.0582801737568595 0.87925657168511417 0.71825288278715949 -0.78787266731654348 0.20353426938876509 0.29326376960329387 2.2767816126346587 0.059001515799614247 0.79112396519631156 -0.17333781671763029 1.0920326121391788 0.023252864652798952 0.24297264887768236 0.085014547178222322 0.22177116943020669 1.2281267774235458 0.31030162717289633 0.58826892620477922 -0.438782077764866 -0.39284211841012751 -1.1268633087927646 -0.11872414946556092 0.60002279864785113 -0.27807399147543416 -0.76436447455332834 -0.88634099883160422 0.028832712123630113
leaf_weight=171 21 616 28 44 31 21 152 40 23 20 61 120 106 31 326 234 367 63 25 126 39 428 70 22 38 81 29 26 28 308
leaf_count=171 21 616 28 44 31 21 152 40 23 20 61 120 106 31 326 234 367 63 25 126 39 428 70 22 38 81 29 26 28 308
internal_value=3.78112e-10 -0.160794 0.307397 0.560915 -0.0479535 -0.402555 -0.433896 0.430927 1.13615 1.43906 0.655988 0.544387 0.157259 0.330957 0.0364093 -0.0656636 -0.140067 0.462315 0.25125 0.462259 0.0315081 -0.530268 0.00847 -0.0562748 -0.488375 0.163668 0.368525 -0.177759 0.0717869 -0.0474318
internal_weight=3695 2426 1269 472 1654 772 751 385 87 64 209 181 797 327 470 1623 1053 84 296 151 145 580 437 386 60 176 110 66 570 336
internal_count=3695 2426 1269 472 1654 772 751 385 87 64 209 181 797 327 470 1623 1053 84 296 151 145 580 437 386 60 176 110 66 570 336
is_linear=0
shrinkage=0.05


Tree=15
num_leaves=31
num_cat=0
split_feature=91 91 75 38 78 62 78 84 144 152 77 7 75 25 145 25 3 36 35 70 25 180 73 21 38 72 29 5 31 82
split_gain=92094.9 17713.2 14177.8 10039.3 7297.92 8503.46 8758.78 7284.81 9709.86 6766.91 6666.47 7923.13 6812.34 6496.03 6384.6 6375.55 9019.75 5893.2 5616.9 5951.65 5802.79 6297.34 6214.22 5590.86 5560.39 5409.3 8861.06 5409.29 5311.64 4856.91
threshold=52.80071206052515 72.454390451832921 37.833333333333336 6.0000000000000009 24.979991672824053 47.500000000000007 26.940673968706005 8.5000000000000018 -0.99999999999999989 2.8000000000000003 33.52361604621516 -22349.999999999996 73.166666666666671 38.000000000000007 -2.3333333333333326 13.400000095367433 79.500000000000014 1.0000000180025095e-35 1.0000000180025095e-35 -4249.9999999999991 23.60000038146973 9.5000000000000018 40.500000000000007 24.500000000000004 18.000000000000004 53.500000000000007 17.500000000000004 69.500000000000014 22.500000000000004 -1.4999999999999998
decision_type=2 2 10 2 10 8 10 10 8 10 10 2 10 10 10 8 2 2 2 10 10 2 8 2 2 8 10 2 2 2
left_child=2 4 3 23 15 6 17 8 -3 -8 11 -7 -12 -10 -5 16 -2 -6 20 -20 -4 -22 -23 27 -15 28 -27 -1 -17 -21
right_child=1 7 18 14 5 10 9 -9 13 -11 12 -13 -14 24 -16 25 -18 -19 19 29 21 22 -24 -25 -26 26 -28 -29 -30 -31
leaf_value=-0.64772965984023001 0.13169877227554297 0.26040838669086325 -0.30062036317110613 0.40781023315287063 1.4559895316759746 1.8395203919410705 0.084607080946292143 0.37450192894457895 2.0375126543252366 0.71277955389928582 -0.19672149991989138 0.5928642557217525 0.93883083490654828 0.61640147641301157 -0.42734105639597947 -0.17798104957462504 1.2101642866026272 0.41237400347186681 0.04574358930248161 0.059284563888521762 -0.26340047202728417 -0.44654024468527909 0.16611161610804673 -0.21848726447401706 1.6634716794604349 -0.70476507498667795 0.24161369741314981 -0.35283170879686121 0.56744488797805925 -0.61470629540681843
leaf_weight=254 47 29 149 70 24 25 269 68 23 51 25 26 28 32 34 208 33 31 86 34 135 45 516 345 21 26 508 401 27 125
leaf_count=254 47 29 149 70 24 25 269 68 23 51 25 26 28 32 34 208 33 31 86 34 135 45 516 345 21 26 508 401 27 125
internal_value=6.55959e-11 0.301793 -0.206468 -0.332763 0.239798 0.395846 0.284902 0.777679 1.03878 0.184722 0.795882 1.20397 0.403193 1.3358 0.13478 0.151757 0.576566 0.86777 -0.0785513 -0.289341 -0.0174346 0.04319 0.116968 -0.381387 1.03128 0.107564 0.195535 -0.467189 -0.0923364 -0.470582
internal_weight=3695 1501 2194 1104 1328 479 375 173 105 320 104 51 53 76 104 849 80 55 1090 245 845 696 561 1000 53 769 534 655 235 159
internal_count=3695 1501 2194 1104 1328 479 375 173 105 320 104 51 53 76 104 849 80 55 1090 245 845 696 561 1000 53 769 534 655 235 159
is_linear=0
shrinkage=0.05


Tree=16
num_leaves=31
num_cat=0
split_feature=86 2 81 152 75 0 64 104 176 87 120 148 177 25 0 87 28 81 180 180 80 82 1 120 102 87 29 20 0 86
split_gain=60800.7 21597.6 16337 11865.5 9356.73 8843.89 8308.88 7896.51 7231.76 6315.83 6294.33 6035.15 6378.07 6871.14 6234.28 5998.98 5915.78 5385.55 5446.49 4978.4 10060.3 5874.21 4463.13 4423.43 4180.86 7404.68 4796.56 4131.8 4120.35 3250.96
threshold=428100.00000000006 37.500000000000007 61.091666666666676 2.8000000000000003 52.833333333333336 711800.00000000012 -3.4999999999999996 9.0000000000000018 0.32899999618530279 -96799.999999999985 0.064999999478459372 0.21666666865348819 0.47499997913837438 25.649999618530277 547900.00000000012 -45949.999999999993 6.8999998569488534 51.912878787878789 10.500000000000002 20.500000000000004 17.666666666666664 -70.499999999999986 28.500000000000004 0.20499999821186068 -2.4999999999999996 -8049.9999999999991 25.500000000000004 0.39499999582767492 459050.00000000006 633800.00000000012
decision_type=10 2 10 10 10 2 8 10 10 10 8 10 10 10 2 10 10 8 2 2 8 2 2 10 8 8 10 2 2 10
left_child=1 4 10 9 6 16 23 8 29 -4 -2 14 15 -14 28 -13 17 -3 -19 21 -21 -11 -8 -1 25 -18 -26 -16 -12 -5
right_child=2 5 3 7 -6 -7 22 -9 -10 19 11 12 13 -15 27 -17 24 18 -20 20 -22 -23 -24 -25 26 -27 -28 -29 -30 -31
leaf_value=-0.39410388446279937 0.8408468219541736 -0.22622056158694936 1.2170011986385694 1.3788228916085286 0.65129083652387976 0.79180148609222911 -0.7179834922481525 0.24631399078213653 2.1148269706964493 -0.23435907812446966 0.043191345039792738 0.5521308820727947 -0.75951425837618969 0.11173176826056788 -0.010284535090128583 0.13144706830992336 0.72690188534427114 -0.30481565961683238 0.1044067306625218 1.4683441475585655 0.090358422295405319 0.36227375465976897 -0.4024878497900708 0.12307183765206893 -0.5124602898004208 0.071652119454143751 0.032176265051059916 0.8077647924423218 -0.39257239388922849 0.51836743298031041
leaf_weight=70 31 616 22 23 22 31 152 23 20 49 99 168 28 118 33 171 57 108 329 27 26 261 427 101 47 177 289 29 120 21
leaf_count=70 31 616 22 23 22 31 152 23 20 49 99 168 28 118 33 171 57 108 329 27 26 261 427 101 47 177 289 29 120 21
internal_value=4.16297e-10 -0.146691 0.280435 0.513557 -0.365058 -0.0447685 -0.39487 1.04092 1.32649 0.394386 0.142375 0.114108 0.220935 -0.0553565 -0.0702739 0.339928 -0.0607474 -0.13098 0.00327168 0.34453 0.792351 0.267967 -0.485312 -0.0886375 0.0689985 0.231264 -0.044008 0.372351 -0.195583 0.968151
internal_weight=3695 2426 1269 472 772 1654 750 87 64 385 797 766 485 146 281 339 1623 1053 437 363 53 310 579 171 570 234 336 62 219 44
internal_count=3695 2426 1269 472 772 1654 750 87 64 385 797 766 485 146 281 339 1623 1053 437 363 53 310 579 171 570 234 336 62 219 44
is_linear=0
shrinkage=0.05


Tree=17
num_leaves=31
num_cat=0
split_feature=91 1 91 91 84 144 70 70 102 26 152 156 10 116 71 69 71 88 75 42 35 145 43 92 66 77 13 67 73 149
split_gain=76605.4 16871.2 12620.8 8127.75 6434.1 8914 6194.71 6032.2 6963.14 9058.36 6436.95 6024.82 5952.32 8366.06 6037.47 5800.12 5154.15 4666.23 4632.84 7534.58 6587.15 4291.99 5486.06 4955.71 3829.97 2948.32 5377.59 2768.74 3489.35 3487.79
threshold=55.118700667881001 61.500000000000007 72.454390451832921 36.839381720430119 8.5000000000000018 -0.99999999999999989 24650.000000000004 -1849.9999999999998 -3.4999999999999996 20.550000190734867 1.0000000180025095e-35 -1.0000000180025095e-35 98.500000000000014 -1.0000000180025095e-35 62.500000000000007 -14749.999999999998 12.500000000000002 6133.666666666667 68.166666666666671 10.500000000000002 1.0000000180025095e-35 -3.6666666666666665 -1.4999999999999998 9.5000000000000018 101.50000000000001 18.036999011291591 61.500000000000007 13.500000000000002 43.500000000000007 0.45833334326744085
decision_type=2 2 2 2 10 8 8 8 8 8 10 10 10 10 8 10 8 2 8 2 2 8 2 2 10 8 10 8 8 8
left_child=1 25 7 27 5 -4 15 12 9 11 -11 -9 13 14 -2 -7 -5 -15 19 -10 -20 22 -18 -23 -6 -1 -27 -3 29 -29
right_child=2 3 4 16 24 6 -8 8 18 10 -12 -13 -14 17 -16 -17 21 -19 20 -21 -22 23 -24 -25 -26 26 -28 28 -30 -31
leaf_value=-0.62132291636139003 1.2436266994154133 -0.84538845878381008 0.21060086740501999 -0.76940851085461104 -0.0013085400587634036 1.0518153416613738 0.66629887346563677 0.35663872278775233 0.57637999889097713 0.40760680645704267 1.2204430337359267 -0.72672038986569365 1.1527745118141175 -0.32418031634555922 0.45959890143409982 2.1629531855168551 0.016394646605874738 0.28764193188961079 0.36519019216009718 -0.18555505032743422 -0.17944146554157336 -0.15615066774924474 0.69470303997397431 0.024125980697837904 0.75442640999952948 -0.45246292146524986 0.36070878133177758 -0.34368927349214973 -0.38587564754952158 0.52706573877645579
leaf_weight=189 37 26 29 26 38 24 29 33 38 60 41 21 25 36 73 23 117 232 206 222 76 963 40 631 30 133 24 23 227 23
leaf_count=189 37 26 29 26 38 24 29 33 38 60 41 21 25 36 73 23 117 232 206 222 76 963 40 631 30 133 24 23 227 23
internal_value=2.63644e-10 -0.165051 0.314026 -0.111177 0.71101 0.956396 1.24098 0.251591 0.162559 0.458081 0.73757 -0.0646676 0.405575 0.356157 0.723317 1.59556 -0.0705953 0.205457 0.0780458 -0.0741953 0.21841 -0.0602189 0.189212 -0.0847864 0.332104 -0.488296 -0.328156 -0.352362 -0.305407 0.0916882
internal_weight=3695 2422 1273 2076 173 105 76 1100 697 155 101 54 403 378 110 47 1777 268 542 260 282 1751 157 1594 68 346 157 299 273 46
internal_count=3695 2422 1273 2076 173 105 76 1100 697 155 101 54 403 378 110 47 1777 268 542 260 282 1751 157 1594 68 346 157 299 273 46
is_linear=0
shrinkage=0.05


Tree=18
num_leaves=31
num_cat=0
split_feature=0 0 71 5 7 148 95 152 70 180 38 149 9 45 122 26 70 87 103 77 148 64 37 25 8 88 130 30 129 75
split_gain=43969.4 20725.2 10703.1 10653.9 10006.9 9646.31 9357.71 9177.49 8214.39 8226.01 7766.79 7469.5 7146.92 6717.76 6307.19 6760.99 6180.87 5441.68 6619.78 5412.93 5311.01 5160.44 5117.32 4956.67 4473.09 4443.62 4434.98 4956.26 4649.5 4010.62
threshold=345150.00000000006 566850.00000000012 109.50000000000001 63.500000000000007 -41449.999999999993 0.34499999880790716 1.0000000180025095e-35 2.8000000000000003 -1849.9999999999998 18.500000000000004 6.0000000000000009 0.25499999523162847 8650.0000000000018 1.0000000180025095e-35 8.5000000000000018 18.500000000000004 -1.0000000180025095e-35 91900.000000000015 9.0000000000000018 10.692676621563642 0.74833333492279064 -5.4999999999999991 1.0000000180025095e-35 63.95000076293946 3.5000000000000004 9098.0268199233742 -3.4999999999999996 13.500000000000002 14.16666666666667 52.833333333333336
decision_type=2 2 8 2 2 10 10 8 8 2 2 8 2 2 10 10 8 10 10 10 8 10 2 8 2 2 8 2 8 10
left_child=3 2 8 12 13 14 -7 -8 19 16 -11 24 -1 -4 21 -16 -10 18 -6 -2 -14 22 -3 -23 -5 -21 -13 29 -29 -28
right_child=1 5 4 11 17 6 7 -9 9 10 -12 26 20 -15 15 -17 -18 -19 -20 25 -22 23 -24 -25 -26 -27 27 28 -30 -31
leaf_value=-0.58409681097264332 0.53103448096229589 0.42656169568116847 0.38196924466353199 -0.76868780039250861 0.16272044117708193 0.17198389890017335 0.71186575514654971 1.9727729396687614 -0.98236256189968274 -0.0071618003868742994 0.66874113541917279 0.16557403521638522 0.2273477788404985 1.3512715968218716 0.69062425364618729 -0.32000532877647275 -0.14787989152092781 -0.48930330824639112 0.91999262933386494 0.19619487790079229 -0.70735668369701932 0.17285393709898927 1.4284505677223205 0.71461325836560086 -0.12533227198503236 -0.19974214297133625 -0.27675355285406117 0.15937782423599678 -0.14169951830828001 -0.96079002419114112
leaf_weight=252 86 26 39 70 294 27 31 27 23 152 59 142 55 33 23 59 630 28 32 263 21 128 25 63 44 97 150 161 630 25
leaf_count=252 86 26 39 70 294 27 31 27 23 152 59 142 55 33 23 59 630 28 32 263 21 128 25 63 44 97 150 161 630 25
internal_value=-1.81312e-10 0.146619 0.0711806 -0.202902 0.288892 0.466817 0.940897 1.29884 0.000382972 -0.0895735 0.181835 -0.134988 -0.455923 0.826233 0.342444 -0.0365361 -0.177272 0.179602 0.237054 0.174648 -0.0309258 0.470859 0.917684 0.351549 -0.520375 0.0895118 -0.0953359 -0.133689 -0.0804183 -0.374473
internal_weight=3695 2145 1736 1550 426 409 85 58 1310 864 211 1222 328 72 324 82 653 354 326 446 76 242 51 191 114 360 1108 966 791 175
internal_count=3695 2145 1736 1550 426 409 85 58 1310 864 211 1222 328 72 324 82 653 354 326 446 76 242 51 191 114 360 1108 966 791 175
is_linear=0
shrinkage=0.05


Tree=19
num_leaves=31
num_cat=0
split_feature=91 1 91 37 78 29 29 60 84 61 74 91 80 69 60 157 64 90 67 78 175 81 144 161 61 38 77 78 102 67
split_gain=64106.2 12619.8 12463.3 12807.1 8869.76 7903.54 9651.38 9262.3 7764.9 7503.97 7679.68 6113.02 5494.57 9084.83 8251.04 4755.57 4192.81 8726.75 5200.45 4934.02 4877 6708.56 3728.69 3693.04 3618.14 3331.26 6890.44 8622.99 4510.17 6495.59
threshold=52.80071206052515 61.500000000000007 65.028084714548825 1.0000000180025095e-35 21.502320143357 27.500000000000004 34.500000000000007 25.500000000000004 -11.499999999999998 16.500000000000004 57.300000000000004 34.930743243243249 9.6666666666666714 -3149.9999999999995 22.500000000000004 19.900000000000002 -1.4999999999999998 46.883814128921202 55.500000000000007 29.949958077628889 75.100000000000009 60.683333333333344 -0.99999999999999989 2.8000000000000003 4.5000000000000009 6.0000000000000009 5.5677643628300268 33.406576487245609 -4.4999999999999991 73.500000000000014
decision_type=2 2 2 2 8 10 10 8 8 10 10 2 10 10 8 8 8 2 8 10 8 8 8 10 8 2 10 10 8 8
left_child=1 -1 12 4 24 7 -7 -5 -8 10 -6 -3 16 14 -14 23 20 18 -18 -19 -2 -22 -11 -15 -4 28 -27 -28 29 -13
right_child=2 11 3 5 9 6 8 -9 -10 22 -12 25 13 15 -16 -17 17 19 -20 -21 21 -23 -24 -25 -26 26 27 -29 -30 -31
leaf_value=-0.45277072347406638 0.55274228194826536 -0.39619052578787228 0.29508958546554342 0.84549572131572637 0.40012220887538907 -0.066863031101387901 1.5480605174388204 2.1689473064988856 0.2761773955254328 -0.40406472056076448 1.0839881483465434 0.29658422866655937 1.4342570487409831 0.43398153860503297 0.19269951996595966 -0.31386224078504665 0.3325280183553696 -0.028507094833405078 1.4465374941175635 0.82026207715272903 -0.19328455702638586 0.17512355927154766 0.28280432945297612 -0.13974176595608395 -0.34673009457126747 0.50497115325571895 -0.15598078554091246 0.88017250028100202 -0.15882942555187318 -0.45830056768011407
leaf_weight=339 38 182 34 39 130 37 28 20 21 29 60 124 32 127 23 38 20 119 22 20 287 217 62 36 62 67 230 22 1193 37
leaf_count=339 38 182 34 39 130 37 28 20 21 29 60 124 32 127 23 38 20 119 22 20 287 217 62 36 62 67 230 22 1193 37
internal_value=-3.38276e-10 -0.17226 0.251791 0.449103 0.295509 0.848447 0.542692 1.29412 1.00297 0.437264 0.61608 -0.120997 0.146585 0.34565 0.91506 0.189842 0.0761005 0.28446 0.916057 0.093618 0.0065191 -0.0346644 0.063912 0.30727 -0.119419 -0.0910597 0.0542987 -0.065523 -0.125306 0.123101
internal_weight=3695 2194 1501 522 377 145 86 59 49 281 190 1855 979 256 55 201 723 181 42 139 542 504 91 163 96 1673 319 252 1354 161
internal_count=3695 2194 1501 522 377 145 86 59 49 281 190 1855 979 256 55 201 723 181 42 139 542 504 91 163 96 1673 319 252 1354 161
is_linear=0
shrinkage=0.05


Tree=20
num_leaves=31
num_cat=0
split_feature=91 91 91 26 44 77 81 21 67 176 26 86 21 4 61 9 70 80 80 85 38 68 159 30 27 177 3 6 102 117
split_gain=57898.9 10981.4 9858.06 6923.22 7444.12 7057.3 6215.07 6362.58 5986.33 6904.65 6270.14 5965.48 5340.75 5258.19 5191.05 5043.38 5056.01 8158.81 5988.93 5026.8 4845.21 4738.12 4411.63 3713.81 5017.76 3746.27 3655.91 3238.31 3176.04 2991.85
threshold=55.118700667881001 41.567330210772845 72.454390451832921 60.549999237060554 7.0000000000000009 24.650892150545541 59.651515151515156 10.500000000000002 102.50000000000001 0.34299999475479132 38.000000000000007 294850.00000000006 16.500000000000004 0.43500000238418585 -1.0000000180025095e-35 70850.000000000015 -1849.9999999999998 -25.499999999999993 9.5000000000000036 2.5000000000000004 10.000000000000002 46.500000000000007 1.8000000000000003 14.500000000000002 18.649999618530277 0.21400000154972079 51.500000000000007 0.60263150930404674 -2.4999999999999996 -2.9999999999999996
decision_type=2 2 2 8 2 10 10 2 10 10 10 10 2 10 8 2 8 8 10 10 2 8 8 2 8 8 2 2 8 10
left_child=1 20 14 4 6 -6 7 -3 9 10 13 26 -13 -4 -2 16 18 -18 -16 -8 23 -14 -22 -1 25 -25 29 -26 -24 -5
right_child=2 3 8 11 5 -7 19 -9 -10 -11 -12 12 21 -15 15 -17 17 -19 -20 -21 22 -23 28 24 27 -27 -28 -29 -30 -31
leaf_value=-0.53324505693293833 0.96109291794507401 -0.58047382486244992 1.1339848558108012 -1.2913440805673599 0.97227095518793394 -0.18714576306797209 0.34891081927279077 -0.063958962859540655 0.039831098509686337 1.4028489571629148 -0.023257414564009635 0.50905091613531117 0.098627928594748185 0.25111537082837176 0.20005466216158518 0.96921767705962769 0.76054595466703179 0.055941598759363255 0.62509759201848203 -0.40688466740628848 -0.39354528986638593 -0.47759006324816833 -0.063295409896157007 -1.0074624717235565 -0.11827282334367435 -0.30555585205099001 -0.033935789628462359 0.60328959433928786 0.76042615538835534 -0.58519878360753264
leaf_weight=191 23 63 48 20 35 21 143 1112 35 33 31 28 60 26 273 21 44 620 119 26 31 88 22 20 48 384 22 23 25 60
leaf_count=191 23 63 48 20 35 21 143 1112 35 33 31 28 60 26 273 21 44 620 119 26 31 88 22 20 48 384 22 23 25 60
internal_value=-3.86656e-10 -0.143491 0.273005 -0.0725982 -0.0273411 0.53749 -0.0508757 -0.091653 0.623858 0.77198 0.573708 -0.300512 -0.124187 0.823787 0.217826 0.201953 0.186694 0.102632 0.329086 0.232635 -0.303381 -0.243988 0.0694648 -0.347048 -0.272177 -0.340304 -0.604759 0.115473 0.374854 -0.761735
internal_weight=3695 2422 1273 1678 1400 56 1344 1175 173 138 105 278 176 74 1100 1077 1056 664 392 169 744 148 78 666 475 404 102 71 47 80
internal_count=3695 2422 1273 1678 1400 56 1344 1175 173 138 105 278 176 74 1100 1077 1056 664 392 169 744 148 78 666 475 404 102 71 47 80
is_linear=0
shrinkage=0.05


Tree=21
num_leaves=31
num_cat=0
split_feature=91 1 91 64 37 84 91 78 160 66 26 68 42 25 0 111 71 180 117 176 171 164 127 12 12 83 92 67 5 77
split_gain=52520.4 10535.8 10476.1 12127.1 10252.7 8371.72 6992.59 6107.92 6586.63 5685.58 5240.93 5080.21 6633.17 6069.34 4761.77 4686.22 8961.51 4575.21 7028.81 7508.48 4338.18 4305.21 3695.97 3483.34 5984.49 4503.39 2817.37 2721.92 2404.81 2723.88
threshold=52.80071206052515 31.500000000000004 65.028084714548825 -7.4999999999999991 1.0000000180025095e-35 5.5000000000000009 36.378879892037794 21.502320143357 5.4000000000000012 109.50000000000001 18.500000000000004 28.500000000000004 18.500000000000004 51.100000381469734 259100.00000000003 11.000000000000002 54.500000000000007 15.500000000000002 -1.0000000180025095e-35 0.25100000202655798 -0.8999999999999998 7.2000000000000011 1.0000000180025095e-35 47.500000000000007 45.500000000000007 31.500000000000004 7.2500000000000009 54.500000000000007 75.500000000000014 8.504900548115387
decision_type=2 2 2 8 2 8 2 8 10 8 10 8 2 8 2 10 10 2 8 10 10 8 10 8 10 10 2 10 2 8
left_child=1 26 11 -4 7 10 27 21 -9 -7 -6 12 13 -2 -13 22 -17 23 20 -20 -19 -5 -16 24 -8 -25 -1 28 -3 -30
right_child=2 6 3 4 5 9 17 8 -10 -11 -12 14 -14 -15 15 16 -18 18 19 -21 -22 -23 -24 25 -26 -27 -28 -29 29 -31
leaf_value=-0.55598195567529984 1.5590955436229708 -0.58479109226167203 1.4210787711398942 0.12455468578416794 1.6684497906403111 -0.41186131780797786 -0.17992903766278021 0.2012062610346167 0.79716067531456547 0.73833103293464308 0.78219403526273323 -0.54584680321110812 0.022906669173389675 0.40990284063197957 0.13388307931774432 1.3935868152976036 -0.10320242762565612 0.28454128878153101 -0.32950392233096237 0.18390631349933037 -0.045342599341113655 -0.57111602646963933 -0.17059243462722878 0.083931082279467203 -0.80481527036101363 -0.3761852335527211 -0.018564366336379732 0.11999691580903943 0.19488796591758728 -0.36001999600211509
leaf_weight=189 20 100 28 61 22 22 585 204 60 21 69 28 40 27 708 20 20 245 217 106 168 35 116 244 41 68 28 29 26 148
leaf_count=189 20 100 28 61 22 22 585 204 60 21 69 28 40 27 708 20 20 245 217 106 168 35 116 244 41 68 28 29 26 148
internal_value=9.52003e-10 -0.155919 0.227905 0.408805 0.351429 0.724786 -0.119618 0.212457 0.33665 0.149861 0.996454 0.13145 0.496156 0.898921 0.0958795 0.116676 0.645192 -0.079612 0.0137049 -0.161016 0.150351 -0.129075 0.09102 -0.152833 -0.220856 -0.0163507 -0.486638 -0.340644 -0.389398 -0.277103
internal_weight=3695 2194 1501 522 494 134 1977 360 264 43 91 979 87 47 892 864 40 1674 736 323 413 96 824 938 626 312 217 303 274 174
internal_count=3695 2194 1501 522 494 134 1977 360 264 43 91 979 87 47 892 864 40 1674 736 323 413 96 824 938 626 312 217 303 274 174
is_linear=0
shrinkage=0.05


Tree=22
num_leaves=31
num_cat=0
split_feature=91 75 86 66 159 177 180 82 27 148 70 45 61 26 38 176 60 145 140 77 62 0 145 26 167 125 28 71 72 95
split_gain=47408 10415.7 8259.51 7028.13 7632.39 6935.74 6506.24 8639.26 7951.72 6877.2 6991.23 6724.37 6828.74 6379.48 5883.15 5837.54 5941.55 5615.52 5466.23 5225.11 4720.28 4606.87 4596.92 6450.42 4575.13 4234.88 5061.56 6837.84 5200.83 5034.45
threshold=55.118700667881001 37.833333333333336 671950.00000000012 52.500000000000007 4.6000000000000005 0.21900000423192981 16.500000000000004 1.5000000000000002 20.750000000000004 0.3183333426713944 26750.000000000004 1.0000000180025095e-35 2.5000000000000004 18.500000000000004 6.0000000000000009 0.33500000834465032 22.500000000000004 -2.3333333333333326 1.5000000000000002 30.876092225142411 11.500000000000002 570300.00000000012 -3.6666666666666665 18.500000000000004 3.4000000000000008 14.000000000000002 9.5500001907348651 109.50000000000001 66.500000000000014 1.0000000180025095e-35
decision_type=2 10 10 8 8 8 2 2 10 10 8 2 8 10 2 10 10 10 8 10 8 2 8 10 8 10 10 8 10 10
left_child=1 5 6 -4 -5 -1 9 11 21 10 18 13 -13 -8 22 16 -11 20 -2 -6 -16 -9 23 -7 -12 26 28 -28 -3 -27
right_child=2 25 3 4 19 14 7 8 -10 15 24 12 -14 -15 17 -17 -18 -19 -20 -21 -22 -23 -24 -25 -26 29 27 -29 -30 -31
leaf_value=-0.88469810530543325 -0.013401844337432071 -0.19082344256039974 -0.028139681299217047 1.6459445378997111 0.30594591757036604 -0.28433454793949542 -0.093774134314285135 0.12007180291102892 -0.6277421597992221 -0.0064081715814995046 -0.75655111535028974 0.20409526607164971 1.1607944899549087 0.58715231973601856 0.87037710670767154 0.10672877020679597 -0.90774430763430713 -0.38315941129081155 0.41727887717036838 1.1605065416406704 0.065547318482885558 0.80553107937177026 -0.27668365538083967 0.9100421091914177 0.020624709195073913 0.8069585055112839 -0.095912067368174134 0.29959561402092177 0.18205354031852702 0.0038156790882349018
leaf_weight=40 99 624 32 22 53 26 53 134 31 33 22 26 66 98 29 82 41 37 288 27 49 30 962 20 136 32 247 196 110 50
leaf_count=40 99 624 32 22 53 26 53 134 31 33 22 26 66 98 29 82 41 37 288 27 49 30 962 20 136 32 247 196 110 50
internal_value=-4.18585e-10 -0.129842 0.247037 0.618352 0.821172 -0.237725 0.203353 0.354533 0.106644 0.108892 0.19268 0.553456 0.890423 0.348152 -0.21468 -0.183828 -0.505797 0.124138 0.307105 0.59436 0.364779 0.245461 -0.253335 0.23496 -0.0875896 -0.0301859 -0.0543904 0.0790755 -0.134943 0.317237
internal_weight=3695 2422 1273 134 102 1163 1139 438 195 701 545 243 92 151 1123 156 74 115 387 80 78 164 1008 46 158 1259 1177 443 734 82
internal_count=3695 2422 1273 134 102 1163 1139 438 195 701 545 243 92 151 1123 156 74 115 387 80 78 164 1008 46 158 1259 1177 443 734 82
is_linear=0
shrinkage=0.05


Tree=23
num_leaves=31
num_cat=0
split_feature=91 1 91 91 67 37 75 75 83 70 80 64 27 63 3 82 131 121 88 64 86 83 121 30 102 98 92 88 33 1
split_gain=43015.8 9097.57 9012.13 6022.89 5554.8 5867.33 6928.68 6705.13 5499.36 5264.65 5719.9 5804.77 5426.04 5377.81 4646.91 3578.41 5133.18 5058.63 4644.58 4285.26 3513.09 3401.55 3076.27 3644.26 3261.96 2866.42 2494.61 1686.37 1635.06 1626.98
threshold=52.80071206052515 31.500000000000004 72.454390451832921 36.378879892037794 102.50000000000001 1.0000000180025095e-35 68.166666666666671 74.833333333333357 80.500000000000014 -1849.9999999999998 9.5000000000000036 -3.4999999999999996 40.45000076293946 9.5000000000000018 33.500000000000007 70.500000000000014 3.0000000000000004 0.79500001668930065 6073.6363636363649 -3.4999999999999996 348300.00000000006 1.0000000180025095e-35 0.40500000119209295 16.500000000000004 -3.4999999999999996 -1.0000000180025095e-35 7.2500000000000009 6644.0100430416078 1.0000000180025095e-35 11.500000000000002
decision_type=2 2 2 2 10 2 8 10 10 8 10 8 8 8 2 2 8 10 2 8 10 10 8 2 8 10 2 2 2 2
left_child=1 26 8 22 5 6 -4 -7 9 10 11 -2 14 -12 -11 17 20 18 -5 -18 -17 -19 -3 27 -25 -8 28 -24 29 -1
right_child=2 3 4 15 -6 7 25 -9 -10 12 13 -13 -14 -15 -16 16 19 21 -20 -21 -22 -23 23 24 -26 -27 -28 -29 -30 -31
leaf_value=-0.25380215204280354 -0.063486576763292155 -0.50132966472042939 1.0178358457485837 0.13099239368655885 -0.016882899893181667 0.50540205140908556 0.41362859684008141 1.5914988400538763 0.96473892018908547 -0.21386445817286082 0.85973981684208778 0.35330875438597542 0.88498221814632427 0.26238676029515556 0.10609334219506353 -0.28026525872509656 -0.048885687897282259 0.054205222563310111 -0.10276314610116864 -0.76511096394388012 0.41878654344473037 0.9438598570014749 -0.24436429023523543 0.50850399335225427 -0.14754259126053917 -0.33736782583097619 -0.0079783574811049876 -0.76337677589778252 -0.32829192607370145 -0.72346338594472537
leaf_weight=23 153 126 30 258 35 27 27 30 21 137 69 184 20 83 661 41 31 22 1205 64 32 21 34 24 90 24 28 29 73 93
leaf_count=23 153 126 30 258 35 27 27 30 21 137 69 184 20 83 661 41 31 22 1205 64 32 21 34 24 90 24 28 29 73 93
internal_value=-1.14745e-10 -0.141107 0.206255 -0.107375 0.5457 0.688384 0.414892 1.07703 0.162035 0.149138 0.278927 0.164081 0.07155 0.533554 0.0511632 -0.0702463 -0.289121 -0.04583 -0.0615404 -0.531395 0.0261684 0.488688 -0.312504 -0.178085 -0.00942752 0.0602185 -0.448425 -0.483275 -0.513676 -0.630341
internal_weight=3695 2194 1501 1977 173 138 81 57 1328 1307 489 337 818 152 798 1674 168 1506 1463 95 73 43 303 177 114 51 217 63 189 116
internal_count=3695 2194 1501 1977 173 138 81 57 1328 1307 489 337 818 152 798 1674 168 1506 1463 95 73 43 303 177 114 51 217 63 189 116
is_linear=0
shrinkage=0.05


Tree=24
num_leaves=31
num_cat=0
split_feature=91 1 86 97 129 77 102 157 91 137 6 67 72 91 77 177 82 154 68 84 6 111 0 4 157 64 179 56 120 49
split_gain=38929.4 8773.93 7143.86 6230.29 5567.54 5306.97 6999.19 11801.2 6905.14 5320.07 5118.98 5043.82 4810.11 4761.23 6517.75 4497.64 7565.22 4150.34 4146.13 4136.09 4113.48 3945.64 3740.75 4595.77 3578.75 3515.98 3386.07 2723.41 2716.61 3474.58
threshold=55.118700667881001 61.500000000000007 671950.00000000012 14.000000000000002 21.166666666666668 21.548395145191993 -3.4999999999999996 17.100000000000005 64.361418047882154 1.0000000180025095e-35 0.73375001549720775 62.500000000000007 68.500000000000014 45.041095890410965 8.08290376865477 0.49100001156330114 70.500000000000014 -0.99999999999999989 80.500000000000014 -86.499999999999986 0.39499999582767492 9.0000000000000018 181400.00000000003 0.79500001668930065 21.300000000000001 -2.4999999999999996 20.500000000000004 -1.0000000180025095e-35 0.24499999731779101 1.0000000180025095e-35
decision_type=2 2 10 10 10 10 10 10 2 10 2 10 10 2 8 8 2 10 10 10 2 10 2 8 10 8 2 8 10 2
left_child=1 -1 4 11 5 9 7 -7 -8 12 25 19 -2 20 28 21 -17 -13 -5 -4 26 -16 -22 -24 -12 -6 27 -3 -15 -30
right_child=2 13 3 18 10 6 8 -9 -10 -11 24 17 -14 14 15 16 -18 -19 -20 -21 22 -23 23 -25 -26 -27 -28 -29 29 -31
leaf_value=-0.35076713913599455 0.23289206580038033 -0.72918143272399905 0.18283794942227277 0.56744242429733283 -0.097511821361475223 0.40854721204175254 -0.029452969849366569 1.5974054473417778 0.42231321032961894 -0.4380568488687277 -0.88701421549687032 -0.5777211880683899 -0.1784841906192691 -0.67659552298312964 0.14415080667316141 0.043891106364477815 -0.60496265867761545 0.39753279218178555 1.5733515852973576 1.1064082498903629 -0.47476265089852476 0.66578202552573629 -0.073154586628625243 0.61503524139523513 -0.13712930443083368 0.63047966338970052 0.10665044492366267 -0.28005254521976775 0.36188815623521808 -0.57012359946966173
leaf_weight=346 409 38 22 20 43 92 145 27 203 40 26 20 86 43 231 377 51 24 21 27 56 43 819 25 41 27 51 302 20 20
leaf_count=346 409 38 22 20 43 92 145 27 203 40 26 20 86 43 231 377 51 24 21 27 56 43 819 25 41 27 51 302 20 20
internal_value=1.53983e-10 -0.11766 0.223859 0.569187 0.183232 0.224108 0.34727 0.678288 0.234077 0.1166 -0.115728 0.342815 0.161421 -0.0788088 0.0182968 0.0678366 -0.0334256 -0.0457645 1.08266 0.691744 -0.137854 0.226013 -0.0790271 -0.0527698 -0.428129 0.183285 -0.273262 -0.330249 -0.400703 -0.104118
internal_weight=3695 2422 1273 134 1139 1002 467 119 348 535 137 93 495 2076 785 702 428 44 41 49 1291 274 900 844 67 70 391 340 83 40
internal_count=3695 2422 1273 134 1139 1002 467 119 348 535 137 93 495 2076 785 702 428 44 41 49 1291 274 900 844 67 70 391 340 83 40
is_linear=0
shrinkage=0.05


Tree=25
num_leaves=31
num_cat=0
split_feature=91 10 91 31 43 37 98 84 144 26 35 70 78 147 68 180 80 32 78 92 93 25 35 44 70 64 71 64 43 150
split_gain=35133.8 8112.9 6655.36 5347.73 5801.27 5111.21 5552.08 6184.82 5574.5 5012.77 4765.25 6498.25 7279.76 7387.48 6095.89 4848.59 6339.75 5983.93 4842.08 4341.64 4330.67 4097.52 4820.78 6076.61 4610.7 3966.4 3919.97 4390.25 3898.35 3786.82
threshold=55.118700667881001 36.500000000000007 72.454390451832921 4.5000000000000009 -1.4999999999999998 5.0000000000000009 -1.0000000180025095e-35 -42.499999999999993 -0.99999999999999989 70.700000762939467 1.0000000180025095e-35 1750.0000000000002 35.003571064214306 79.833333333333357 28.500000000000004 16.500000000000004 -25.499999999999993 43.500000000000007 35.9409062424917 5.5000000000000009 15.750000000000002 23.60000038146973 1.0000000180025095e-35 7.0000000000000009 -4049.9999999999995 -1.4999999999999998 12.500000000000002 -4.4999999999999991 -4.4999999999999991 5.1000000000000005
decision_type=2 10 2 2 2 2 10 8 8 8 2 8 8 10 8 2 8 2 8 2 2 10 2 2 10 8 8 8 2 8
left_child=1 3 10 26 19 6 7 -4 -8 21 14 12 20 -14 -2 17 -17 -16 -13 -5 -12 29 23 -23 -24 -21 -1 -28 -29 -3
right_child=2 9 5 4 -6 -7 8 -9 -10 -11 11 18 13 -15 15 16 -18 -19 -20 25 -22 22 24 -25 -26 -27 27 28 -30 -31
leaf_value=-0.56568334834894751 0.69726941375032314 -0.47024717984928027 1.4247846108675004 -0.087877986522821291 -0.37676143582378119 1.1471667020796585 -0.52558936224533959 0.41360183400252182 0.41958207311347517 -0.27178470795457277 0.30577012725332953 -0.050566998614023806 0.095059036073230574 1.421303575379508 0.020987769762674968 0.95464606336443814 0.25690262456771634 0.56694722332452474 -0.71940278022788295 0.22700594745968519 -0.37298571239126493 0.072923945415090854 0.10191760610029535 0.76604557486646108 -0.33815079164948875 1.0706139851022851 0.11915666457731278 0.069734955216581768 -0.31493557668903049 -0.0060355280525982383
leaf_weight=99 63 81 20 52 56 26 26 62 39 191 47 73 21 21 420 37 271 57 43 38 47 757 103 33 141 22 80 74 599 96
leaf_count=99 63 81 20 52 56 26 26 62 39 191 47 73 21 21 420 37 271 57 43 38 47 757 103 33 141 22 80 74 599 96
internal_value=2.06211e-11 -0.111777 0.212666 -0.219063 0.0387586 0.500946 0.386649 0.660232 0.0415135 -0.0337226 0.167327 -0.0235763 0.210915 0.758181 0.224058 0.186081 0.340722 0.0862282 -0.298498 0.246519 -0.0336078 0.00382473 0.0418774 0.101877 -0.152384 0.536329 -0.269902 -0.231014 -0.272639 -0.218471
internal_weight=3695 2422 1273 1020 168 173 147 82 65 1402 1100 252 136 42 848 785 308 477 116 112 94 1211 1034 790 244 60 852 753 673 177
internal_count=3695 2422 1273 1020 168 173 147 82 65 1402 1100 252 136 42 848 785 308 477 116 112 94 1211 1034 790 244 60 852 753 673 177
is_linear=0
shrinkage=0.05


Tree=26
num_leaves=31
num_cat=0
split_feature=91 38 37 78 27 176 180 70 1 6 131 77 102 90 180 91 14 0 124 69 6 157 80 93 26 88 44 140 154 112
split_gain=31865.9 7514.62 8946.68 8273.91 9427.47 7652.56 7575.09 7378 6959.59 6887.17 6467.15 6462.29 5732.82 5269 4986.11 4894.67 4578.49 5128.71 4231.6 4134.1 4063.1 6159.3 4227.22 3908.76 3699.01 5665.84 4730.22 3176.88 2498.37 2551.15
threshold=52.80071206052515 1.0000000180025095e-35 1.0000000180025095e-35 21.906619885107364 6.5999999046325692 0.23799999803304675 20.500000000000004 27850.000000000004 31.500000000000004 0.36125001311302191 8.3333333333333339 34.97617945078661 -2.4999999999999996 42.236865108575643 13.500000000000002 40.546296296296305 77.500000000000014 324350.00000000006 4.666666666666667 6850.0000000000009 0.78875002264976513 13.900000000000002 3.6666666666666683 9.2500000000000018 60.549999237060554 5533.9687500000009 7.0000000000000009 2.8333333333333335 -1.7999999999999998 1.0000000180025095e-35
decision_type=2 2 2 8 8 10 2 10 2 2 10 8 10 2 2 2 10 2 10 10 2 8 10 2 8 2 2 10 8 8
left_child=8 5 3 20 11 13 7 14 -1 19 23 -5 -6 -2 -4 28 17 -15 24 -7 21 -3 -22 -11 26 -26 -17 -18 -10 -30
right_child=1 2 6 4 12 9 -8 -9 15 10 -12 -13 -14 16 -16 18 27 -19 -20 -21 22 -23 -24 -25 25 -27 -28 -29 29 -31
leaf_value=-0.3902423597700585 0.5613844544247345 -0.46380055373714812 0.84505095132339147 1.0979186358827133 0.40664284003468665 1.2218944325447083 1.2472637804115521 -0.26834284086381238 0.29052799369977866 0.34598772872435424 0.80712256503827651 0.24684267326405177 -0.046303766590253211 -0.56453073043376212 0.26664912154277171 -0.041279921945732503 -0.23637623108851794 0.058674411804824279 0.57660982688130058 0.27028326988220214 -0.82337032987764391 0.41749752949584612 -0.034581601108823509 -0.032047829317448082 -0.87152549980148197 -0.14083809881957007 0.46539643847694001 -0.86359773946530893 -0.46761975109318987 -0.18780445289707381
leaf_weight=217 27 31 81 54 130 25 34 31 23 95 33 38 151 40 69 1142 52 189 27 21 33 55 35 244 31 184 48 33 101 421
leaf_count=217 27 31 81 54 130 25 34 31 23 95 33 38 151 40 69 1142 52 189 27 21 33 55 35 244 31 184 48 33 101 421
internal_value=1.04724e-09 0.177523 0.290672 0.179777 0.307076 0.0669076 0.562494 0.433863 -0.12145 0.210305 0.138936 0.746387 0.163244 -0.10887 0.578986 -0.0919468 -0.166503 -0.0501824 -0.0434118 0.787463 -0.128552 0.0998203 -0.417376 0.0738913 -0.0553268 -0.246193 -0.0208426 -0.479886 -0.219474 -0.241945
internal_weight=3695 1501 742 527 373 759 215 181 2194 418 372 92 281 341 150 1977 314 229 1432 46 154 86 68 339 1405 215 1190 85 545 522
internal_count=3695 1501 742 527 373 759 215 181 2194 418 372 92 281 341 150 1977 314 229 1432 46 154 86 68 339 1405 215 1190 85 545 522
is_linear=0
shrinkage=0.05


Tree=27
num_leaves=31
num_cat=0
split_feature=91 91 64 147 109 86 91 160 0 25 177 102 78 2 92 2 48 92 50 121 121 157 121 180 38 4 130 68 9 77
split_gain=28758.9 6980.48 10367.2 5583.77 5093.92 6122.14 4631.79 4388.19 6615.19 6316.2 6874.64 5467.01 4797.59 4322.74 7527.46 4802.71 4521.34 4932.37 4068.23 3642 3582.1 5818.01 4136.44 5538.9 5305.42 2905.21 2643.94 2607.05 2278.6 3384.21
threshold=52.80071206052515 65.028084714548825 -7.4999999999999991 50.833333333333336 1.0000000180025095e-35 728050.00000000012 36.243589743589745 3.0000000000000004 510550.00000000006 40.850000381469734 0.44099999964237219 -2.4999999999999996 24.870664943650159 60.500000000000007 10.250000000000002 69.500000000000014 1.0000000180025095e-35 10.250000000000002 1.0000000180025095e-35 0.40500000119209295 0.79500001668930065 10.100000000000001 0.61500000953674328 11.500000000000002 10.000000000000002 0.53499999642372142 -2.8333333333333326 55.500000000000007 9150.0000000000018 14.011899704655807
decision_type=2 2 8 8 10 10 2 8 2 8 10 10 10 2 2 2 2 2 2 8 10 10 8 2 2 8 10 10 2 10
left_child=3 7 -3 28 5 18 19 8 9 10 -2 -10 -11 16 -15 -16 17 -9 -4 -5 22 -22 23 -8 -24 26 -21 -18 29 -1
right_child=1 2 4 6 -6 -7 20 13 11 12 -12 -13 -14 14 15 -17 27 -19 -20 25 21 -23 24 -25 -26 -27 -28 -29 -30 -31
leaf_value=-0.31076363876864721 0.39008786391753419 1.2522577024996282 0.22173122690428523 -0.49258906617330211 -0.30101162446914498 1.0392717212438585 -0.18664871058611326 -0.26414622561083184 0.21058893376275112 0.0086603047060114999 1.6231138351932168 -0.73033937445053698 0.59124779378781556 0.88248472006662804 0.26449032880470053 -0.20498197617178615 -0.15323853829706258 0.13539900653592246 0.8349785556053293 -0.089745714675102922 -0.07136761224828661 1.015730584897101 -0.3053557157987043 0.029527842296999035 0.38340806792820659 -0.41360177993774416 0.57997470289468767 -0.6876737467753582 -0.042668681698186058 -0.82893923358483745
leaf_weight=111 26 28 401 119 37 27 429 111 38 84 20 26 61 34 143 88 55 254 29 56 32 20 285 958 31 47 20 39 42 44
leaf_count=111 26 28 401 119 37 27 429 111 38 84 20 26 61 34 143 88 55 254 29 56 32 20 285 958 31 47 20 39 42 44
internal_value=-9.3804e-10 0.168646 0.316312 -0.115378 0.263262 0.308947 -0.0903246 0.0899117 0.268281 0.415697 0.926186 -0.171663 0.253749 0.0270883 0.18788 0.0856437 -0.0657435 0.0138935 0.26309 -0.295387 -0.0620482 0.346747 -0.0745304 -0.0373357 -0.237787 -0.104598 0.0864965 -0.374972 -0.369341 -0.457859
internal_weight=3695 1501 522 2194 494 457 1997 979 255 191 46 64 145 724 265 231 459 365 430 242 1755 52 1703 1387 316 123 76 94 197 155
internal_count=3695 1501 522 2194 494 457 1997 979 255 191 46 64 145 724 265 231 459 365 430 242 1755 52 1703 1387 316 123 76 94 197 155
is_linear=0
shrinkage=0.05


end of trees

feature_importances:
Column_91=77
Column_0=27
Column_38=23
Column_71=21
Column_77=21
Column_1=19
Column_78=19
Column_64=18
Column_70=17
Column_69=16
Column_86=15
Column_111=14
Column_180=14
Column_75=12
Column_27=11
Column_81=11
Column_102=11
Column_25=10
Column_26=10
Column_28=10
Column_66=10
Column_87=10
Column_145=10
Column_152=10
Column_157=10
Column_4=9
Column_67=9
Column_84=9
Column_92=9
Column_121=9
Column_148=9
Column_176=9
Column_2=8
Column_3=8
Column_37=8
Column_72=8
Column_80=8
Column_88=8
Column_177=8
Column_6=7
Column_9=7
Column_62=7
Column_68=7
Column_120=7
Column_144=7
Column_5=6
Column_21=6
Column_29=6
Column_32=6
Column_42=6
Column_79=6
Column_129=6
Column_130=6
Column_13=5
Column_19=5
Column_30=5
Column_35=5
Column_61=5
Column_82=5
Column_83=5
Column_93=5
Column_149=5
Column_10=4
Column_12=4
Column_14=4
Column_43=4
Column_63=4
Column_73=4
Column_76=4
Column_116=4
Column_124=4
Column_125=4
Column_160=4
Column_167=4
Column_7=3
Column_11=3
Column_20=3
Column_31=3
Column_44=3
Column_45=3
Column_48=3
Column_58=3
Column_60=3
Column_109=3
Column_119=3
Column_122=3
Column_131=3
Column_140=3
Column_150=3
Column_153=3
Column_154=3
Column_161=3
Column_171=3
Column_175=3
Column_33=2
Column_50=2
Column_53=2
Column_74=2
Column_85=2
Column_90=2
Column_95=2
Column_97=2
Column_98=2
Column_101=2
Column_104=2
Column_108=2
Column_117=2
Column_147=2
Column_156=2
Column_159=2
Column_164=2
Column_8=1
Column_36=1
Column_49=1
Column_56=1
Column_96=1
Column_99=1
Column_103=1
Column_107=1
Column_112=1
Column_127=1
Column_134=1
Column_137=1
Column_139=1
Column_155=1
Column_158=1
Column_163=1
Column_168=1
Column_179=1

parameters:
[boosting: gbdt]
[objective: regression]
[metric: l2]
[tree_learner: serial]
[device_type: cpu]
[data_sample_strategy: bagging]
[data: ]
[valid: ]
[num_iterations: 500]
[learning_rate: 0.05]
[num_leaves: 31]
[num_threads: 14]
[seed: 42]
[deterministic: 0]
[force_col_wise: 0]
[force_row_wise: 0]
[histogram_pool_size: -1]
[max_depth: 6]
[min_data_in_leaf: 20]
[min_sum_hessian_in_leaf: 0.001]
[bagging_fraction: 0.8]
[pos_bagging_fraction: 1]
[neg_bagging_fraction: 1]
[bagging_freq: 0]
[bagging_seed: 400]
[bagging_by_query: 0]
[feature_fraction: 0.8]
[feature_fraction_bynode: 1]
[feature_fraction_seed: 30056]
[extra_trees: 0]
[extra_seed: 12879]
[early_stopping_round: 0]
[early_stopping_min_delta: 0]
[first_metric_only: 0]
[max_delta_step: 0]
[lambda_l1: 0]
[lambda_l2: 0]
[linear_lambda: 0]
[min_gain_to_split: 0]
[drop_rate: 0.1]
[max_drop: 50]
[skip_drop: 0.5]
[xgboost_dart_mode: 0]
[uniform_drop: 0]
[drop_seed: 17869]
[top_rate: 0.2]
[other_rate: 0.1]
[min_data_per_group: 100]
[max_cat_threshold: 32]
[cat_l2: 10]
[cat_smooth: 10]
[max_cat_to_onehot: 4]
[top_k: 20]
[monotone_constraints: ]
[monotone_constraints_method: basic]
[monotone_penalty: 0]
[feature_contri: ]
[forcedsplits_filename: ]
[refit_decay_rate: 0.9]
[cegb_tradeoff: 1]
[cegb_penalty_split: 0]
[cegb_penalty_feature_lazy: ]
[cegb_penalty_feature_coupled: ]
[path_smooth: 0]
[interaction_constraints: ]
[verbosity: 1]
[saved_feature_importance_type: 0]
[use_quantized_grad: 0]
[num_grad_quant_bins: 4]
[quant_train_renew_leaf: 0]
[stochastic_rounding: 1]
[linear_tree: 0]
[max_bin: 255]
[max_bin_by_feature: ]
[min_data_in_bin: 3]
[bin_construct_sample_cnt: 200000]
[data_random_seed: 175]
[is_enable_sparse: 1]
[enable_bundle: 1]
[use_missing: 1]
[zero_as_missing: 0]
[feature_pre_filter: 1]
[pre_partition: 0]
[two_round: 0]
[header: 0]
[label_column: ]
[weight_column: ]
[group_column: ]
[ignore_column: ]
[categorical_feature: ]
[forcedbins_filename: ]
[precise_float_parser: 0]
[parser_config_file: ]
[objective_seed: 16083]
[num_class: 1]
[is_unbalance: 0]
[scale_pos_weight: 1]
[sigmoid: 1]
[boost_from_average: 1]
[reg_sqrt: 0]
[alpha: 0.9]
[fair_c: 1]
[poisson_max_delta_step: 0.7]
[tweedie_variance_power: 1.5]
[lambdarank_truncation_level: 30]
[lambdarank_norm: 1]
[label_gain: ]
[lambdarank_position_bias_regularization: 0]
[eval_at: ]
[multi_error_top_k: 1]
[auc_mu_weights: ]
[num_machines: 1]
[local_listen_port: 12400]
[time_out: 120]
[machine_list_filename: ]
[machines: ]
[gpu_platform_id: -1]
[gpu_device_id: -1]
[gpu_use_dp: 0]
[num_gpu: 1]

end of parameters

pandas_categorical:null
