tree
version=v4
num_class=1
num_tree_per_iteration=1
label_index=0
max_feature_idx=180
objective=regression
feature_names=Column_0 Column_1 Column_2 Column_3 Column_4 Column_5 Column_6 Column_7 Column_8 Column_9 Column_10 Column_11 Column_12 Column_13 Column_14 Column_15 Column_16 Column_17 Column_18 Column_19 Column_20 Column_21 Column_22 Column_23 Column_24 Column_25 Column_26 Column_27 Column_28 Column_29 Column_30 Column_31 Column_32 Column_33 Column_34 Column_35 Column_36 Column_37 Column_38 Column_39 Column_40 Column_41 Column_42 Column_43 Column_44 Column_45 Column_46 Column_47 Column_48 Column_49 Column_50 Column_51 Column_52 Column_53 Column_54 Column_55 Column_56 Column_57 Column_58 Column_59 Column_60 Column_61 Column_62 Column_63 Column_64 Column_65 Column_66 Column_67 Column_68 Column_69 Column_70 Column_71 Column_72 Column_73 Column_74 Column_75 Column_76 Column_77 Column_78 Column_79 Column_80 Column_81 Column_82 Column_83 Column_84 Column_85 Column_86 Column_87 Column_88 Column_89 Column_90 Column_91 Column_92 Column_93 Column_94 Column_95 Column_96 Column_97 Column_98 Column_99 Column_100 Column_101 Column_102 Column_103 Column_104 Column_105 Column_106 Column_107 Column_108 Column_109 Column_110 Column_111 Column_112 Column_113 Column_114 Column_115 Column_116 Column_117 Column_118 Column_119 Column_120 Column_121 Column_122 Column_123 Column_124 Column_125 Column_126 Column_127 Column_128 Column_129 Column_130 Column_131 Column_132 Column_133 Column_134 Column_135 Column_136 Column_137 Column_138 Column_139 Column_140 Column_141 Column_142 Column_143 Column_144 Column_145 Column_146 Column_147 Column_148 Column_149 Column_150 Column_151 Column_152 Column_153 Column_154 Column_155 Column_156 Column_157 Column_158 Column_159 Column_160 Column_161 Column_162 Column_163 Column_164 Column_165 Column_166 Column_167 Column_168 Column_169 Column_170 Column_171 Column_172 Column_173 Column_174 Column_175 Column_176 Column_177 Column_178 Column_179 Column_180
feature_infos=[113800:1024200] [5:90] [-8:126] [-122:221] [0:1.5700000524520874] [7:90] [-0.52999997138977051:4.929999828338623] [-345500:493600] [0:23] [-100900:165700] [0:159] [0:138] [0:131] [0:85] [0:83] [0:0] [0:0] [0:0] [0:0] [-0.14000000059604645:1.7999999523162842] [-0.14000000059604645:1.8300000429153442] [-1:87] [0:0] [0:0] [0:0] [0:100] [0:400] [0:100] [0:200] [0:300] [-1:60] [-5:81] [-6:112] [0:58] [-18:0] [0:68] [0:60] [0:20] [0:48] [-10:0] [0:10] [-5:0] [0:50] [-12:0] [0:24] [0:36] [0:28] [0:4] [0:30] [0:48] [0:20] none [0:32] [0:13] [0:9] [0:5] [-9:0] [-8:0] [-12:0] [-16:0] [-1:60] [-5:68] [-6:112] [0:58] [-18:0] none [-8:180] [-8:180] [-8:180] [-100900:165700] [-100900:165700] [-8:180] [-8:180] [5:137.66666666666666] [8.5999999999999996:131.19999999999999] [4.666666666666667:137.66666666666666] [8.5999999999999996:131.19999999999999] [2.384185791015625e-07:76.741991981791386] [1.5165750888103096:61.610064112935319] [-90866.666666666672:101266.66666666667] [-81:81.666666666666657] [-8:126] [-204:228] [-140.66666666666666:150] [-204:228] [0:3] [113800:848300] [-336200:493600] [1458.9743589743589:379600] none [40.491525423728817:56.072164948453612] [5:77.869565217391298] [1:25] [1:25] [0:68] [0:60] [0:20] [0:48] [-10:0] [0:10] [-5:0] [0:50] [-12:0] [0:24] [0:36] [0:28] [0:4] [0:30] [0:48] [0:20] [0:8] [0:32] [0:13] [0:9] [0:5] [-9:0] [-8:0] [-12:0] [-16:0] [0:90] [-0.14000000059604645:2] [0:1.5700000524520874] [0:34] [0:40] [0:9.3333333333333339] [0:28] [-8:0] [0:5] [-1.6666666666666667:0] [0.33333333333333331:43.666666666666664] [-9:0] [0:16] [0:22] [0:13.333333333333334] [0:2] [0:20] [0:40] [0:6.666666666666667] [0:2.6666666666666665] [0:22] [0:9.3333333333333339] [0:3] [0:1.6666666666666667] [-4:0] [-4.666666666666667:0] [-7.333333333333333:0] [-5.333333333333333:0] [4.333333333333333:85] [0:1.4899998903274536] [0.019999999552965164:1.3500000238418579] [0:27.199999999999999] [0:33.600000000000001] [0:6.4000000000000004] [0:24] [-5.2000000000000002:0] [0:4] [-1:0] [1.2:41.200000000000003] [-8:0] [0:15.199999999999999] [0:16.800000000000001] [0:9.5999999999999996] [0:1.6000000000000001] [0:16] [0:35.200000000000003] [0:4] [0:3.2000000000000002] [0:20.399999999999999] [0:7.7999999999999998] [0:1.8] [0:2] [-3:0] [-4:0] [-5.5999999999999996:0] [-3.2000000000000002:0] [14.199999999999999:84.200000000000003] [0:1.0779999494552612] [0.05000000074505806:1.1660000085830688] none [7:23] [7:23]
tree_sizes=2650 2724 2745 2735 2754 2765 2749 2733 2730 2759 2746 2745 2759 2775 2746 2776 2751 2753 2748 2761 2751 2764 2780 2751 2760 2755 2771 2766 2779

Tree=0
num_leaves=31
num_cat=0
split_feature=91 5 91 11 2 124 91 159 132 42 0 72 148 91 60 69 93 6 7 101 25 172 76 13 86 3 3 171 26 29
split_gain=281844 73282.8 66263.3 22848.3 18279.3 16942.7 12518.3 10933.9 10897.4 10429.8 9738.35 8684.12 10799.8 10723.1 8406.2 8339.67 8165.73 8007.07 7610.95 7004.13 6976.01 6814.92 6692.93 6648.29 5437.57 5098.12 4851.18 4809.57 4776.27 4776.14
threshold=51.126425401160809 46.500000000000007 61.531818181818188 40.500000000000007 38.500000000000007 2.3333333333333335 35.006410256410263 3.0000000000000004 5.0000000000000009 13.500000000000002 741300.00000000012 73.500000000000014 0.25833332538604742 52.976902173913054 18.500000000000004 34200.000000000007 2.7500000000000004 0.81125000119209301 -99049.999999999985 26.500000000000004 56.699998855590827 -0.99999999999999989 30.700000000000006 81.500000000000014 559050.00000000012 69.500000000000014 86.500000000000014 -1.0000000180025095e-35 61.250000000000007 74.500000000000014
decision_type=2 2 2 10 2 10 2 10 10 2 2 8 10 2 8 8 2 2 2 10 10 10 10 8 8 2 2 8 10 10
left_child=1 22 4 6 17 8 -3 15 10 -7 29 12 -9 -13 25 18 -8 24 -6 -18 -17 -11 -1 27 -2 -5 -23 -16 -25 -4
right_child=2 3 5 14 7 9 16 11 -10 21 -12 13 -14 -15 23 20 19 -19 -20 -21 -22 26 -24 28 -26 -27 -28 -29 -30 -31
leaf_value=46.117192133513591 46.998180030092385 46.351960569213752 47.793256939710773 46.730245251023085 47.889922651599321 49.765245199058157 46.467626194872445 47.063686807230887 49.190959506549419 48.00357856974373 49.021911882676662 47.476329589184594 47.7730418508987 48.147626188454304 47.451481805372133 48.39274522245298 46.904361853571629 46.289727978930983 47.295146726209104 47.653730092165205 47.485245250185692 49.529054721938131 46.726399097962108 47.63024524514686 47.702681140437193 47.587745243798892 48.466608859588767 47.034163161321921 46.982388104906519 48.52062984140241
leaf_weight=339 92 137 171 130 62 25 105 77 21 30 21 83 177 210 93 40 566 29 406 33 45 21 52 152 39 20 22 268 35 26
leaf_count=339 92 137 171 130 62 25 105 77 21 30 21 83 177 210 93 40 566 29 406 33 45 21 52 152 39 20 22 268 35 26
internal_value=47.216 46.8095 47.7074 46.9648 47.5408 48.3302 46.7893 47.6135 48.1032 48.8838 47.9984 47.772 47.558 47.9575 47.1762 47.4567 46.8744 47.0415 47.3739 46.9456 47.9123 48.582 46.1982 47.267 47.2079 46.8446 48.9855 47.1417 47.509 47.8893
internal_weight=3527 1930 1597 1539 1260 337 841 1100 239 98 218 547 254 293 698 553 704 160 468 599 85 73 391 548 131 150 43 361 187 197
internal_count=3527 1930 1597 1539 1260 337 841 1100 239 98 218 547 254 293 698 553 704 160 468 599 85 73 391 548 131 150 43 361 187 197
is_linear=0
shrinkage=1


Tree=1
num_leaves=31
num_cat=0
split_feature=91 5 91 75 2 73 78 87 91 175 93 27 60 62 29 82 82 93 80 124 74 162 6 93 6 6 81 82 159 60
split_gain=254364 66166.9 60060.7 21264.4 16939 14741.8 13551.1 12008.3 10454.8 9226.29 7700.69 7667.04 7601.51 7041.36 6977.7 6787.06 6743.58 6739.5 6735.19 6675.23 6216.53 6079.75 5932.06 5709.67 5325.13 5264.51 5130.85 5085.36 4266.44 4260.15
threshold=51.126425401160809 45.500000000000007 62.978787878787891 40.166666666666679 36.500000000000007 68.500000000000014 30.49999910785478 6400.0000000000009 35.006410256410263 80.90000000000002 17.750000000000004 17.500000000000004 19.500000000000004 7.5000000000000009 74.500000000000014 -27.499999999999996 -31.499999999999996 2.7500000000000004 10.833333333333334 2.3333333333333335 28.300000000000001 0.6000000000000002 0.72075951099395763 7.7500000000000009 0.82499998807907116 1.0850000381469729 31.677083333333339 -39.499999999999993 5.8000000000000007 28.500000000000004
decision_type=2 2 2 10 2 10 10 8 2 8 2 8 8 10 10 2 2 2 8 8 10 10 2 2 2 2 8 2 10 10
left_child=1 20 4 8 11 14 15 10 -3 13 -7 24 27 -8 23 16 -6 -10 -17 -9 29 -14 -19 -4 -2 -25 -13 -5 -23 -1
right_child=2 3 5 12 6 7 9 19 17 -11 -12 26 21 -15 -16 18 -18 22 -20 -21 -22 28 -24 25 -26 -27 -28 -29 -30 -31
leaf_value=-1.115297172579877 -0.29261166236236724 -0.81304709503467942 -0.12815710604190828 0.43162483811378483 0.17110673445308749 1.3703040785886147 1.177004817686975 1.4073285535935847 -0.7046430007049016 1.5058071096738181 0.15255922079086304 0.79858524151470356 0.003923938284639405 0.42170343318471204 1.4819484280001733 0.56736070782212278 -0.63337938071324906 -0.20420437179314407 0.24453863950924101 2.3584862172603609 -0.4739414232281538 0.11490892954170705 -0.64898852086626002 0.90958011567592623 -1.2240101751827059 0.048665697234017508 -0.25754086064255755 -0.41316285162615635 1.1353076599183536 -0.43585958600044256
leaf_weight=299 57 137 20 20 256 37 40 35 105 33 20 23 494 135 31 280 29 506 382 39 52 20 88 115 21 21 23 163 21 25
leaf_count=299 57 137 20 20 256 37 40 35 105 33 20 23 494 135 31 280 29 506 382 39 52 20 88 115 21 21 23 163 21 25
internal_value=3.53046e-09 -0.386251 0.46679 -0.242245 0.313896 1.08173 0.373517 1.48847 -0.413652 0.738951 0.943025 -0.241444 -0.0426671 0.594344 0.796797 0.293252 0.0892467 -0.335373 0.38108 1.90861 -0.981424 0.0524824 -0.270098 0.660645 -0.543373 0.776645 0.270522 -0.320836 0.637552 -1.06287
internal_weight=3527 1930 1597 1554 1279 318 1155 131 836 208 57 124 718 175 187 947 285 699 662 74 376 535 594 156 78 136 46 183 41 324
internal_count=3527 1930 1597 1554 1279 318 1155 131 836 208 57 124 718 175 187 947 285 699 662 74 376 535 594 156 78 136 46 183 41 324
is_linear=0
shrinkage=0.05


Tree=2
num_leaves=31
num_cat=0
split_feature=91 5 91 91 69 2 66 121 11 105 44 60 168 4 25 90 26 43 133 74 6 61 179 58 120 93 147 66 93 28
split_gain=229564 59782.3 54204.7 19679.2 16695.5 15359.8 11645.3 9935.23 9880.16 7450.03 7932.95 7344.25 7333.24 7275.45 12190.2 7270.91 6889.74 7121.78 6416.33 6053.69 5288.2 5123.04 5478.06 5120.29 4937.79 4932.06 4887.01 4726.68 4569.82 4212.41
threshold=51.126425401160809 46.500000000000007 62.978787878787891 38.001785714285724 46750.000000000007 38.500000000000007 88.500000000000014 0.095000002533197417 40.500000000000007 1.0000000180025095e-35 11.000000000000002 32.500000000000007 2.5000000000000004 0.56499999761581432 59.399999618530281 46.985771319067403 43.20000076293946 -2.4999999999999996 3.3333333333333335 28.300000000000001 0.67678549885749828 3.5000000000000004 21.500000000000004 -4.9999999999999991 0.33500000834465032 2.2500000000000004 70.166666666666671 24.500000000000004 6.7500000000000009 7.3999998569488534
decision_type=2 2 2 2 10 2 8 10 8 10 2 10 10 8 10 2 8 2 8 10 2 10 2 2 10 2 10 10 2 10
left_child=1 19 5 12 9 16 7 -7 25 11 18 24 15 14 -8 28 17 -2 -11 -1 -19 22 -10 -9 -4 26 -5 -18 -3 -23
right_child=2 3 4 8 -6 6 13 23 21 10 -12 -13 -14 -15 -16 -17 27 20 -20 -21 -22 29 -24 -25 -26 -27 -28 -29 -30 -31
leaf_value=-0.99862465052498184 0.64184551164507875 -0.58990935585304594 0.74873675965565323 -1.2904218576171183 2.2956596175829573 -0.29756663292646407 1.3499399468716649 0.66438964806356526 0.053300862636255192 0.9591688794278822 0.32402946308255198 1.3234051725039118 0.16297206299645561 0.06788510318958399 0.42663017773712186 -0.7962533597774174 -1.1895429513671183 0.055505197188433476 1.7744562233578076 -0.4327535165439953 -0.88724217893821855 -0.35397673094545612 0.61330008503794675 0.29376274262531993 0.10189471702243008 -0.21991863075756518 -0.37419566342303923 -0.22465344592928888 -0.060104675749937699 0.11999610972731081
leaf_weight=336 36 89 94 22 24 66 72 106 345 43 20 39 35 33 71 201 22 51 55 55 21 131 50 771 43 475 43 30 75 73
leaf_count=336 36 89 94 22 24 66 72 106 345 43 20 39 35 33 71 201 22 51 55 55 21 131 50 771 43 475 43 30 75 73
internal_value=-2.86068e-09 -0.366938 0.443451 -0.226674 1.02765 0.298201 0.363721 0.294037 -0.120719 0.924134 1.23152 0.718043 -0.528382 0.737083 0.891513 -0.594676 -0.160028 0.06764 1.41673 -0.919026 -0.219463 0.0191028 0.124187 0.338559 0.545713 -0.275817 -0.684303 -0.632876 -0.347621 -0.184369
internal_weight=3527 1930 1597 1539 318 1279 1119 943 1139 294 118 176 400 176 143 365 160 108 98 391 72 599 395 877 137 540 65 52 164 204
internal_count=3527 1930 1597 1539 318 1279 1119 943 1139 294 118 176 400 176 143 365 160 108 98 391 72 599 395 877 137 540 65 52 164 204
is_linear=0
shrinkage=0.05


Tree=3
num_leaves=31
num_cat=0
split_feature=91 5 91 11 72 2 67 78 91 63 175 60 101 27 82 159 82 130 139 173 5 42 72 158 80 78 81 82 30 3
split_gain=207181 54013.7 48919.8 17536.9 15201.2 13907.1 12625.1 11872.5 8638.35 8445.99 9987.6 6785.92 6488.94 6443.96 6008.82 6390.87 6049.87 5749.97 8169.49 6734.86 5591.75 5588.73 5253.35 5679.58 4846.76 4742.93 4649.75 4184.05 4160.51 3725.29
threshold=51.126425401160809 45.500000000000007 62.978787878787891 40.500000000000007 77.500000000000014 36.500000000000007 71.500000000000014 30.49999910785478 35.006410256410263 1.5000000000000002 80.90000000000002 18.500000000000004 26.500000000000004 17.500000000000004 -27.499999999999996 7.4000000000000012 -31.499999999999996 -1.1666666666666663 7.666666666666667 -2.1999999999999997 67.500000000000014 25.500000000000004 37.500000000000007 -2.2999999999999994 1.0000000180025095e-35 29.808555523795029 31.677083333333339 -31.499999999999996 25.500000000000004 51.500000000000007
decision_type=2 2 2 10 10 2 10 10 2 10 8 8 10 8 2 10 2 10 10 10 2 2 8 8 8 8 8 2 2 2
left_child=1 21 5 8 17 13 29 14 -3 -9 -11 27 20 28 16 -16 -7 18 19 -4 -10 -1 -13 -24 -20 -8 -15 -5 -2 -6
right_child=2 3 4 11 6 7 25 9 12 10 -12 22 -14 26 15 -17 -18 -19 24 -21 -22 -23 23 -25 -26 -27 -28 -29 -30 -31
leaf_value=-0.94612613151979486 -0.72558414234912827 -0.7295152797563268 0.87429696819361524 0.27430902967850368 0.49059873166538426 0.14776628957915819 2.7276402837038045 1.4554576698939006 -0.60188304214787325 0.37993972191832509 1.3804443001747133 -0.31015828842687054 0.3541386246888174 0.75215355987134191 0.30923933726365255 1.0230723875715879 -0.61421903872798234 0.23994504209946502 1.9414527968926862 0.041654018444173477 -0.25765073851804188 -0.26486069289120762 0.37734179501975335 -0.0016898881550878285 1.0133052382045067 1.6387265586853026 -0.25323962232340941 -0.44600710325711779 0.085910045423290948 1.3424819798180552
leaf_weight=343 56 140 85 24 21 256 20 30 152 148 30 86 36 23 629 33 29 44 22 34 527 33 143 320 39 20 23 126 22 33
leaf_count=343 56 140 85 24 21 256 20 30 152 148 30 86 36 23 629 33 29 44 22 34 527 33 143 320 39 20 23 126 22 33
internal_value=1.34267e-09 -0.348591 0.421278 -0.218481 0.976263 0.283291 1.50991 0.337313 -0.370352 0.679366 0.548564 -0.0327153 -0.300027 -0.219901 0.262185 0.344823 0.0702309 0.752321 0.877569 0.636399 -0.33471 -0.886334 0.0487168 0.115376 1.34805 2.18318 0.249457 -0.330757 -0.496701 1.01119
internal_weight=3527 1930 1597 1554 318 1279 94 1155 855 208 178 699 715 124 947 662 285 224 180 119 679 376 549 463 61 40 46 150 78 54
internal_count=3527 1930 1597 1554 318 1279 94 1155 855 208 178 699 715 124 947 662 285 224 180 119 679 376 549 463 61 40 46 150 78 54
is_linear=0
shrinkage=0.05


Tree=4
num_leaves=31
num_cat=0
split_feature=91 1 91 91 159 12 124 132 42 177 60 0 85 86 72 100 88 60 25 76 1 80 140 177 145 85 73 158 172 14
split_gain=186981 47383 44215.7 14639.4 14035.3 13227.7 12958.5 9175.6 8575.53 8236.67 8229.65 7942.04 7652.21 7271.54 10223.2 7818.88 7073.26 9481.41 8641.32 6969.34 6638.24 6490.06 6470.76 6170.75 6168.73 5755.99 5701.34 5782.3 5663.89 5529.52
threshold=51.126425401160809 61.500000000000007 61.531818181818188 38.001785714285724 3.0000000000000004 32.500000000000007 2.3333333333333335 5.0000000000000009 13.500000000000002 0.52599999308586132 18.500000000000004 741300.00000000012 2.5000000000000004 254050.00000000003 92.500000000000014 -1.0000000180025095e-35 7428.0987394957992 23.500000000000004 53.100000381469734 53.300000000000004 69.500000000000014 23.166666666666671 3.1666666666666674 0.55899998545646679 -2.3333333333333326 1.5000000000000002 37.500000000000007 -2.2999999999999994 -0.99999999999999989 55.500000000000007
decision_type=2 2 2 2 10 8 10 10 2 10 8 2 10 10 10 10 2 8 10 8 2 10 10 10 10 10 8 8 10 10
left_child=1 5 4 9 13 -1 7 11 -8 12 -5 -4 -3 15 19 -2 18 23 22 -15 -17 -20 -6 -18 -7 29 -12 -28 -10 -11
right_child=2 3 6 10 16 24 8 -9 28 25 26 -13 -14 14 -16 20 17 -19 21 -21 -22 -23 -24 -25 -26 -27 27 -29 -30 -31
leaf_value=-0.86023544197575463 0.64449644088745117 -0.6968303770831098 0.51570344360989662 -0.31967502408053566 0.63897602596344094 0.53046975249335881 2.192367103457451 1.7085672577222188 0.59213285130759086 -0.1087160529409136 -0.35388901735097172 1.5385758905183702 0.24140265720585982 0.40007480155308167 1.231066479112791 -1.0202018109815461 0.22595824515208221 0.58988296102643722 0.25694974561766631 0.012543257044162601 -0.15460236648905953 1.1384892976627901 1.5497914014336391 -0.45054380699645641 -0.42540471865687257 -0.50193495577157932 0.29419721166847806 -0.037497054193515768 1.4872791244540104 0.93347143832594159
leaf_weight=422 24 230 197 276 39 21 25 21 30 35 100 21 24 182 23 28 156 168 106 320 106 26 39 43 86 43 179 494 43 20
leaf_count=422 24 230 197 276 39 21 25 21 30 35 100 21 24 182 23 28 156 168 106 320 106 26 39 43 86 43 179 494 43 20
internal_value=1.04376e-09 -0.331162 0.400214 -0.178928 0.264153 -0.734337 0.908931 0.710392 1.39312 -0.457944 -0.0853017 0.614237 -0.608178 0.110771 0.20027 -0.186618 0.445712 0.313287 0.67714 0.153043 -0.335474 0.430586 1.09438 0.0797794 -0.237803 -0.0685596 -0.00161856 0.0507247 1.11941 0.270261
internal_weight=3527 1930 1597 1401 1260 529 337 239 98 352 1049 218 254 683 525 158 577 367 210 502 134 132 78 199 107 98 773 673 73 55
internal_count=3527 1930 1597 1401 1260 529 337 239 98 352 1049 218 254 683 525 158 577 367 210 502 134 132 78 199 107 98 773 673 73 55
is_linear=0
shrinkage=0.05


Tree=5
num_leaves=31
num_cat=0
split_feature=91 5 91 11 69 177 77 91 177 1 12 5 13 132 48 88 70 74 93 177 130 77 87 7 81 120 8 161 71 81
split_gain=168750 44752.1 40092.8 14619.4 13609.9 11866.1 12130.7 9355.94 8699.51 8123.4 7207.88 6577.01 6524.83 6449.79 6301.19 6841.99 6191.61 7018.25 6033.25 6177.85 5966.57 7460.89 7224.95 5611.59 5835.31 5535.96 5514.48 6823.21 5016.44 5159.66
threshold=51.126425401160809 45.500000000000007 62.978787878787891 42.500000000000007 46750.000000000007 0.55099999904632579 28.413589964763098 41.815188310351935 0.32299999892711645 50.500000000000007 74.500000000000014 53.500000000000007 46.500000000000007 5.0000000000000009 1.0000000180025095e-35 8233.6879432624137 -30549.999999999996 58.500000000000007 2.7500000000000004 0.52900001406669628 -2.1666666666666665 34.024495334281404 149850.00000000003 -153149.99999999997 61.878571428571433 0.42499999701976782 16.500000000000004 2.8000000000000003 15.500000000000002 30.055555555555561
decision_type=2 2 2 10 10 8 10 2 10 2 10 2 10 10 2 2 10 10 2 10 8 10 8 2 10 10 2 10 10 10
left_child=1 28 5 7 13 6 23 18 -8 25 -10 -9 26 20 15 -11 -14 -18 -3 -20 22 -22 -4 -2 -25 -7 27 -5 -1 -30
right_child=2 3 4 12 -6 9 8 11 10 14 -12 -13 16 -15 -16 -17 17 -19 19 -21 21 -23 -24 24 -26 -27 -28 -29 29 -31
leaf_value=-0.99980534622498929 0.95238428477730075 -0.80837612267510561 0.79719737534937662 0.21040855778709933 2.0274889787038166 -0.003710912074893713 -0.061068719824155175 -0.94996283128857617 1.0205261867986444 0.49308173705231062 0.17567204698439567 -0.097600122004447121 0.64506948232650763 1.5109954357147217 -0.13311746524422077 0.050782199756753056 -0.2537279301089479 0.33715310404866433 -0.48122173703292975 -0.012637125580675071 0.67938646085063625 -0.23807800547578017 1.856388668786912 0.16544106073394818 0.71115550783547488 -1.0071404669019912 -0.34812216451939415 1.0944362367574987 -0.76386683201358752 -0.14077007827304661
leaf_weight=175 28 102 69 136 24 28 30 24 136 165 31 397 25 28 145 186 339 59 322 90 150 26 21 448 55 27 34 26 159 42
leaf_count=175 28 102 69 136 24 28 30 24 136 165 31 397 25 28 145 186 339 59 322 90 150 26 21 448 55 27 34 26 159 42
internal_value=1.07144e-09 -0.314604 0.380203 -0.196172 0.88263 0.255284 0.387779 -0.320953 0.72287 0.0802273 0.863697 -0.146191 -0.00769022 0.789172 0.144157 0.258701 -0.118191 -0.166135 -0.464096 -0.378861 0.713191 0.543852 1.04434 0.263461 0.225112 -0.496304 0.23079 0.35229 -0.804077 -0.633668
internal_weight=3527 1930 1597 1554 318 1279 728 935 197 551 167 421 619 294 496 351 423 398 514 412 266 176 90 531 503 55 196 162 376 201
internal_count=3527 1930 1597 1554 318 1279 728 935 197 551 167 421 619 294 496 351 423 398 514 412 266 176 90 531 503 55 196 162 376 201
is_linear=0
shrinkage=0.05


Tree=6
num_leaves=31
num_cat=0
split_feature=91 5 91 11 69 2 78 91 177 25 5 13 70 77 84 120 27 120 177 172 63 133 130 77 69 6 8 161 76 42
split_gain=152297 40388.7 36183.8 13194 12282.9 11145.3 9033.32 8443.74 8173.23 6180.56 5935.75 5888.66 5587.93 5532.3 8245.21 5525.34 5412.85 5366.72 5346.29 5206.51 6702.31 5770.13 5187.48 6805.52 5951.74 5017.3 4976.82 6157.95 4942.65 4776.43
threshold=51.126425401160809 45.500000000000007 62.978787878787891 42.500000000000007 46750.000000000007 38.500000000000007 30.49999910785478 41.815188310351935 0.576999992132187 80.90000152587892 53.500000000000007 46.500000000000007 -30549.999999999996 15.176736583776288 -53.499999999999993 0.17500000447034839 17.500000000000004 0.15500000119209292 0.66999998688697826 -0.99999999999999989 11.500000000000002 6.0000000000000009 -2.1666666666666665 37.213348253033445 -5549.9999999999991 0.82499998807907116 16.500000000000004 2.8000000000000003 58.500000000000007 25.500000000000004
decision_type=2 2 2 10 10 2 10 2 10 8 2 10 8 8 8 10 8 10 10 8 8 10 8 10 10 2 2 10 10 2
left_child=1 29 5 7 9 16 19 13 15 22 -9 26 -13 18 -15 -8 25 -18 -3 20 -7 -21 24 -24 -4 -2 27 -5 -14 -1
right_child=2 3 4 11 -6 6 8 10 -10 -11 -12 12 28 14 -16 -17 17 -19 -20 21 -22 -23 23 -25 -26 -27 -28 -29 -30 -31
leaf_value=-0.81914968818599909 -0.18411827040246773 -0.3288860371859556 0.51505885571241383 0.19988812978434212 1.9261145214239759 0.23447786012645999 1.352258793314298 -0.90246469005942354 -0.13453959748148919 1.4297803727785747 -0.092720116379815087 0.61281600189208985 -0.23423934789624679 0.20165975036159642 -0.65742810133527574 0.60545075081656097 -0.19059158765682671 0.76992898996059722 0.48117986684260167 0.11499198511045794 0.73332469541450396 0.87619943274901468 0.62124902626284129 -0.36182273119688035 1.3055041521516715 -1.037888139757243 -0.33071606260012176 1.0397144316480709 0.24848464594946967 -0.18933661896170995
leaf_weight=343 79 178 42 136 24 202 30 24 32 30 397 25 335 31 282 142 33 26 23 586 101 26 147 20 55 22 34 26 63 33
leaf_count=343 79 178 42 136 24 202 30 24 32 30 397 25 335 31 282 142 33 26 23 586 101 26 147 20 55 22 34 26 63 33
internal_value=1.88294e-10 -0.298873 0.361193 -0.186364 0.838498 0.24252 0.298332 -0.304906 0.599199 0.749713 -0.138881 -0.00730571 -0.112282 -0.440891 -0.572343 0.735708 -0.147814 0.232689 -0.236192 0.231253 0.40076 0.147331 0.672433 0.503516 0.963249 -0.370088 0.21925 0.334675 -0.157828 -0.763874
internal_weight=3527 1930 1597 1554 318 1279 1119 935 204 294 421 619 423 514 313 172 160 59 201 915 303 612 264 167 97 101 196 162 398 376
internal_count=3527 1930 1597 1554 318 1279 1119 935 204 294 421 619 423 514 313 172 160 59 201 915 303 612 264 167 97 101 196 162 398 376
is_linear=0
shrinkage=0.05


Tree=7
num_leaves=31
num_cat=0
split_feature=2 0 1 173 63 66 0 152 88 0 7 67 28 82 77 148 6 75 60 60 2 9 101 32 140 68 78 101 78 130
split_gain=116893 52946.7 19292.5 15492.6 13995.6 12943.6 11955.4 9170.15 9135.17 14513.9 8798.07 8588.16 9123.72 7950.56 7419.07 7340.06 7092.2 6212.67 5836.33 5689.5 5601.59 6495.06 5494.62 5120.36 4900.48 5104.03 5197.42 4690.07 4680.61 4447.33
threshold=38.500000000000007 569800.00000000012 74.500000000000014 -2.1999999999999997 18.500000000000004 74.500000000000014 407150.00000000006 1.0000000000000002 8639.3862612612629 423750.00000000006 -77399.999999999985 71.500000000000014 11.450000286102297 -20.499999999999996 25.152865100437324 0.36500000953674322 0.87500000000000011 35.166666666666679 27.500000000000004 29.500000000000004 24.500000000000004 -39999.999999999993 26.500000000000004 10.500000000000002 2.5000000000000004 23.500000000000004 22.167543727542192 5.5000000000000009 26.273553962843152 -1.4999999999999998
decision_type=2 2 2 8 8 10 2 10 2 2 2 8 10 2 10 8 2 10 10 10 2 2 10 2 10 10 8 8 10 10
left_child=2 3 16 4 17 15 7 19 9 -8 -10 18 -13 -6 -9 28 20 -2 -7 -5 27 -22 -23 -19 -4 -26 -27 -1 -3 -15
right_child=1 5 24 6 13 11 8 14 10 -11 -12 12 -14 29 -16 -17 -18 23 -20 -21 21 22 -24 -25 25 26 -28 -29 -30 -31
leaf_value=-0.21173816293478015 -0.30590709934257115 -0.20574790407449772 -0.28690154348479829 -0.2438007945294447 1.5231042286445355 0.35687877258622192 1.2607739963505249 0.032444907138274325 0.62165726561998502 0.24883473089763097 -0.042429550235706458 2.1865472786354299 1.0355555586723817 0.35845008308396625 0.78194394607510842 0.89431144352724312 -0.94454009551128371 0.044150582686997952 1.277447343279015 0.15562459277516266 0.45416635326717208 -0.55664379673619424 0.1826180658613642 0.40160016320687514 0.58771697712295201 -0.39810866148521507 0.41712937632511404 -0.81090529903434649 0.57929751882077873 1.0979738093655687
leaf_weight=40 53 39 483 561 29 36 44 124 58 182 356 33 36 68 45 67 131 160 33 106 23 155 30 268 34 60 29 178 37 29
leaf_count=40 53 39 483 561 29 36 44 124 58 182 356 33 36 68 45 67 131 160 33 106 23 155 30 268 34 60 29 178 37 29
internal_value=3.96294e-10 0.201896 -0.410388 0.114985 0.327621 0.84615 0.0275392 -0.0969682 0.190177 0.445849 0.0506068 1.19159 1.58603 0.796713 0.232016 0.512788 -0.622802 0.20474 0.797151 -0.180324 -0.523864 -0.338247 -0.436763 0.267974 -0.21515 0.0666066 -0.132469 -0.700966 0.176445 0.579545
internal_weight=3527 2364 1163 2083 607 281 1476 836 640 226 414 138 69 126 169 143 557 481 69 667 426 208 185 428 606 123 89 218 76 97
internal_count=3527 2364 1163 2083 607 281 1476 836 640 226 414 138 69 126 169 143 557 481 69 667 426 208 185 428 606 123 89 218 76 97
is_linear=0
shrinkage=0.05


Tree=8
num_leaves=31
num_cat=0
split_feature=91 5 91 91 68 27 159 101 129 66 5 72 21 67 175 61 7 2 14 162 42 136 86 6 11 83 64 149 87 71
split_gain=127171 33204.6 30201.6 11722.5 10771.5 11104.7 10167 7890.25 8489.33 8719.94 7343.6 7666.19 7226.64 7212.75 6932.88 9990.58 6441.25 6186.82 7970.22 5746.46 7591.73 5761.17 5455.14 5028.49 4754.91 6140.51 5577.5 4492.13 4380.45 4247.48
threshold=51.126425401160809 45.500000000000007 61.531818181818188 38.001785714285724 76.500000000000014 19.69999980926514 3.0000000000000004 25.500000000000004 10.500000000000002 34.500000000000007 67.500000000000014 92.500000000000014 17.500000000000004 27.500000000000004 80.90000000000002 12.500000000000002 -99049.999999999985 45.500000000000007 66.500000000000014 1.0000000180025095e-35 19.500000000000004 6.666666666666667 343750.00000000006 0.77749997377395641 47.500000000000007 -9.8333333333333304 -1.4999999999999998 0.43499997258186346 46750.000000000007 15.500000000000002
decision_type=2 2 2 2 10 10 10 10 8 10 2 10 2 8 10 8 2 2 10 8 2 10 8 2 8 8 10 8 8 10
left_child=1 29 6 7 19 -6 10 8 9 -3 22 16 23 -10 17 -16 -12 18 -8 28 21 -21 -2 27 26 -26 -14 -5 -4 -1
right_child=2 3 4 12 5 -7 14 -9 13 -11 11 -13 24 -15 15 -17 -18 -19 -20 20 -22 -23 -24 -25 25 -27 -28 -29 -30 -31
leaf_value=-0.8748316710676467 0.22904300993929305 -0.40481052107754212 0.042771573680819887 0.10742837403501784 0.87275464684791759 2.076107468685279 0.39565135473146656 0.26568032883107667 -0.19037475790604053 0.77461237311363229 0.55167811222068253 0.99158717706226396 -0.041937711351909934 -0.73806665437979579 0.3839686709481317 1.729454762014476 0.048302139663716021 0.38529186775376895 -0.62877015258009372 0.20281274294266935 1.2463375572974866 1.0075649121829442 -0.59014487626060608 -0.96074344421426461 0.6857004448408035 0.036461492253062493 -0.42453311120392762 -0.44185822956801002 0.83158306314920394 -0.5379225716393311
leaf_weight=175 30 42 66 56 73 26 39 40 83 25 73 26 462 218 37 22 491 442 37 61 52 35 63 30 41 326 120 111 24 201
leaf_count=175 30 42 66 56 73 26 39 40 83 25 73 26 462 218 37 22 491 442 37 61 52 35 63 30 41 326 120 111 24 201
internal_value=1.01927e-10 -0.273108 0.330056 -0.171094 0.750495 1.18879 0.217605 -0.401248 -0.47374 0.0352726 0.0870604 0.152153 -0.089155 -0.587042 0.372131 0.885675 0.113455 0.313639 -0.10308 0.56818 0.75977 0.496212 -0.325891 -0.364734 -0.0319484 0.108992 -0.120823 -0.257666 0.253121 -0.694729
internal_weight=3527 1930 1597 1554 337 99 1260 408 368 67 683 590 1146 301 577 59 564 518 76 238 148 96 93 197 949 367 582 167 90 376
internal_count=3527 1930 1597 1554 337 99 1260 408 368 67 683 590 1146 301 577 59 564 518 76 238 148 96 93 197 949 367 582 167 90 376
is_linear=0
shrinkage=0.05


Tree=9
num_leaves=31
num_cat=0
split_feature=91 12 91 91 69 78 82 60 6 136 177 72 82 86 69 32 75 80 0 132 124 82 78 60 93 87 90 66 80 101
split_gain=114772 27567.5 27371.3 11224.6 10095.2 8830.78 8054.05 7953.28 6814.95 7108.38 6737.98 9238.56 6783.41 6485.91 8214.88 6439.2 5933.92 6212.4 8482.41 5269.54 5895.64 6478.53 4994.21 4713.21 4617.46 4603.34 9511.99 6758.11 5942.5 4493.84
threshold=51.126425401160809 28.500000000000004 62.978787878787891 37.73402255639099 46750.000000000007 30.228297989069876 -27.499999999999996 9.5000000000000018 0.75171250104904186 1.0000000180025095e-35 0.4629999846220017 110.50000000000001 65.500000000000014 287650.00000000006 17150.000000000004 25.500000000000004 48.833333333333336 -7.3333333333333339 310450.00000000006 5.0000000000000009 2.3333333333333335 -37.499999999999993 44.077204628128776 29.500000000000004 9.7500000000000018 40650.000000000007 46.985771319067403 11.500000000000002 13.666666666666671 25.500000000000004
decision_type=2 8 2 2 10 10 2 8 2 8 10 8 2 10 8 2 10 8 2 10 10 2 10 10 2 8 2 8 10 10
left_child=1 3 5 29 19 6 8 -5 9 -2 11 -7 22 14 -8 -15 25 -18 24 20 21 -4 -12 -9 -19 27 -27 -3 -29 -1
right_child=2 16 4 7 -6 10 13 23 -10 -11 12 -13 -14 15 -16 -17 17 18 -20 -21 -22 -23 -24 -25 -26 26 -28 28 -30 -31
leaf_value=-0.70417089794576659 0.63124512295897417 0.80167069775717603 0.85081382731893174 -0.90111644985154271 1.714696287115415 0.45648000492176544 -0.2271700979757855 -0.28198735212553638 -0.79679726858490285 -0.074488206948069013 0.69027832439312575 1.4490516080175126 -0.38613633308559658 0.20713079824089642 0.45689312942100302 0.5773287827688488 0.62988328810369731 0.96424027000154777 -0.14596017692887853 1.3006407546145577 1.0020608727894131 0.25012505156371523 -0.15370963563521703 0.27514054063967491 0.15934415909708766 -0.014440240580862499 -0.57400105103070653 -0.17221752729827677 0.57089809970609073 0.046886045450255986
leaf_weight=386 41 21 67 48 24 71 131 324 28 275 65 35 32 328 66 183 43 28 258 28 63 136 24 43 49 136 172 372 29 21
leaf_count=386 41 21 67 48 24 71 131 324 28 275 65 35 32 328 66 183 43 28 258 28 63 136 24 43 49 136 172 372 29 21
internal_value=4.36734e-10 -0.259453 0.313553 -0.478846 0.728686 0.210338 0.149308 -0.295871 -0.0491672 0.0170785 0.49317 0.784216 0.238204 0.245743 0.00200845 0.339707 -0.0966895 0.0641107 -0.00851085 0.648195 0.579516 0.448382 0.462686 -0.216711 0.452034 -0.179953 -0.326922 -0.0726867 -0.118476 -0.665419
internal_weight=3527 1930 1597 822 318 1279 1052 415 344 316 227 106 121 708 197 511 1108 378 335 294 266 203 89 367 77 730 308 422 401 407
internal_count=3527 1930 1597 822 318 1279 1052 415 344 316 227 106 121 708 197 511 1108 378 335 294 266 203 89 367 77 730 308 422 401 407
is_linear=0
shrinkage=0.05


Tree=10
num_leaves=31
num_cat=0
split_feature=91 5 91 91 72 67 78 175 82 63 101 129 66 5 136 67 30 80 86 21 149 130 139 80 80 67 149 42 90 53
split_gain=103581 27930.8 24702.6 9624.26 9364.65 9006.65 7969.78 7377.19 7268.78 7204.84 6859.62 7606 7566.82 6631.61 7674.68 6498.67 6427.02 6374.3 6294.73 6255.03 4581.07 4202.42 6231.68 4252.66 4183.26 4117.21 5206.74 4747.46 3933.96 3922.14
threshold=51.126425401160809 45.500000000000007 62.978787878787891 38.001785714285724 77.500000000000014 71.500000000000014 30.228297989069876 80.90000000000002 -27.499999999999996 1.5000000000000002 25.500000000000004 10.500000000000002 34.500000000000007 57.500000000000007 1.0000000180025095e-35 27.500000000000004 10.500000000000002 7.6666666666666661 365400.00000000006 17.500000000000004 0.43499997258186346 -1.1666666666666663 7.666666666666667 1.0000000180025095e-35 15.000000000000005 20.500000000000004 0.378333330154419 10.500000000000002 46.687327188940095 3.5000000000000004
decision_type=2 2 2 2 10 8 10 8 2 10 10 8 10 2 8 8 2 8 10 2 8 10 10 8 8 8 10 2 2 2
left_child=1 -1 6 10 21 28 8 9 13 -8 11 12 -3 -2 -15 -13 -10 -18 -11 20 -5 22 29 -24 -7 27 -27 -21 -6 -4
right_child=2 3 4 19 5 24 7 -9 16 18 -12 15 -14 14 -16 -17 17 -19 -20 25 -22 -23 23 -25 -26 26 -28 -29 -30 -31
leaf_value=-0.63317174350922101 -0.79893412338914693 -0.35720025811876571 0.64078705683350567 -0.0029639232465449501 1.1061425546040902 2.1790470910072326 1.0928705688033786 1.1596204185576151 -0.58867284681486054 0.65158399254606492 0.26038913421332838 -0.15977557244071042 0.74147521209716805 0.69414255341162556 -0.072071087705304057 -0.67964950917083611 0.46352743624198828 0.14615816102454812 0.0031556656874647928 0.35405821033886503 -0.51011484422424969 0.078450527042150497 1.5903137645599517 0.7209096045066149 1.1799085722897542 -0.12148956931824145 0.12760506474682029 -0.48546883344650271 0.23635524923984824 0.051312847338292916
leaf_weight=376 27 42 73 68 26 20 28 33 23 57 40 83 25 37 280 218 248 437 109 21 129 44 22 39 22 393 450 85 26 46
leaf_count=376 27 42 73 68 26 20 28 33 23 57 40 83 25 37 280 218 248 437 109 21 129 44 22 39 22 393 450 85 26 46
internal_value=1.71293e-10 -0.24648 0.297875 -0.152918 0.692251 1.11111 0.199821 0.468511 0.141843 0.350952 -0.361458 -0.42905 0.0527533 -0.0467089 0.0173608 -0.536296 0.233455 0.26106 0.225809 -0.0786729 -0.335058 0.516482 0.623557 1.03447 1.65569 -0.0254507 0.0114791 -0.319147 0.671249 0.412923
internal_weight=3527 1930 1597 1554 318 94 1279 227 1052 194 408 368 67 344 317 301 708 685 166 1146 197 224 180 61 42 949 843 106 52 119
internal_count=3527 1930 1597 1554 318 94 1279 227 1052 194 408 368 67 344 317 301 708 685 166 1146 197 224 180 61 42 949 843 106 52 119
is_linear=0
shrinkage=0.05


Tree=11
num_leaves=31
num_cat=0
split_feature=91 1 91 69 12 91 12 7 60 107 5 52 69 90 145 175 84 62 101 21 68 4 132 124 28 75 92 140 30 72
split_gain=93482.2 25266.8 22294.1 8569.43 8037.18 7967.17 7401.7 7016.34 5955.36 5948.67 5697.88 5541.76 6238.93 5463.51 5371.75 5337.72 5179.3 5161.72 5083.24 5037.53 4809.19 4592.18 4572.58 5013.27 6494.54 4430.32 5093.61 4198.07 3843.57 3763.13
threshold=51.126425401160809 61.500000000000007 62.978787878787891 46750.000000000007 32.500000000000007 38.001785714285724 63.500000000000007 22350.000000000004 29.500000000000004 1.0000000180025095e-35 67.500000000000014 5.0000000000000009 30050.000000000004 46.985771319067403 -2.3333333333333326 73.90000000000002 -13.499999999999998 26.500000000000004 11.500000000000002 18.500000000000004 63.500000000000007 0.43500000238418585 5.0000000000000009 2.3333333333333335 9.5500001907348651 47.833333333333336 11.250000000000002 3.5000000000000004 25.500000000000004 2.5000000000000004
decision_type=2 2 2 10 8 2 10 2 8 10 2 2 10 2 10 8 10 8 10 2 10 10 10 10 10 8 2 10 2 8
left_child=1 4 6 22 29 9 10 13 18 -3 20 17 -13 -8 -6 21 -17 -9 -7 -20 28 -12 23 24 -4 -10 -27 -25 -2 -1
right_child=2 5 3 -5 14 8 7 11 25 -11 15 12 -14 -15 -16 16 -18 -19 19 -21 -22 -23 -24 27 -26 26 -28 -29 -30 -31
leaf_value=0.042695426195859913 -0.56910335543255008 -0.4294024901018596 0.60375266545137074 1.5660876666506134 0.57540071351187572 -0.31342289503358428 1.3551900743274019 1.1685112926143189 -0.10903735113545106 0.091237523428657485 0.10105638929775783 -0.29416080165122238 0.48710836034188881 0.44493471997625689 -0.31659114967251933 0.26510827847646551 0.021523632351489901 0.10872301518917085 -0.36583749321095338 0.03416802584293812 0.54770764648914338 1.0586711648010441 1.1912487664393017 0.56700238166628658 0.0087520856729575557 0.52766634147687286 -0.03605628733833631 1.3960467338562013 0.0095641614903103217 -0.6600095072529506
leaf_weight=20 60 284 133 24 21 244 32 27 104 68 21 56 47 34 86 464 412 20 96 437 20 31 28 37 70 102 66 26 55 402
leaf_count=20 60 284 133 24 21 244 32 27 104 68 21 56 47 34 86 464 412 20 96 437 20 31 28 37 70 102 66 26 55 402
internal_value=1.08049e-09 -0.234156 0.282981 0.657639 -0.52857 -0.122989 0.18983 0.456663 -0.0539197 -0.328824 0.13561 0.267636 0.0623407 0.886271 -0.141527 0.179762 0.150546 0.717538 -0.124407 -0.037878 -0.167896 0.671942 0.58348 0.519504 0.39858 0.147435 0.306204 0.909148 -0.292349 -0.626706
internal_weight=3527 1930 1597 318 529 1401 1279 216 1049 352 1063 150 103 66 107 928 876 47 777 533 135 52 294 266 203 272 168 63 115 422
internal_count=3527 1930 1597 318 529 1401 1279 216 1049 352 1063 150 103 66 107 928 876 47 777 533 135 52 294 266 203 272 168 63 115 422
is_linear=0
shrinkage=0.05


Tree=12
num_leaves=31
num_cat=0
split_feature=91 1 91 68 27 159 12 91 96 25 53 91 87 177 33 2 162 63 121 2 158 20 76 140 85 93 27 101 11 20
split_gain=84367.7 22803.3 20159.7 8328.72 9488.75 7977.71 7289.98 7190.37 5869.49 6238.58 5974.86 6135.42 5607.66 5594.96 5585.03 6039.15 5201.8 7841.9 6801.12 5678.44 4998.48 4715.14 4772.02 7003.51 4681.22 4511.02 4486.62 4353.82 4294.59 4217.58
threshold=51.126425401160809 61.500000000000007 61.531818181818188 76.500000000000014 19.69999980926514 3.0000000000000004 30.500000000000004 38.001785714285724 1.0000000180025095e-35 62.000000000000007 1.0000000180025095e-35 53.618206521739133 105850.00000000001 0.54899999499320995 17.000000000000004 69.500000000000014 1.0000000180025095e-35 19.500000000000004 0.40500000119209295 73.500000000000014 -2.4999999999999996 0.22500000149011615 42.900000000000006 2.1666666666666674 2.5000000000000004 17.750000000000004 18.050000190734867 11.500000000000002 47.500000000000007 0.45499999821186071
decision_type=2 2 2 10 10 10 8 2 10 10 2 2 10 10 2 2 8 10 8 2 10 2 10 10 10 2 10 10 8 2
left_child=1 6 5 16 20 12 -1 13 10 26 -7 -12 14 24 15 -2 17 -4 19 -18 -5 22 23 -9 -3 -16 -10 -23 -29 -22
right_child=2 7 3 4 -6 8 -8 21 9 -11 11 -13 -14 -15 25 -17 18 -19 -20 -21 29 27 -24 -25 -26 -27 -28 28 -30 -31
leaf_value=-0.60159591246042821 0.059828508026475907 -0.49019961419713792 0.44974322561174634 1.3156301754972208 1.8179606877840482 -0.22213961827127557 -0.155735179440955 -0.34871850160881879 0.014598810413609381 0.38451164513826375 0.18257290764439921 0.56678698894920609 0.88620386116206662 0.049336524344072111 -0.48365382513514271 0.73869194167000918 1.1459762513185994 -0.57999140689006212 0.22951972473595963 0.2019970170089177 0.90295855142176151 -0.175121727011533 -0.79157421504839875 0.69736869275569924 0.21554859676040136 0.19564370308603563 -0.98416039212183526 -0.048322085158173655 0.21552902836198534 -0.016208010682692894
leaf_weight=411 512 244 64 23 26 38 118 80 23 40 161 293 20 82 81 35 66 26 61 21 24 277 39 20 26 35 22 367 266 26
leaf_count=411 512 244 64 23 26 38 118 80 23 40 161 293 20 82 81 35 66 26 61 21 24 277 39 20 26 35 22 367 266 26
internal_value=5.30117e-10 -0.222448 0.268832 0.612335 0.997738 0.176959 -0.502141 -0.11684 0.313841 -0.0698269 0.380125 0.430535 0.0613207 -0.312383 0.0364374 0.103266 0.45202 0.152264 0.634305 0.918119 0.705604 -0.0512237 -0.322457 -0.139501 -0.422239 -0.278693 -0.473683 -0.00979363 0.0625537 0.424992
internal_weight=3527 1930 1597 337 99 1260 529 1401 577 85 492 454 683 352 663 547 238 90 148 87 73 1049 139 100 270 116 45 910 633 50
internal_count=3527 1930 1597 337 99 1260 529 1401 577 85 492 454 683 352 663 547 238 90 148 87 73 1049 139 100 270 116 45 910 633 50
is_linear=0
shrinkage=0.05


Tree=13
num_leaves=31
num_cat=0
split_feature=91 5 91 72 4 91 177 77 177 149 80 26 34 48 111 88 60 129 12 90 88 77 81 29 29 163 27 81 64 129
split_gain=76141.8 21204 18266.6 7631.52 7655.92 7605.96 6679.55 8154.5 6766.46 7496.19 5512.37 6663.65 6079.24 5342.96 7465.23 6964.14 5114.66 5004.86 6180.96 5664.32 4812.83 4803.62 4778.01 4764.19 4716.84 5576.25 4699.14 5439.2 4302.2 4177.26
threshold=51.126425401160809 46.500000000000007 62.978787878787891 77.500000000000014 0.32500000298023229 38.001785714285724 0.55099999904632579 28.413589964763098 0.32299999892711645 0.40166667103767401 7.8333333333333348 29.000000000000004 -1.0000000180025095e-35 1.0000000180025095e-35 1.0000000180025095e-35 8216.5151515151538 29.500000000000004 10.500000000000002 25.500000000000004 46.985771319067403 10359.077380952383 8.9628864398325092 42.723809523809528 74.500000000000014 47.500000000000007 5.0000000000000009 21.150000572204593 63.775000000000006 -4.4999999999999991 12.833333333333334
decision_type=2 2 2 10 10 2 8 10 10 10 10 10 2 2 8 2 8 8 10 2 2 8 8 10 10 8 10 8 10 8
left_child=1 -1 6 23 -5 17 7 10 -9 -10 11 -2 -12 14 -8 -16 26 18 -3 22 -6 -18 -19 24 25 -4 27 -7 -28 -15
right_child=2 5 3 4 20 16 13 8 9 -11 12 -13 -14 29 15 -17 21 19 -20 -21 -22 -23 -24 -25 -26 -27 28 -29 -30 -31
leaf_value=-0.54012517523010983 0.10964921967052253 -0.52413214399264418 0.93353476740885533 1.7432694017887116 0.44620667022466665 -0.027659932830306534 -0.66796385336805275 -0.14616108551621437 1.3710659821187297 0.50948078055208657 0.097346007084752634 0.54960693929532023 -0.61635197080098669 -0.7022121705991381 0.42927482126171101 -0.00403651987172791 -0.42990753778389523 0.047481447301412884 0.46136842586281823 -0.58366674118526074 1.3639463681541384 0.19476036656428786 -0.53156841229974183 1.0721854272943279 -0.085133843445417259 0.28101975712382682 0.24326673337817192 -0.59067782267280255 -0.46804400775843941 -0.071990822380858244
leaf_weight=391 226 26 48 24 50 636 27 30 31 136 127 139 39 34 170 204 35 95 41 181 20 255 57 26 47 103 25 46 142 116
leaf_count=391 226 26 48 24 50 636 27 30 31 136 127 139 39 34 170 204 35 95 41 181 20 255 57 26 47 103 25 46 142 116
internal_value=-1.07465e-09 -0.211326 0.255391 0.594522 0.972635 -0.127791 0.171072 0.270479 0.545216 0.669416 0.168552 0.277195 -0.07033 0.0397316 0.134958 0.192923 -0.0619195 -0.315359 0.0789354 -0.394692 0.708418 0.119369 -0.169662 0.435849 0.35229 0.488442 -0.123844 -0.0656347 -0.36156 -0.214841
internal_weight=3527 1930 1597 318 94 1539 1279 728 197 167 531 365 166 551 401 374 1139 400 67 333 70 290 152 224 198 151 849 682 167 150
internal_count=3527 1930 1597 318 94 1539 1279 728 197 167 531 365 166 551 401 374 1139 400 67 333 70 290 152 224 198 151 849 682 167 150
is_linear=0
shrinkage=0.05


Tree=14
num_leaves=31
num_cat=0
split_feature=2 0 6 173 63 66 116 7 42 82 2 168 60 70 84 9 129 71 3 148 67 148 26 101 31 177 140 72 130 9
split_gain=61574.7 28474.8 11632.2 9837.75 10523.5 9135.2 7766.09 7393.69 8790.09 7345.39 7315.02 7006.28 6619.09 6783.11 6423.91 6320.84 6266.16 5825.93 5295.36 5172.76 7150.68 4975.95 5382.07 4882.46 5421.13 4852.56 4736.08 4485.64 4460.62 4103.4
threshold=38.500000000000007 569800.00000000012 0.87500000000000011 -2.1999999999999997 18.500000000000004 74.500000000000014 -1.0000000180025095e-35 -68949.999999999985 16.500000000000004 -20.499999999999996 24.500000000000004 1.7000000000000004 29.500000000000004 -19749.999999999996 -82.999999999999986 -40949.999999999993 16.833333333333339 50.500000000000007 89.500000000000014 0.32000000774860388 71.500000000000014 0.36500000953674322 39.45000076293946 26.500000000000004 1.0000000180025095e-35 0.40899999439716345 1.5000000000000002 4.5000000000000009 -2.4999999999999996 26850.000000000004
decision_type=2 2 2 8 8 8 8 2 2 2 2 10 10 8 10 2 10 8 2 10 10 8 10 10 2 8 10 8 10 2
left_child=2 3 10 4 14 21 16 8 26 -6 27 -10 13 -9 -2 -12 -7 -14 -16 20 -8 25 -23 24 -17 -3 -5 -1 -27 -4
right_child=1 5 29 7 9 6 19 12 11 -11 15 -13 17 -15 18 23 -18 -19 -20 -21 -22 22 -24 -25 -26 28 -28 -29 -30 -31
leaf_value=0.27408121895222437 -0.61870667567619919 -0.46887713074684145 -0.81392106190323832 -0.60071107792854317 1.3572016005372181 1.9169343954986997 0.4780559053644538 0.30400797434226434 1.4387129881165244 0.4502632310710003 0.45841742048903211 0.41031817143310367 0.6382996057385002 -0.13161023642422939 0.13078687749253884 -0.30248667930748752 0.76533942790258502 0.064345620941090337 0.68605875323216126 0.23404837152497338 1.6338649928569795 1.0884009729732167 0.11580655908584594 0.29794194264223378 0.05872729063979281 0.82169341897964476 0.16794901667254988 -0.48173714021214614 -0.14314487291418987 -0.11445573192834856
leaf_weight=21 26 28 130 25 29 27 32 99 22 97 41 67 58 918 407 462 21 186 48 44 23 33 25 49 134 25 101 301 23 25
leaf_count=21 26 28 130 25 29 27 32 99 22 97 41 67 58 918 407 462 21 186 48 44 23 33 25 49 134 25 101 301 23 25
internal_value=5.07943e-10 0.146533 -0.297853 0.0827966 0.252239 0.618996 0.891185 0.013114 0.284131 0.659003 -0.235846 0.664528 -0.0330942 -0.0892049 0.145685 -0.143564 1.41311 0.200777 0.189365 0.638129 0.961394 0.320402 0.669179 -0.18183 -0.221274 0.0542295 0.0154371 -0.432445 0.359375 -0.701104
internal_weight=3527 2364 1163 2083 607 281 147 1476 215 126 1008 89 1261 1017 481 686 48 244 455 99 55 134 58 645 596 76 126 322 48 155
internal_count=3527 2364 1163 2083 607 281 147 1476 215 126 1008 89 1261 1017 481 686 48 244 455 99 55 134 58 645 596 76 126 322 48 155
is_linear=0
shrinkage=0.05


Tree=15
num_leaves=31
num_cat=0
split_feature=91 5 91 132 91 124 94 69 78 175 82 63 97 25 101 129 86 12 131 82 172 67 5 136 21 91 139 67 136 42
split_gain=63968 17494.3 15396.4 6788.22 6504.45 6073.01 6600.31 6740.63 5851.91 6579.91 6305.87 5995.46 5711.21 6637.03 5704.73 6250.99 5526.07 5449.69 5343.19 7105.58 5297.21 5265.62 4965.46 6681.13 4059.47 4179.12 3812.28 3571.93 4833.43 4362.04
threshold=51.126425401160809 46.500000000000007 62.978787878787891 5.0000000000000009 38.001785714285724 2.3333333333333335 1.0000000180025095e-35 -5549.9999999999991 30.228297989069876 80.90000000000002 -27.499999999999996 1.5000000000000002 1.0000000180025095e-35 54.149999618530281 25.500000000000004 10.500000000000002 365400.00000000006 25.500000000000004 5.666666666666667 -18.499999999999996 -0.99999999999999989 27.500000000000004 57.500000000000007 1.0000000180025095e-35 17.500000000000004 45.912461605967536 3.6666666666666674 20.500000000000004 1.0000000180025095e-35 10.500000000000002
decision_type=2 2 2 10 2 10 10 10 10 8 2 10 8 10 10 8 10 10 8 2 8 8 2 8 2 2 8 8 8 2
left_child=1 -1 8 5 14 18 7 -7 10 11 22 -10 20 -14 15 17 -13 -3 19 -4 -12 -17 -2 -24 25 26 -6 29 -29 -26
right_child=2 4 3 -5 24 6 -8 -9 9 -11 12 16 13 -15 -16 21 -18 -19 -20 -21 -22 -23 23 -25 27 -27 -28 28 -30 -31
leaf_value=-0.49235225375979913 -0.7195315858832112 -0.48376943815786105 0.46282558167302934 1.2243266037016205 -0.059296786785125732 0.63752526614976968 0.27857230325539906 1.8617224519903008 0.95267984462635857 1.0396092181855983 0.33845797285863333 0.56066260996617767 0.80078999854221533 0.17066041139575344 0.28320984998479104 -0.097436302726144924 -0.046886560327689585 0.4415994123714726 0.51106813986232325 -0.5309791508370213 0.0035601231964823305 -0.57871138749103401 0.61827061726535504 -0.096628357981597746 0.35752739225115099 0.072312241167791433 -0.62437679161043735 0.24829696628091102 -0.042834080460249224 -0.44719951848773398
leaf_weight=391 27 26 37 33 46 23 30 22 28 33 175 57 74 96 39 77 109 41 138 35 363 217 37 280 21 62 85 182 658 85
leaf_count=391 27 26 37 33 46 23 30 22 28 33 175 57 74 96 39 77 109 41 138 35 363 217 37 280 21 62 85 182 658 85
internal_value=-2.24051e-11 -0.193697 0.234086 0.545436 -0.11782 0.466827 0.853042 1.23602 0.156674 0.386913 0.106993 0.275887 0.192322 0.444952 -0.291276 -0.353339 0.16173 0.0825011 0.328894 -0.0202739 0.112495 -0.452663 -0.0686258 -0.0131859 -0.0569052 -0.265888 -0.425952 -0.0142692 0.0202443 -0.287772
internal_weight=3527 1930 1597 318 1539 285 75 45 1279 227 1052 194 708 170 400 361 166 67 210 72 538 294 344 317 1139 193 131 946 840 106
internal_count=3527 1930 1597 318 1539 285 75 45 1279 227 1052 194 708 170 400 361 166 67 210 72 538 294 344 317 1139 193 131 946 840 106
is_linear=0
shrinkage=0.05


Tree=16
num_leaves=31
num_cat=0
split_feature=2 0 6 70 76 66 10 0 64 60 116 86 87 49 1 87 167 72 10 119 93 176 66 177 31 14 9 95 60 31
split_gain=50934.6 23558.2 10228.1 8574.96 8783.14 8089.06 7974.48 9644.47 7128.07 7674.58 6912.2 6525.99 6511.12 6192.97 5925.66 5352.98 5292.99 5047.4 4862.32 4856.48 4654.27 4318.19 4305.72 3814.02 3731.02 3636.35 3579.61 3502.54 3386.77 3258.12
threshold=38.500000000000007 569800.00000000012 0.87500000000000011 -1.0000000180025095e-35 65.90000000000002 74.500000000000014 83.500000000000014 410350.00000000006 -3.4999999999999996 17.500000000000004 -1.0000000180025095e-35 175950.00000000003 -103749.99999999999 1.0000000180025095e-35 62.500000000000007 -70349.999999999985 11.000000000000002 3.5000000000000004 87.500000000000014 39.500000000000007 1.2500000000000002 0.38499999046325689 99.500000000000014 0.40899999439716345 2.5000000000000004 75.500000000000014 26850.000000000004 18.000000000000004 29.500000000000004 4.5000000000000009
decision_type=2 2 2 8 10 8 10 2 10 8 8 8 8 2 2 8 10 8 10 8 2 10 10 8 2 10 2 10 10 2
left_child=2 3 11 8 14 21 7 -6 9 29 13 -1 -11 -7 28 -16 22 -13 27 24 -21 23 -10 -3 -19 -18 -4 -12 -5 -2
right_child=1 5 26 4 6 10 -8 -9 16 12 18 17 -14 -15 15 -17 25 19 -20 20 -22 -23 -24 -25 -26 -27 -28 -29 -30 -31
leaf_value=-0.78802916952904234 -0.51125310193747286 -0.37113672659314911 -0.7544003423482466 -0.60598370067670315 1.3448165905475618 0.63955262541770941 -0.33523686657349272 0.27556443875786701 -0.065482116672304788 0.96544514662202663 0.5713037668272507 0.48934035891736 0.35266703576925873 1.7915358604863287 0.40005255598160955 -0.047093108191608321 0.86109222712055333 -0.50290819540962406 0.095908875486758707 -0.51867552542686457 -0.10311281354550053 0.75034411019749114 0.64186342617739811 0.31222588739533358 0.18816828510978006 0.12695811596271153 -0.10110155898332596 1.34696609323675 0.013568026432767511 0.21404083093007406
leaf_weight=47 32 29 130 71 30 20 30 71 333 51 43 27 289 28 72 951 31 174 34 75 663 36 23 69 22 37 25 22 32 30
leaf_count=47 32 29 130 71 30 20 30 71 333 51 43 27 289 28 72 951 31 174 34 75 663 36 23 69 22 37 25 22 32 30
internal_value=-2.50131e-10 0.133272 -0.270899 0.0752992 -0.00693712 0.563015 0.380553 0.593164 0.200446 0.351293 0.819145 -0.212754 0.444584 1.31154 -0.0520181 -0.0156224 0.057426 -0.184619 0.580406 -0.204101 -0.145345 0.282037 -0.0197828 0.110006 -0.425338 0.461637 -0.64903 0.833836 -0.413502 -0.160304
internal_weight=3527 2364 1163 2083 1257 281 131 101 826 402 147 1008 340 48 1126 1023 424 961 99 934 738 134 356 98 196 68 155 65 103 62
internal_count=3527 2364 1163 2083 1257 281 131 101 826 402 147 1008 340 48 1126 1023 424 961 99 934 738 134 356 98 196 68 155 65 103 62
is_linear=0
shrinkage=0.05


Tree=17
num_leaves=31
num_cat=0
split_feature=91 5 91 75 69 66 94 90 2 84 77 90 19 159 7 180 25 148 77 149 160 139 91 87 140 90 14 29 102 77
split_gain=53801.1 14466 12777.5 8446.93 6130.2 5495.91 7553.35 8273.5 8373.59 6430.46 5608.22 10762.6 7999.97 5188.34 5561.12 4966.01 4475.32 4260.48 6177.43 7087.28 7578.53 5053.85 4385.13 4819.29 5785.58 4139.43 4406.26 3919.85 4981.59 3891.26
threshold=51.126425401160809 66.500000000000014 62.978787878787891 38.833333333333336 46750.000000000007 88.500000000000014 25.500000000000004 47.804725021188439 55.500000000000007 -19.499999999999996 23.072349974229621 45.977303070761018 0.25499999523162847 3.0000000000000004 -102499.99999999999 10.500000000000002 80.90000152587892 0.14166666567325595 12.382717911719274 0.4616666734218598 1.8 8.3333333333333339 42.595806451612908 -21549.999999999996 2.5000000000000004 50.057861521817536 79.500000000000014 74.500000000000014 -1.0000000180025095e-35 12.662279942148389
decision_type=2 2 2 10 10 10 10 2 2 10 10 2 2 10 2 2 8 8 10 10 10 10 2 10 10 2 8 10 10 10
left_child=1 3 5 -1 16 9 7 8 -7 10 11 -2 -12 14 -11 -15 27 18 -3 21 -21 -20 25 24 -24 26 -19 28 -4 -5
right_child=2 17 4 29 -6 6 -8 -9 -10 13 12 -13 -14 15 -16 -17 -18 22 19 20 -22 -23 23 -25 -26 -27 -28 -29 -30 -31
leaf_value=-0.44154600514940934 -0.23797676006430077 -0.38869948338817911 0.3902156893727256 0.49645069117347407 1.2666704416275025 0.3657754242420197 -0.26516093323970663 0.136731669795182 1.5655733926729722 0.56049666792899377 0.90183290888865797 0.31254922002135371 0.18520562924836814 0.52896671205759049 -0.2186294921561257 0.032052388577276283 1.0142877046267191 -0.30598377162387586 1.2258358694356064 0.65876800784697898 -0.44906444973067239 0.23336020468369775 -0.031154347363532921 -0.17362872281393738 0.44917605660703724 -0.47945217591360079 0.0031690939045859521 0.91828230896900453 -0.29962767144044239 -0.14597414504397999
leaf_weight=573 133 37 205 30 24 26 29 45 33 25 66 267 95 65 273 222 30 211 29 26 38 23 174 218 98 109 254 29 30 110
leaf_count=573 133 37 205 30 24 26 29 45 33 25 66 267 95 65 273 222 30 211 29 26 38 23 174 218 98 109 254 29 30 110
internal_value=-9.55845e-10 -0.177638 0.214679 -0.356479 0.498315 0.144158 0.448401 0.647375 1.03685 0.108848 0.229795 0.129499 0.478978 -0.0071367 -0.153267 0.144594 0.435593 -0.0728615 0.173844 0.353276 0.000992486 0.786856 -0.108337 0.00152517 0.141906 -0.202122 -0.137113 0.369832 0.302151 -0.00831168
internal_weight=3527 1930 1597 713 318 1279 133 104 59 1146 561 400 161 585 298 287 294 1217 153 116 64 52 1064 490 272 574 465 264 235 140
internal_count=3527 1930 1597 713 318 1279 133 104 59 1146 561 400 161 585 298 287 294 1217 153 116 64 52 1064 490 272 574 465 264 235 140
is_linear=0
shrinkage=0.05


Tree=18
num_leaves=31
num_cat=0
split_feature=5 76 60 82 157 70 139 80 111 172 68 159 73 62 177 53 62 88 180 75 6 19 83 71 73 25 67 26 83 119
split_gain=41018 20812.9 8873.42 7690.43 7485.34 6516.01 7588.12 7153.45 9870.61 5887.83 5424.78 5100.8 5075.83 5026.7 4974.75 6687.03 6540.53 5868.08 5316.77 4547.17 4572.91 4285.18 8428.66 5471.14 3597.5 3453.12 5905.85 3089.66 2929.98 3062.79
threshold=66.500000000000014 63.900000000000006 29.500000000000004 -6.4999999999999991 9.1000000000000014 550.00000000000011 5.0000000000000009 11.833333333333339 3.0000000000000004 -1.0000000180025095e-35 41.500000000000007 3.8000000000000003 68.500000000000014 26.500000000000004 0.36500000953674322 3.5000000000000004 2.5000000000000004 9347.9583333333339 20.500000000000004 59.500000000000007 0.81125000119209301 0.23499999940395358 -31.833333333333332 26.500000000000004 24.166666666666668 63.049999237060554 6.5000000000000009 46.45000076293946 22.500000000000004 59.500000000000007
decision_type=2 10 8 2 8 8 8 10 10 10 8 10 10 8 8 2 8 2 2 10 2 2 8 8 10 8 8 10 10 8
left_child=2 5 19 24 -3 6 7 10 -9 21 -2 12 -8 -13 15 17 -16 -6 -18 20 25 22 -7 -23 -4 26 -1 -27 29 -22
right_child=1 4 3 -5 14 9 11 8 -10 -11 -12 13 -14 -15 16 -17 18 -19 -20 -21 28 23 -24 -25 -26 27 -28 -29 -30 -31
leaf_value=0.6306398119218648 -0.29526267281176549 1.1969731597550985 0.11282833069562913 -0.19659264124282028 0.65355052276490599 0.8300207055173815 0.081662042044790689 1.2355775462463499 0.013373245608131841 -0.46676531240895947 0.081321744207248456 0.27043749144873941 0.82643188933531442 0.7933264015210888 1.1019700430688404 0.21588532837728658 0.28415530720717069 1.7069586861133577 -0.33044028596154285 0.36658259749412542 -0.5548675639600289 -0.38034820582658524 -0.2287070468282357 0.11302011425284526 0.95286638805499446 -0.5336896086302706 -0.2628086242567354 0.019448002196591478 -0.1012298903465271 -1.0450928906368655
leaf_weight=20 222 29 25 115 39 20 489 24 53 81 168 208 24 59 21 48 217 20 42 20 123 63 313 520 26 195 246 29 25 43
leaf_count=20 222 29 25 115 39 20 489 24 53 81 168 208 24 59 21 48 217 20 42 20 123 63 313 520 26 195 246 29 25 43
internal_value=-2.96848e-10 0.0973471 -0.298666 0.0300427 0.42218 0.0371285 0.113313 -0.0460891 0.39432 -0.0581588 -0.133042 0.208749 0.116505 0.385982 0.364121 0.654113 0.253302 1.01064 0.184491 -0.376506 -0.398329 -0.0220266 -0.16512 0.0597059 0.541083 -0.317436 -0.195632 -0.462078 -0.605856 -0.681854
internal_weight=3527 2660 867 166 416 2244 1247 467 77 997 390 780 513 267 387 107 280 59 259 701 681 916 333 583 51 490 266 224 191 166
internal_count=3527 2660 867 166 416 2244 1247 467 77 997 390 780 513 267 387 107 280 59 259 701 681 916 333 583 51 490 266 224 191 166
is_linear=0
shrinkage=0.05


Tree=19
num_leaves=31
num_cat=0
split_feature=91 1 91 132 60 111 78 175 144 124 94 69 28 76 132 2 85 21 32 101 30 91 149 67 71 91 64 74 74 87
split_gain=45051.5 11666.5 10778.3 5717.03 4997.55 4796.88 5140.11 6295.37 4995.76 4781.37 6050.46 5544.7 5271.88 4922.98 4470.01 5540.98 4422.67 6567.85 5590.04 3916.86 5311.91 4224 4216.49 3885.56 4760.82 3791.73 3429.69 3312.81 3061.8 2520.54
threshold=51.126425401160809 44.500000000000007 62.978787878787891 5.0000000000000009 29.500000000000004 1.0000000180025095e-35 30.49999910785478 80.90000000000002 -1.0000000180025095e-35 2.3333333333333335 1.0000000180025095e-35 -5549.9999999999991 9.5500001907348651 78.100000000000009 7.0000000000000009 44.500000000000007 1.0000000180025095e-35 32.500000000000007 23.500000000000004 26.500000000000004 26.500000000000004 37.559285714285721 0.55500000715255748 17.500000000000004 36.500000000000007 46.402624051734868 -1.4999999999999998 57.500000000000007 32.500000000000007 43450.000000000007
decision_type=2 2 2 10 8 8 10 10 10 10 10 10 10 8 8 2 8 2 2 10 2 2 10 8 8 2 10 8 10 8
left_child=1 25 5 9 19 14 16 8 -8 12 11 -11 13 -4 15 -2 17 -7 -18 21 -21 22 -3 -6 -25 28 -23 -26 -1 -14
right_child=2 4 3 -5 23 6 7 -9 -10 10 -12 -13 29 -15 -16 -17 18 -19 -20 20 -22 26 -24 24 27 -27 -28 -29 -30 -31
leaf_value=-0.4873771018315764 -0.537516272564729 -0.48953948686830701 0.20309632213377374 1.0799792430843369 -0.45952304645496256 0.09509054383529085 0.14212771525196996 1.2017882407066369 0.74720561504364014 0.55137023838317922 0.17748183594395717 1.6616695049472832 -0.25479076653718952 0.81791853984748875 -0.90748571023345004 0.56104749996553771 -0.030565477249829071 0.65643706007535207 0.26877470105539925 0.60401554583130701 -0.31321485103280455 -0.067750212100459214 -0.0353376771012942 0.71398970800740968 -0.25977004971089107 0.16525840582670992 -0.31209161147877978 0.12681754663922734 0.096961116138845685 0.40229293940588828
leaf_weight=340 24 176 82 33 34 140 141 21 45 23 30 22 54 54 20 22 568 83 215 38 27 642 72 29 70 27 185 266 24 20
leaf_count=340 24 176 82 33 34 140 141 21 45 23 30 22 54 54 20 22 568 83 215 38 27 642 72 29 70 27 185 266 24 20
internal_value=3.66773e-10 -0.162553 0.196448 0.456952 -0.10059 0.131679 0.154266 0.381168 0.288518 0.384812 0.727503 1.09418 0.262422 0.447217 -0.28344 -0.0121162 0.107577 0.304022 0.0516288 -0.153895 0.223012 -0.176685 -0.357674 0.051708 0.0993295 -0.406443 -0.122409 0.0462785 -0.448849 -0.0772006
internal_weight=3527 1930 1597 318 1539 1279 1213 207 186 285 75 45 210 136 66 46 1006 223 783 1140 65 1075 248 399 365 391 827 336 364 74
internal_count=3527 1930 1597 318 1539 1279 1213 207 186 285 75 45 210 136 66 46 1006 223 783 1140 65 1075 248 399 365 391 827 336 364 74
is_linear=0
shrinkage=0.05


Tree=20
num_leaves=31
num_cat=0
split_feature=91 5 91 69 30 21 80 72 84 68 60 93 67 80 49 130 6 87 87 180 171 6 62 77 4 14 42 0 95 123
split_gain=40659 10691.7 9727.39 5079.46 4475.19 4627.93 7028.28 4784.24 4634.6 4379.63 4216.47 4327 3928.26 4237.07 4244 3719.29 3720.75 7193.67 4142.31 3644.35 6748.65 3976.79 3398.41 4554.41 4745.83 3126.52 3016.64 2629.27 2549.6 2505.35
threshold=51.126425401160809 45.500000000000007 62.978787878787891 46750.000000000007 12.500000000000002 17.500000000000004 -9.5000000000000018 105.50000000000001 -19.499999999999996 61.500000000000007 29.500000000000004 2.7500000000000004 26.500000000000004 -1.6666666666666659 1.0000000180025095e-35 -1.1666666666666663 1.075000047683716 145100.00000000003 2650.0000000000005 14.500000000000002 -1.0000000180025095e-35 0.6981014907360078 7.5000000000000009 8.9628864398325092 0.55500000715255748 69.500000000000014 25.500000000000004 398150.00000000006 1.0000000180025095e-35 6.0000000000000009
decision_type=2 2 2 10 2 2 10 10 10 8 8 2 10 10 2 10 2 8 10 2 8 2 10 8 8 10 2 2 8 10
left_child=1 26 4 15 12 6 9 8 -7 -6 11 25 -2 14 -14 16 17 -4 -18 20 -13 -21 23 -12 -25 28 -1 -24 -3 -27
right_child=2 10 3 -5 5 7 -8 -9 -10 -11 22 19 13 -15 -16 -17 18 -19 -20 21 -22 -23 27 24 -26 29 -28 -29 -30 -31
leaf_value=-0.43760138830419842 -0.56028346470216428 -0.40926524727311853 0.44652937145641192 1.1335161974304355 -0.44080134093761442 0.23174976347018386 1.053391987234354 0.77432426278080257 0.019872018830571169 0.59304494573956446 -0.34477752652433186 0.38098155770036912 0.61227839061369504 -0.46545927247830798 -0.29613912343978882 -0.011180876283084645 -0.13438030704855919 1.3478607589235674 0.69047093313673269 -0.11422919533131236 -0.096944350066472729 -0.4182269374064902 -0.59055245245496435 0.3262408621801236 -0.15657145866881247 -0.43901535689830784 0.062918891622261566 0.027327041659090258 -0.99430794692039504 0.34292166084051134
leaf_weight=343 41 73 149 24 20 457 35 28 593 21 45 90 36 28 20 51 45 26 23 387 412 149 33 194 69 20 33 36 25 21
leaf_count=343 41 73 149 24 20 457 35 28 593 21 45 90 36 28 20 51 45 26 23 387 412 149 33 194 69 20 33 36 25 21
internal_value=4.19452e-11 -0.154426 0.186626 0.434104 0.125095 0.155876 0.532982 0.12929 0.112089 0.0887297 -0.0965382 -0.143151 -0.159082 0.0367426 0.287844 0.377009 0.458481 0.580441 0.144613 -0.108069 -0.0112604 -0.198736 0.0489863 0.12004 0.199571 -0.40513 -0.393673 -0.268181 -0.558511 -0.038511
internal_weight=3527 1930 1597 318 1279 1154 76 1078 1050 41 1554 1177 125 84 56 294 243 175 68 1038 502 536 377 308 263 139 376 69 98 41
internal_count=3527 1930 1597 318 1279 1154 76 1078 1050 41 1554 1177 125 84 56 294 243 175 68 1038 502 536 377 308 263 139 376 69 98 41
is_linear=0
shrinkage=0.05


Tree=21
num_leaves=31
num_cat=0
split_feature=91 5 12 157 75 7 120 67 4 115 132 84 148 63 72 72 42 61 52 69 28 93 70 159 12 72 83 84 77 72
split_gain=36694.7 9757.41 8813.11 6414.02 6404.79 5815.02 5330.68 9024.41 5074.86 5491.72 5339.18 4703.76 5817.12 4661.08 4550.41 4199.02 3920.98 3845.44 4929.49 6377.47 4546.39 4512.55 3716.23 4887.77 4664.77 3628.27 3514.8 3459.99 3354.49 3220.82
threshold=51.126425401160809 66.500000000000014 63.500000000000007 9.1000000000000014 38.833333333333336 22350.000000000004 0.25499999523162847 70.500000000000014 0.79500001668930065 -1.0000000180025095e-35 5.0000000000000009 -17.499999999999996 0.22500000894069674 7.5000000000000009 77.500000000000014 85.500000000000014 22.500000000000004 4.5000000000000009 9.0000000000000018 16250.000000000002 7.3999998569488534 16.750000000000004 550.00000000000011 1.0000000000000002 54.500000000000007 2.5000000000000004 -18.833333333333332 30.500000000000004 12.662279942148389 29.500000000000004
decision_type=2 2 10 8 10 2 10 10 8 8 8 10 8 8 10 8 2 10 2 10 10 2 8 8 8 8 10 8 10 8
left_child=1 4 8 -4 25 6 7 -5 9 10 -2 12 -11 15 -13 -7 -8 18 22 27 29 -22 23 -3 -24 -1 -10 -20 -6 -19
right_child=2 17 3 5 28 13 16 -9 26 11 -12 14 -14 -15 -16 -17 -18 20 19 -21 21 -23 24 -25 -26 -27 -28 -29 -30 -31
leaf_value=0.2341029390692711 0.075112035312414394 -0.38814975737400781 1.1484194847826774 0.32939586520195008 0.47824731843235596 0.13531878221441399 0.19368436011401091 1.8314287301898002 0.073304598148052513 -0.067716246341564215 -0.62585971308025456 0.0051973320592783 0.36038489022852782 0.025154423378530501 0.40367337776019296 0.93915670136921114 0.97809804961794899 0.21174334836006167 0.24626112440600992 0.88757670973577807 -0.084031577121752965 0.73605578988790521 -0.28435567005342527 0.13377240109703925 0.1446356988201539 -0.39396332725721372 -0.72096374392509466 -0.31967442635748844 -0.11822539115493949 -0.38816063643756715
leaf_weight=24 71 53 26 20 30 33 66 20 26 98 44 456 417 152 85 32 21 25 100 31 104 20 258 292 84 549 30 37 110 213
leaf_count=24 71 53 26 20 30 33 66 20 26 98 44 456 417 152 85 32 21 25 100 31 104 20 258 292 84 549 30 37 110 213
internal_value=2.00854e-10 -0.146704 0.177294 0.391191 -0.293583 0.333959 0.602675 1.08041 0.112794 0.135031 -0.193086 0.170764 0.278921 0.176691 0.0678045 0.531054 0.383026 -0.0606529 -0.00282073 0.239959 -0.197245 0.0482406 -0.0621903 0.0535931 -0.178989 -0.367657 -0.352196 0.0934172 0.00959019 -0.325146
internal_weight=3527 1930 1597 370 713 344 127 40 1227 1171 115 1056 515 217 541 65 87 1217 855 168 362 124 687 345 342 573 56 137 140 238
internal_count=3527 1930 1597 370 713 344 127 40 1227 1171 115 1056 515 217 541 65 87 1217 855 168 362 124 687 345 342 573 56 137 140 238
is_linear=0
shrinkage=0.05


Tree=22
num_leaves=31
num_cat=0
split_feature=91 0 60 66 78 5 87 66 148 66 91 42 140 60 10 69 68 111 149 75 86 179 105 78 63 1 86 180 27 167
split_gain=33293.4 11611.9 7332.8 6241.26 6006.49 5939.84 5571.31 6033.98 7957.21 6094.64 5255.81 5167.95 5128.8 4692.98 4650.12 4247.5 3894.48 3814.61 3770.62 4391.63 3835.78 4080.18 3456.84 4647.85 3306.74 3584.2 3137.57 3062.7 3022.25 3018.72
threshold=44.373330034636325 569800.00000000012 15.500000000000002 74.500000000000014 22.710129871671207 66.500000000000014 -81349.999999999985 81.500000000000014 0.23000001162290576 67.500000000000014 35.555743243243249 19.500000000000004 5.5000000000000009 17.500000000000004 44.500000000000007 19550.000000000004 66.500000000000014 3.0000000000000004 0.29833331704139715 50.166666666666679 306050.00000000006 16.500000000000004 1.0000000180025095e-35 25.972099969706125 15.500000000000002 22.500000000000004 435750.00000000006 13.500000000000002 32.049999237060554 5.0000000000000009
decision_type=2 2 8 10 8 2 8 10 8 10 2 2 8 8 10 10 10 10 8 10 10 2 10 8 10 2 10 2 10 10
left_child=2 5 26 11 -5 16 13 9 -9 -8 15 22 -6 17 -15 29 24 -7 19 -12 21 -20 23 -3 25 -2 27 -1 -29 -4
right_child=1 3 10 4 12 6 7 8 -10 -11 18 -13 -14 14 -16 -17 -18 -19 20 -21 -22 -23 -24 -25 -26 -27 -28 28 -30 -31
leaf_value=-0.2650111626740545 -0.55760229351845658 -0.77331421041618231 -0.3164440376979728 1.2623358231037856 0.31300002294917439 0.42510176117221515 0.075571346281674404 0.91267941079973047 0.13457910051812297 -0.25735369260955909 -0.035535601729696449 0.63202943764626984 1.2019277834892275 0.76498936892372293 0.25889827462534115 0.33602309226989746 0.44885897361066035 -0.29960534549925638 -0.093365254861834862 -1.0592554952204229 -0.16776254274135019 0.20775326096279698 0.42582215079489877 0.082861936618300047 -0.83174350057684243 -0.035515284240245824 0.22237703800201417 -0.65333706425578419 -0.048466066519419357 -0.84157951585948476
leaf_weight=160 44 23 189 32 86 30 1015 46 115 159 22 48 20 73 120 22 23 46 224 20 324 226 34 51 21 130 20 148 24 32
leaf_count=160 44 23 189 32 86 30 1015 46 115 159 22 48 20 73 120 22 23 46 224 20 324 226 34 51 21 130 20 148 24 32
internal_value=-9.59194e-10 0.125445 -0.188122 0.417029 0.661966 0.0783943 0.111676 0.0698468 0.356893 0.0304818 -0.122407 0.200353 0.480722 0.319268 0.450321 -0.326527 -0.166488 -0.0135368 -0.061622 -0.523021 -0.0365848 0.0578632 0.00849708 -0.183247 -0.239067 -0.167537 -0.385828 -0.422466 -0.568936 -0.392482
internal_weight=3527 2116 1411 294 138 1822 1604 1335 161 1174 1059 156 106 269 193 243 218 76 816 42 774 450 108 74 195 174 352 332 172 221
internal_count=3527 2116 1411 294 138 1822 1604 1335 161 1174 1059 156 106 269 193 243 218 76 816 42 774 450 108 74 195 174 352 332 172 221
is_linear=0
shrinkage=0.05


Tree=23
num_leaves=31
num_cat=0
split_feature=91 91 91 101 1 132 148 129 52 82 82 67 74 108 84 173 93 131 63 130 157 2 3 102 27 13 28 135 60 161
split_gain=30237.7 8350.58 7810.91 5473.57 5305.57 4901.4 4900.59 5235.89 5341.76 4386.62 8848.32 5863.19 6178.97 7468.67 6120.9 5467.41 5262.68 4337.76 5535.48 5121.5 5209.67 4182.59 4252.7 4047.92 3872.86 3542.26 3496.57 3332.21 3081.55 3598.21
threshold=51.126425401160809 38.001785714285724 62.978787878787891 25.500000000000004 18.500000000000004 5.0000000000000009 0.29166665673255926 10.500000000000002 3.0000000000000004 -24.499999999999996 -18.499999999999996 70.500000000000014 51.70000000000001 1.0000000180025095e-35 -7.4999999999999991 -2.5999999999999992 13.250000000000002 5.666666666666667 13.500000000000002 -2.1666666666666665 15.100000000000001 28.500000000000004 -10.499999999999998 -1.4999999999999998 6.5999999046325692 79.500000000000014 8.5000000000000018 5.0000000000000009 29.500000000000004 2.0000000000000004
decision_type=2 2 2 10 2 10 8 10 2 2 2 10 8 10 8 8 2 8 10 8 10 2 2 10 8 8 10 8 8 8
left_child=1 3 9 6 -3 17 7 8 -1 11 15 14 -13 -14 16 -11 -2 18 -4 20 -19 -12 -23 -17 -5 -9 -21 -16 -6 -30
right_child=2 4 5 24 28 -7 -8 25 -10 10 21 12 13 -15 27 23 -18 19 -20 26 -22 22 -24 -25 -26 -27 -28 -29 29 -31
leaf_value=-0.16048976447847155 0.10093863688766808 -0.63972238059106634 0.44109195837607751 -0.21924185678362848 -0.084383335465012324 0.9595800587625215 -0.40816221545819564 -0.85043985843658454 0.85379977798461926 1.398093820810318 -0.5135756659507752 1.0746704832464455 -0.23350787011403887 0.60987917774460387 -0.79453846556799756 0.83076953013737997 -0.66894177389144893 1.4049315929412842 -0.27228965659936272 0.51299711398474157 0.4118981359260423 -0.24166678176476408 0.18221322544652857 -0.021609773544164806 0.56490996056987397 -0.13684054825858899 -0.029749673128128054 -0.21385921061038973 -0.11902015815701401 0.23959805847696181
leaf_weight=27 198 38 52 32 933 33 444 22 25 20 25 20 63 45 42 30 25 25 57 73 28 65 660 26 31 83 50 60 114 181
leaf_count=27 198 38 52 32 933 33 444 22 25 20 25 20 63 45 42 30 25 25 57 73 28 65 660 26 31 83 50 60 114 181
internal_value=-6.20345e-10 -0.133173 0.160941 -0.276782 -0.0578516 0.382705 -0.323261 -0.0831571 0.327149 0.105804 0.174378 -0.0192337 0.267398 0.117903 -0.132123 0.688462 0.0146292 0.315909 0.0680392 0.469419 0.88031 0.122284 0.14421 0.435022 0.166611 -0.286357 0.292368 -0.452962 -0.0398458 0.101013
internal_weight=3527 1930 1597 664 1266 318 601 157 52 1279 826 453 128 108 325 76 223 285 109 176 53 750 725 56 63 105 123 102 1228 295
internal_count=3527 1930 1597 664 1266 318 601 157 52 1279 826 453 128 108 325 76 223 285 109 176 53 750 725 56 63 105 123 102 1228 295
is_linear=0
shrinkage=0.05


Tree=24
num_leaves=31
num_cat=0
split_feature=91 76 60 157 78 5 61 87 84 60 78 124 81 73 88 26 164 20 91 25 6 93 86 129 13 4 67 0 86 79
split_gain=27361.4 10015.5 6277.55 5167.59 5095.85 4870.19 5046.72 4707.9 5540.94 5088.41 4673.94 4688.97 4642.98 4306.73 3903.21 5550.55 4803.63 4073.06 3645.48 3492.91 4143.85 2972.5 2785.95 3956.1 3323.27 3394.68 3170.44 2232.31 2181.68 2126.91
threshold=44.373330034636325 63.900000000000006 15.500000000000002 9.1000000000000014 39.638980773190234 50.500000000000007 -1.0000000180025095e-35 -81349.999999999985 -63.499999999999993 32.500000000000007 14.679916675386062 3.3333333333333335 23.708333333333339 24.500000000000004 5777.2875816993474 15.59999990463257 4.0000000000000009 0.22500000149011615 35.555743243243249 64.849998474121108 0.72540301084518444 7.2500000000000009 435750.00000000006 7.166666666666667 73.500000000000014 0.37500000000000006 44.500000000000007 240950.00000000003 472150.00000000006 -7183.333333333333
decision_type=2 10 8 8 10 2 8 8 10 10 10 10 10 10 2 10 8 2 2 8 2 2 10 8 8 10 8 2 8 8
left_child=2 5 22 -3 10 13 -7 8 -8 -9 -5 -12 29 19 15 16 -14 27 -19 20 -2 -17 23 -1 25 -25 -26 -16 -21 -4
right_child=1 3 12 4 -6 6 7 9 -10 -11 11 -13 14 -15 17 21 -18 18 -20 28 -22 -23 -24 24 26 -27 -28 -29 -30 -31
leaf_value=0.11478697363819396 0.73806246348789761 0.96988453676303232 -0.58509113312197425 -0.25229176914897461 -0.2309965810605458 0.83547013781287449 0.72029512822628028 -0.0009997989354023607 0.15129352946690211 0.31702447669408845 0.33716337396158974 0.93149255647471085 1.1727479728108103 -0.80776863098144536 -0.082512201014019196 -0.54682724364101887 0.15971788907051088 -0.315179272843846 -0.005026845300004492 -0.06755606609842052 -0.25523014948481609 0.1408485236357559 0.219642396569252 -0.19338123718897504 0.011978006191918108 -0.69049496325696336 -0.53778807897950809 -0.72486259772589334 -0.7815935644507408 -0.22440541102624068
leaf_weight=35 21 30 52 29 42 22 53 1165 222 141 262 38 22 27 21 22 25 116 517 23 21 55 20 45 61 145 46 38 20 191
leaf_count=35 21 30 52 29 42 22 53 1165 222 141 262 38 22 27 21 22 25 116 517 23 21 55 20 45 61 145 46 38 20 191
internal_value=4.34305e-10 0.113721 -0.170542 0.338683 0.287642 0.0611212 0.0833929 0.0729276 0.260956 0.0333351 0.353851 0.412445 -0.109739 -0.257642 -0.052607 0.205725 0.633902 -0.0988977 -0.0618636 -0.0828963 0.241416 -0.0556303 -0.353469 -0.387994 -0.447244 -0.572758 -0.22437 -0.496229 -0.399667 -0.301589
internal_weight=3527 2116 1411 401 371 1715 1603 1581 275 1306 329 300 1059 112 816 124 47 692 633 85 42 77 352 332 297 190 107 59 43 243
internal_count=3527 2116 1411 401 371 1715 1603 1581 275 1306 329 300 1059 112 816 124 47 692 633 85 42 77 352 332 297 190 107 59 43 243
is_linear=0
shrinkage=0.05


Tree=25
num_leaves=31
num_cat=0
split_feature=91 5 91 68 124 4 75 90 6 26 10 111 132 2 96 175 61 88 77 64 61 5 148 28 83 28 93 88 72 101
split_gain=24848.1 6817.3 6689.7 4873.83 4846.11 4562.84 4236.95 4200.27 4192.4 6418.39 5036.64 3968.81 4000.3 4736.21 3842.44 5664.99 8499.1 5362.22 4901.49 4435.59 3532.64 5009.02 10451.5 4391.97 5287.02 3938.53 4043.2 3382.86 3183.02 2972.34
threshold=51.126425401160809 67.500000000000014 61.531818181818188 35.500000000000007 2.3333333333333335 0.32500000298023229 38.833333333333336 47.99814587314588 1.0049999952316286 46.45000076293946 74.500000000000014 1.0000000180025095e-35 7.0000000000000009 44.500000000000007 1.0000000180025095e-35 80.90000000000002 5.5000000000000009 10232.426470588236 27.224376159924311 -5.4999999999999991 4.5000000000000009 70.500000000000014 0.29999999701976782 25.85000038146973 16.166666666666668 7.3999998569488534 16.750000000000004 10998.214285714288 2.5000000000000004 25.500000000000004
decision_type=2 2 2 8 10 10 10 2 2 10 10 8 8 2 10 10 8 2 10 8 10 2 8 10 10 10 2 2 8 10
left_child=1 6 11 -4 8 -6 28 -7 10 -10 -5 12 13 -2 15 19 -17 18 -16 -13 21 22 -3 24 -23 -22 -27 -8 -1 -30
right_child=2 20 3 4 5 7 27 -9 9 -11 -12 14 -14 -15 17 16 -18 -19 -20 -21 25 23 -24 -25 -26 26 -28 -29 29 -31
leaf_value=0.26221656364699208 -0.51354255179564168 1.1967853934145891 -0.25363659801021704 0.30222513098567727 1.3371569414030422 0.79511392821868265 -0.13410598279797803 -0.023956774671872461 -0.49442809796011122 0.48091139322327026 1.1226389467716218 0.40386010541270179 -0.87481427490711217 0.50211495621637858 -0.13169617918106394 -0.082294217816420975 1.0477880659535892 -0.64422560267978257 0.53433768620362154 0.078464947316800121 -0.29956507551695655 -0.05572649310176972 -0.19537688429866518 -0.34952219262882905 0.27200514378026125 -0.076357587730037244 0.70113699078559888 0.42562932184764324 -0.35861053338137716 0.078734385683423003
leaf_weight=24 24 26 31 125 22 45 118 24 37 31 22 120 20 22 109 28 41 36 37 823 233 533 28 91 160 102 20 35 518 42
leaf_count=24 24 26 31 125 22 45 118 24 37 31 22 120 20 22 109 28 41 36 37 823 233 533 28 91 160 102 20 35 518 42
internal_value=4.5193e-10 -0.120722 0.145895 0.34377 0.404292 0.710139 -0.240282 0.51022 0.27484 -0.049788 0.425008 0.0929711 -0.284466 -0.0277933 0.113835 0.151872 0.589204 -0.0976731 0.0370932 0.119873 -0.0468621 0.00913837 0.474923 -0.0229438 0.0199403 -0.179055 0.0511005 -0.00606196 -0.301644 -0.32581
internal_weight=3527 1930 1597 337 306 91 737 69 215 68 147 1260 66 46 1194 1012 69 182 146 943 1193 838 54 784 693 355 122 153 584 560
internal_count=3527 1930 1597 337 306 91 737 69 215 68 147 1260 66 46 1194 1012 69 182 146 943 1193 838 54 784 693 355 122 153 584 560
is_linear=0
shrinkage=0.05


Tree=26
num_leaves=31
num_cat=0
split_feature=91 66 67 120 73 102 140 84 77 94 108 60 60 148 180 120 136 91 77 78 87 101 173 30 73 29 180 87 6 86
split_gain=22619.7 8783.67 8443.86 11249.2 9828.53 6871.23 6579.22 6089.72 5933.79 5585.97 5426.74 5385.53 5249.69 5057.76 4278.82 4040.57 4709.7 5714.94 4372.95 4146.03 3930.06 3809.22 4422.98 4389.47 3475.77 2661.84 4070.83 3877.15 3738.56 4686.42
threshold=44.373330034636325 81.500000000000014 71.500000000000014 0.20499999821186068 84.833333333333357 -1.4999999999999998 0.50000000000000011 -17.499999999999996 24.542480178933289 25.500000000000004 1.0000000180025095e-35 15.500000000000002 39.500000000000007 0.22500000894069674 10.500000000000002 0.18500000238418582 6.666666666666667 41.573191046330045 26.630183192653131 32.083484384465073 -23849.999999999996 26.500000000000004 -2.5999999999999992 26.500000000000004 69.500000000000014 80.500000000000014 13.500000000000002 -120349.99999999999 0.85357150435447704 369500.00000000006
decision_type=2 10 10 10 8 10 8 10 10 10 10 8 10 8 2 8 10 2 8 10 8 10 8 2 8 10 2 10 2 10
left_child=11 6 3 -3 -4 -6 -2 8 13 14 -10 25 20 -8 -5 16 17 18 -13 21 -9 22 -17 -23 -14 28 27 -27 29 -1
right_child=1 2 4 9 5 -7 7 12 10 -11 -12 15 24 -15 -16 19 -18 -19 -20 -21 -22 23 -24 -25 -26 26 -28 -29 -30 -31
leaf_value=-0.22141630245106564 -0.66001890167113286 0.97937840384406005 1.6092697010040284 0.61699664013253319 -0.0076037529442045428 1.0846062228083611 -0.20977276908790965 0.11080503236184749 0.24103570658627943 -0.62733327916690285 0.79593827747818779 0.23269492544625936 0.97669251646314348 0.15044984903512443 -0.0096206525008061122 0.20107609319393754 -0.43809679904952648 0.69497373751972036 -0.4719359598813519 0.33505879283644435 -0.12551881429380579 0.53705117316582263 -0.24347610951307611 -0.15641677994619718 0.077384162220087926 0.14517343836395366 -0.71204990899738152 -0.59563655419783157 -0.62641723708408636 0.48355583610205816
leaf_weight=126 31 37 25 36 36 24 117 258 174 28 59 76 21 583 112 61 32 46 31 43 553 39 676 55 22 38 85 33 41 29
leaf_count=126 31 37 25 36 36 24 117 258 174 28 59 76 21 583 112 61 32 46 31 43 553 39 676 55 22 38 85 33 41 29
internal_value=2.11033e-10 0.103399 0.355015 0.186883 0.776336 0.42928 0.0621549 0.0746828 0.16299 0.0202786 0.381548 -0.155062 -0.021793 0.0902412 0.1428 -0.0987442 0.113538 0.228912 0.0285495 -0.143678 -0.0503381 -0.16845 -0.206681 0.131299 0.516581 -0.324495 -0.478613 -0.199147 -0.201829 -0.0895183
internal_weight=3527 2116 298 213 85 60 1818 1787 933 176 233 1411 854 700 148 1059 185 153 107 874 811 831 737 94 43 352 156 71 196 155
internal_count=3527 2116 298 213 85 60 1818 1787 933 176 233 1411 854 700 148 1059 185 153 107 874 811 831 737 94 43 352 156 71 196 155
is_linear=0
shrinkage=0.05


Tree=27
num_leaves=31
num_cat=0
split_feature=91 81 2 3 3 81 44 4 66 67 7 62 30 90 136 148 6 161 101 158 115 91 43 129 90 9 91 90 32 148
split_gain=20496 5919.47 5865.54 6216.85 4673.52 7919.79 8508.26 4072.16 4363.47 6778.58 3879.37 4807.93 3295.28 3499.4 5072.73 5679.89 3398.43 3313.14 3988.41 3942.45 3261.73 3152.07 3284.19 2939.65 2753.03 3341.08 2851.57 2749.86 2684.46 2118.62
threshold=51.126425401160809 23.414285714285715 64.500000000000014 130.50000000000003 12.500000000000002 65.033333333333346 7.0000000000000009 0.79500001668930065 94.500000000000014 53.500000000000007 -155849.99999999997 9.5000000000000018 16.500000000000004 46.985771319067403 9.3333333333333339 0.35166665911674505 0.77107599377632152 1.0000000180025095e-35 8.5000000000000018 -1.7 -1.0000000180025095e-35 41.573191046330045 -1.0000000180025095e-35 11.16666666666667 52.684978589136811 -17349.999999999996 33.726648351648358 46.985771319067403 7.5000000000000009 0.21166665852069858
decision_type=2 10 2 2 2 10 2 8 10 10 2 10 2 2 10 8 2 8 10 10 8 2 2 8 2 2 2 2 2 10
left_child=1 24 7 4 -4 -6 -7 8 10 27 11 -2 16 14 15 -14 21 19 -19 -15 -12 23 -23 -3 25 -1 -27 -10 -9 -18
right_child=2 12 3 -5 5 6 -8 28 9 -11 20 -13 13 17 -16 -17 29 18 -20 -21 -22 22 -24 -25 -26 26 -28 -29 -30 -31
leaf_value=-0.56677258530488384 1.0601166183298285 0.094280279528660083 -0.19851463466882707 0.96626366234638472 0.98668705587967853 0.42227284285672911 -0.23416256842513883 -0.63447935171425351 0.514315036535263 1.1054389657797639 -0.21971646415204119 0.099921070784330379 0.28912344015078989 -0.65889483042634456 -0.51762321041896941 -0.08510297664852684 -0.90080603130839099 -0.36779615218285477 0.015279093598265472 -0.043198427042135827 0.084389465945985231 -0.045570468623924443 0.59220149579147507 -0.35455817880206991 -0.72935166878084989 -0.37779428993484809 -0.06564443004781037 -0.29575748050754724 0.057018879890441902 -0.31547737413874044
leaf_weight=65 22 48 50 33 39 157 72 32 20 27 97 32 247 52 32 172 22 80 451 52 969 127 24 152 31 112 211 22 25 52
leaf_count=65 22 48 50 33 39 157 72 32 20 27 97 32 247 52 32 172 22 80 451 52 969 127 24 152 31 112 211 22 25 52
internal_value=6.15249e-10 -0.109642 0.132504 0.313045 0.245258 0.328052 0.215883 0.0816449 0.101436 0.48734 0.0776615 0.491112 -0.0635304 -0.0173387 0.0891615 0.135503 -0.181564 -0.092979 -0.0424347 -0.351047 0.0567175 -0.116644 0.0557973 -0.246837 -0.275929 -0.239701 -0.173882 0.0899913 -0.331191 -0.489494
internal_weight=3527 1930 1597 351 318 268 229 1246 1189 69 1120 54 1511 1086 451 419 425 635 531 104 1066 351 151 200 419 388 323 42 57 74
internal_count=3527 1930 1597 351 318 268 229 1246 1189 69 1120 54 1511 1086 451 419 425 635 531 104 1066 351 151 200 419 388 323 42 57 74
is_linear=0
shrinkage=0.05


Tree=28
num_leaves=31
num_cat=0
split_feature=91 66 62 131 3 140 84 1 26 129 21 60 172 7 137 139 83 95 86 42 144 147 73 6 21 168 149 70 76 53
split_gain=18575.2 7556.19 7628.29 9509.87 6654.4 5836.36 5441.02 5945.95 5263.75 5256.85 4859.89 4611.51 4577.96 4131.78 6337.45 6298.28 3758.61 3740.21 3662.52 3709.87 5941.45 3841.12 3617.14 3576.51 3351.87 3963.09 3052.52 2444.77 1643.9 1501.41
threshold=44.373330034636325 81.500000000000014 34.500000000000007 5.0000000000000009 59.500000000000007 0.50000000000000011 -17.499999999999996 82.500000000000014 30.899999618530277 16.500000000000004 14.500000000000002 39.500000000000007 -0.59999999999999998 -75549.999999999985 1.0000000180025095e-35 4.3333333333333348 29.166666666666668 18.000000000000004 175950.00000000003 8.5000000000000018 -1.0000000180025095e-35 21.500000000000004 22.833333333333339 0.64150050282478344 12.500000000000002 1.9000000000000001 0.37500000000000006 -2149.9999999999995 34.300000000000004 1.0000000180025095e-35
decision_type=2 10 8 8 2 8 8 2 10 10 2 10 10 2 10 10 10 10 8 2 8 8 10 2 2 10 8 10 8 2
left_child=10 5 4 -4 12 -2 13 11 9 -6 23 -8 16 15 -15 -7 -3 -14 -12 20 -20 -21 -22 24 25 27 -23 -1 -26 -25
right_child=1 2 3 -5 8 6 7 -9 -10 -11 18 -13 17 14 -16 -17 -18 -19 19 21 22 26 -24 29 28 -27 -28 -29 -30 -31
leaf_value=-0.44676583524921853 -0.62473662322567358 -0.52819033014503391 0.049539016723632812 1.2987764757413132 1.4375816275244175 -0.024997212807337445 -0.05809831297214646 0.69304724397330453 0.06246144836768508 0.39986160924801462 -0.60664094178115624 0.46608716669407757 -0.039079766046433227 0.062356203694788503 0.94686311760119024 0.53873154144887236 0.068407858467914848 0.89381138519807291 -0.23957758451762953 -0.79276259839534768 0.96681870903287614 -0.29613899247577558 0.11008218889209359 -0.41101017746814467 -0.22776515528559688 0.45444649634537876 -0.055389316650758552 0.016397082579455206 -0.82128369935921253 -0.84544981120003238
leaf_weight=58 31 44 25 39 23 75 904 29 32 26 34 44 21 568 21 146 66 22 38 20 28 156 22 43 20 27 844 56 28 37
leaf_count=58 31 44 25 39 23 75 904 29 32 26 34 44 21 568 21 146 66 22 38 20 28 156 22 43 20 27 844 56 28 37
internal_value=4.28786e-10 0.0936999 0.327074 0.810793 0.194775 0.0554461 0.0672455 -0.0121952 0.561229 0.886955 -0.140517 -0.033769 0.000769409 0.163065 0.0938921 0.347421 -0.170231 0.438213 -0.0954803 -0.0797949 0.231691 -0.106668 0.589855 -0.331712 -0.213097 -0.090242 -0.0929463 -0.219247 -0.573984 -0.611939
internal_weight=3527 2116 298 64 234 1818 1787 977 81 49 1411 948 153 810 589 221 110 43 1142 1108 88 1020 50 269 189 141 1000 114 48 80
internal_count=3527 2116 298 64 234 1818 1787 977 81 49 1411 948 153 810 589 221 110 43 1142 1108 88 1020 50 269 189 141 1000 114 48 80
is_linear=0
shrinkage=0.05


end of trees

feature_importances:
Column_91=70
Column_60=27
Column_5=25
Column_6=19
Column_2=18
Column_67=17
Column_72=17
Column_82=17
Column_66=16
Column_78=16
Column_101=16
Column_69=15
Column_77=15
Column_87=15
Column_93=15
Column_177=14
Column_86=13
Column_0=12
Column_42=12
Column_80=12
Column_90=12
Column_148=12
Column_1=11
Column_84=11
Column_132=11
Column_7=10
Column_12=10
Column_63=10
Column_129=10
Column_25=9
Column_27=9
Column_75=9
Column_76=9
Column_81=9
Column_88=9
Column_124=9
Column_140=9
Column_159=9
Column_3=8
Column_4=8
Column_21=8
Column_26=8
Column_28=8
Column_68=8
Column_73=8
Column_130=8
Column_149=8
Column_175=8
Column_11=7
Column_30=7
Column_62=7
Column_70=7
Column_120=7
Column_136=7
Column_29=6
Column_61=6
Column_74=6
Column_83=6
Column_139=6
Column_172=6
Column_180=6
Column_9=5
Column_13=5
Column_14=5
Column_64=5
Column_71=5
Column_111=5
Column_173=5
Column_10=4
Column_32=4
Column_53=4
Column_85=4
Column_94=4
Column_157=4
Column_158=4
Column_161=4
Column_20=3
Column_31=3
Column_52=3
Column_95=3
Column_102=3
Column_131=3
Column_162=3
Column_168=3
Column_8=2
Column_19=2
Column_43=2
Column_44=2
Column_48=2
Column_49=2
Column_96=2
Column_105=2
Column_108=2
Column_115=2
Column_116=2
Column_119=2
Column_121=2
Column_133=2
Column_144=2
Column_145=2
Column_147=2
Column_167=2
Column_171=2
Column_179=2
Column_33=1
Column_34=1
Column_58=1
Column_79=1
Column_92=1
Column_97=1
Column_100=1
Column_107=1
Column_123=1
Column_135=1
Column_137=1
Column_152=1
Column_160=1
Column_163=1
Column_164=1
Column_176=1

parameters:
[boosting: gbdt]
[objective: regression]
[metric: l2]
[tree_learner: serial]
[device_type: cpu]
[data_sample_strategy: bagging]
[data: ]
[valid: ]
[num_iterations: 500]
[learning_rate: 0.05]
[num_leaves: 31]
[num_threads: 14]
[seed: 42]
[deterministic: 0]
[force_col_wise: 0]
[force_row_wise: 0]
[histogram_pool_size: -1]
[max_depth: 6]
[min_data_in_leaf: 20]
[min_sum_hessian_in_leaf: 0.001]
[bagging_fraction: 0.8]
[pos_bagging_fraction: 1]
[neg_bagging_fraction: 1]
[bagging_freq: 0]
[bagging_seed: 400]
[bagging_by_query: 0]
[feature_fraction: 0.8]
[feature_fraction_bynode: 1]
[feature_fraction_seed: 30056]
[extra_trees: 0]
[extra_seed: 12879]
[early_stopping_round: 0]
[early_stopping_min_delta: 0]
[first_metric_only: 0]
[max_delta_step: 0]
[lambda_l1: 0]
[lambda_l2: 0]
[linear_lambda: 0]
[min_gain_to_split: 0]
[drop_rate: 0.1]
[max_drop: 50]
[skip_drop: 0.5]
[xgboost_dart_mode: 0]
[uniform_drop: 0]
[drop_seed: 17869]
[top_rate: 0.2]
[other_rate: 0.1]
[min_data_per_group: 100]
[max_cat_threshold: 32]
[cat_l2: 10]
[cat_smooth: 10]
[max_cat_to_onehot: 4]
[top_k: 20]
[monotone_constraints: ]
[monotone_constraints_method: basic]
[monotone_penalty: 0]
[feature_contri: ]
[forcedsplits_filename: ]
[refit_decay_rate: 0.9]
[cegb_tradeoff: 1]
[cegb_penalty_split: 0]
[cegb_penalty_feature_lazy: ]
[cegb_penalty_feature_coupled: ]
[path_smooth: 0]
[interaction_constraints: ]
[verbosity: 1]
[saved_feature_importance_type: 0]
[use_quantized_grad: 0]
[num_grad_quant_bins: 4]
[quant_train_renew_leaf: 0]
[stochastic_rounding: 1]
[linear_tree: 0]
[max_bin: 255]
[max_bin_by_feature: ]
[min_data_in_bin: 3]
[bin_construct_sample_cnt: 200000]
[data_random_seed: 175]
[is_enable_sparse: 1]
[enable_bundle: 1]
[use_missing: 1]
[zero_as_missing: 0]
[feature_pre_filter: 1]
[pre_partition: 0]
[two_round: 0]
[header: 0]
[label_column: ]
[weight_column: ]
[group_column: ]
[ignore_column: ]
[categorical_feature: ]
[forcedbins_filename: ]
[precise_float_parser: 0]
[parser_config_file: ]
[objective_seed: 16083]
[num_class: 1]
[is_unbalance: 0]
[scale_pos_weight: 1]
[sigmoid: 1]
[boost_from_average: 1]
[reg_sqrt: 0]
[alpha: 0.9]
[fair_c: 1]
[poisson_max_delta_step: 0.7]
[tweedie_variance_power: 1.5]
[lambdarank_truncation_level: 30]
[lambdarank_norm: 1]
[label_gain: ]
[lambdarank_position_bias_regularization: 0]
[eval_at: ]
[multi_error_top_k: 1]
[auc_mu_weights: ]
[num_machines: 1]
[local_listen_port: 12400]
[time_out: 120]
[machine_list_filename: ]
[machines: ]
[gpu_platform_id: -1]
[gpu_device_id: -1]
[gpu_use_dp: 0]
[num_gpu: 1]

end of parameters

pandas_categorical:null
